\data\
ngram 1=2255
ngram 2=4691
ngram 3=4917

\1-grams:
-3.700247	<unk>	0
0	<s>	-0.3512396
-1.010335	</s>	0
-2.289815	HE	-0.093532465
-1.8319849	WAS	-0.14303727
-3.5066614	BORN	-0.09489832
-2.439068	AT	-0.10161536
-3.5955312	WICHENFORD	-0.030048016
-1.7024623	IN	-0.15120243
-3.5955312	WORCESTERSHIRE	-0.030048016
-1.6581391	AND	-0.052764893
-3.5066614	EDUCATED	-0.17116138
-3.5955312	BALLIOL	-0.030048016
-3.1843276	COLLEGE	-0.08113039
-3.5955312	OXFORD	-0.030048016
-1.5991311	THE	-0.07040443
-3.5955312	PORTUGUESE	-0.030048016
-3.5066614	DIVISION	-0.030048016
-3.5955312	OVERRUN	-0.030048016
-3.5955312	WITHDREW	-0.030048016
-3.5066614	TOWARDS	-0.030048016
-3.5955312	ESTAIRES	-0.030048016
-2.6271734	HER	-0.045375537
-3.5955312	HEALTH	-0.030048016
-2.2387998	BY	-0.15366155
-2.555037	THIS	-0.048917193
-3.5955312	STAGE	-0.030048016
-2.555037	ALSO	-0.047610022
-3.5066614	POOR	-0.030048016
-2.327491	HIS	-0.044903014
-3.5955312	SPORTING	-0.030048016
-3.5955312	INTERESTS	-0.030048016
-3.3555927	OUTSIDE	-0.030048043
-1.602825	OF	-0.1973099
-3.5955312	CRICKET	-0.030048016
-3.0618224	INCLUDED	-0.030048016
-3.5955312	GOLF	-0.030048016
-3.5955312	FOLLOWING	-0.030048016
-3.0618224	YEAR	-0.030048016
-3.5955312	ELECTED	-0.030048016
-1.8016315	TO	-0.120214075
-2.668297	BE	-0.030048043
-3.0618224	PART	-0.4714575
-3.5955312	LONDON	-0.030048016
-3.5955312	DESIGNER	-0.030048016
-3.5955312	COLLECTIONS	-0.030048016
-1.8999089	A	-0.05383899
-3.5066614	HEALTHY	-0.030048016
-3.5955312	DIET	-0.030048016
-3.5066614	COMBINED	-0.030048016
-2.1141365	WITH	-0.13397662
-3.5066614	LOTS	-0.030048016
-3.5955312	EXERCISE	-0.030048016
-2.523015	CAN	-0.28921637
-3.5066614	HELP	-0.030048016
-3.0618224	YOU	-0.06591218
-3.5066614	KEEP	-0.030048016
-3.5955312	FIT	-0.030048016
-3.5955312	SAFRONOV	-0.030048016
-1.7518287	IS	-0.13491426
-3.5955312	NEAREST	-0.030048016
-3.5066614	RURAL	-0.030048016
-3.5955312	LOCALITY	-0.030048016
-3.5955312	CONTEMPORARY	-0.030048016
-3.5066614	FELLOW	-0.030048016
-3.5955312	MINISTERS	-0.030048016
-3.5955312	SOUTHERN	-0.030048016
-3.5955312	BAPTIST	-0.030048016
-3.5955312	CONVENTION	-0.030048016
-3.5955312	PRAISED	-0.030048016
-3.5955312	PREACHING	-0.030048016
-3.5955312	ABILITIES	-0.030048016
-3.5955312	BUCKNELL	-0.030048016
-3.5955312	TIED	-0.030048016
-2.0473075	FOR	-0.08168582
-3.3555927	THIRD	-0.030048043
-3.5955312	COLONIAL	-0.030048016
-3.1843276	LEAGUE	-0.09489832
-3.5955312	GHETTOIZATION	-0.030048016
-3.5955312	COMPLETED	-0.030048016
-2.966379	WITHIN	-0.22733037
-3.5955312	WEEK	-0.030048016
-3.5955312	PHILPOTT	-0.030048016
-2.888178	MANY	-0.05483859
-3.1843276	YEARS	-0.030048016
-3.5955312	TREASURER	-0.030048016
-2.7644682	THEN	-0.030048016
-3.5955312	PRESIDENT	-0.030048016
-3.5955312	BRITISH	-0.030048016
-3.5955312	PSYCHOLOGICAL	-0.030048016
-3.3555927	SOCIETY	-0.1188616
-3.0618224	BOTH	-0.030048016
-3.5066614	ENGINES	-0.030048016
-3.5955312	GEARBOX	-0.030048016
-3.5955312	PROVED	-0.030048016
-3.5955312	UNRELIABLE	-0.030048016
-3.5955312	AWARD	-0.030048016
-3.3555927	WENT	-0.1188616
-3.5955312	DAVID	-0.030048016
-3.5955312	FOSTER	-0.030048016
-3.5955312	JEREMY	-0.030048016
-3.5955312	LUBBOCK	-0.030048016
-2.5896091	ITS	-0.045375537
-3.5955312	PRODUCTS	-0.030048016
-3.3555927	RANGE	-0.030048043
-2.439068	FROM	-0.11536065
-3.5955312	SUSPENSION	-0.030048016
-3.5955312	FORKS	-0.030048016
-3.5955312	DERAILLEURS	-0.030048016
-2.465288	IT	-0.056079037
-3.5066614	BELONGS	-0.17116138
-3.3555927	LARGE	-0.030048043
-3.3555927	FAMILY	-0.1188616
-3.5955312	FRANCOBELGIAN	-0.030048016
-3.5955312	COMICS	-0.030048016
-3.0618224	ATTENDED	-0.10002227
-3.5955312	IOWA	-0.030048016
-3.0618224	STATE	-0.08113039
-3.1843276	UNIVERSITY	-0.030048016
-3.0618224	WHERE	-0.08113039
-3.5955312	PLAYED	-0.030048016
-3.5066614	DEFENSE	-0.030048016
-2.1263473	ON	-0.25960383
-3.5955312	SCHOOL'S	-0.030048016
-3.1843276	FOOTBALL	-0.030048016
-3.5066614	TEAM	-0.030048016
-2.821933	SOME	-0.030047989
-3.5955312	SCHOLARS	-0.030048016
-3.5955312	EXAMINING	-0.030048016
-3.5066614	SYSTEM	-0.030048016
-3.5955312	DEPTH	-0.030048016
-3.5955312	DISAGREE	-0.030048016
-3.5955312	OFFICIAL	-0.030048016
-3.5955312	RESULTS	-0.030048016
-3.5955312	MARSHALLVILLE	-0.030048016
-3.5066614	STUDENTS	-0.030048016
-3.5955312	ATTEND	-0.030048016
-3.5955312	GREEN	-0.030048016
-3.5066614	LOCAL	-0.030048043
-2.821933	SCHOOL	-0.076230146
-3.5066614	DISTRICT	-0.1188616
-3.3555927	NEARBY	-0.030048043
-3.5955312	SMITHVILLE	-0.030048016
-3.5066614	POLITICAL	-0.030048016
-3.5066614	POSITIONS	-0.030048016
-3.5066614	INSIDE	-0.030048016
-3.1843276	PARTY	-0.09489832
-2.2078416	ARE	-0.03789141
-3.0618224	OPEN	-0.08113039
-3.5066614	WOMEN	-0.17116138
-3.5955312	DESPITE	-0.030048016
-2.7644682	THEIR	-0.030047989
-3.5955312	FREQUENT	-0.030048016
-3.5955312	BOTHERING	-0.030048016
-3.5066614	NEVER	-0.030048016
-3.5955312	PAID	-0.030048016
-3.3555927	THEM	-0.030048043
-3.5066614	ANY	-0.030048016
-3.3555927	ATTENTION	-0.030048043
-3.3555927	HUMAN	-0.030048043
-3.0618224	BEING	-0.030048016
-3.5955312	CANNOT	-0.030048016
-3.5955312	SAFELY	-0.030048016
-3.5955312	TRUSTED	-0.030048016
-3.5955312	SOLELY	-0.030048016
-3.5955312	MERCY	-0.030048016
-3.1843276	ANOTHER	-0.030048016
-2.5896091	ONE	-0.12031876
-3.0618224	AREA	-0.072188415
-3.3555927	TRAINING	-0.030048043
-3.5955312	SPECIFIC	-0.030048016
-3.5955312	BEHAVIOR	-0.030048016
-2.555037	HAS	-0.09318454
-3.5066614	GAINED	-0.030048016
-3.5066614	SIGNIFICANT	-0.030048016
-3.5066614	SPORTS	-0.17116138
-3.5066614	HOWEVER	-0.030048016
-3.3555927	SERIES	-0.030048016
-3.5955312	LAUNCHED	-0.030048016
-3.5066614	WITHOUT	-0.030048016
-3.5955312	TECHNOLOGY	-0.030048016
-3.5955312	WILEY	-0.030048016
-3.5955312	GRADUATED	-0.030048016
-3.5955312	SAULT	-0.030048016
-3.5955312	STE	-0.030048016
-3.5955312	LENNY	-0.030048016
-3.5955312	HART	-0.030048016
-3.5955312	GRATEFUL	-0.030048016
-3.5955312	DEAD'S	-0.030048016
-3.5066614	ORIGINAL	-0.030048016
-3.5066614	MONEY	-0.030048016
-3.5066614	MANAGER	-0.030048016
-2.888178	LATER	-0.030048016
-3.5955312	COMMENTED	-0.030048016
-2.34763	THAT	-0.062838085
-3.5955312	DID	-0.030048043
-2.821933	NOT	-0.030048016
-3.5955312	SUPPORT	-0.030048016
-3.3555927	DEATH	-0.030048043
-3.5955312	NORWEGIAN	-0.030048016
-3.5955312	MILITARY	-0.030048016
-3.5955312	PERSONNEL	-0.030048016
-3.5955312	TRUTH	-0.030048016
-2.966379	WILL	-0.030048043
-3.1843276	COME	-0.030048016
-3.3555927	OUT	-0.030048043
-3.0618224	DAY	-0.08113039
-2.3082445	AS	-0.112847246
-3.5955312	HAPPENS	-0.030048016
-2.821933	ALL	-0.030048016
-3.5066614	TIME	-0.030048043
-3.5955312	COLONEL	-0.030048016
-3.5955312	BEALL	-0.030048016
-3.3555927	SERVED	-0.030048043
-3.5066614	THROUGHOUT	-0.17116138
-3.5066614	WAR	-0.030048043
-3.0618224	ONLY	-0.030048016
-3.5955312	COMMANDANT	-0.030048016
-3.5955312	MARINE	-0.030048016
-3.5955312	CORPS	-0.030048016
-3.1843276	NAMED	-0.08113039
-3.3555927	NOTABLE	-0.030048043
-3.5955312	BOOK	-0.030048016
-2.888178	NEW	-0.030048016
-3.5955312	YORK	-0.030048016
-3.5066614	TIMES	-0.030048016
-3.5955312	SERVANTS	-0.030048016
-3.5955312	OBEYED	-0.030048016
-3.5955312	ORDERS	-0.030048016
-3.5955312	MONKS	-0.030048016
-3.5955312	POWERLESS	-0.030048016
-3.5955312	INTERFERE	-0.030048016
-3.5955312	DEAL	-0.030048016
-3.5955312	UNICODE	-0.030048016
-3.5066614	PROVIDES	-0.030048016
-3.5955312	MECHANISM	-0.030048016
-3.5955312	CANONICAL	-0.030048016
-3.5955312	EQUIVALENCE	-0.030048016
-3.5955312	RAFF	-0.030048016
-3.5955312	LACHEN	-0.030048016
-3.5955312	SWITZERLAND	-0.030048016
-3.5066614	WHILE	-0.030048016
-3.5955312	PERCENTAGE	-0.030048016
-3.5955312	CONSISTS	-0.030048016
-3.5955312	INCOHERENT	-0.030048016
-2.668297	OR	-0.030047989
-3.5955312	CHAOTIC	-0.030048016
-3.5066614	SOUND	-0.030048016
-3.0618224	REFERRED	-0.12609863
-3.5955312	NOISE	-0.030048016
-3.5955312	SHARITYLIGHT	-0.030048016
-3.5955312	RUNS	-0.030048016
-3.3555927	USER	-0.030048043
-3.5066614	SPACE	-0.030048016
-3.3555927	RATHER	-0.1188616
-3.5066614	THAN	-0.030048043
-3.5955312	KERNEL	-0.030048016
-3.5066614	STARS	-0.030048016
-3.3555927	MICHAEL	-0.030048043
-3.5955312	GROSS	-0.030048016
-3.5955312	ALEXIS	-0.030048016
-3.5955312	ARQUETTE	-0.030048016
-3.5955312	HILARY	-0.030048016
-3.5955312	SWANK	-0.030048016
-3.5955312	GRAVE	-0.030048016
-3.1843276	LOCATED	-0.09489832
-3.5955312	HIETZING	-0.030048016
-3.5066614	CEMETERY	-0.17116138
-3.5955312	FUTURE	-0.030048016
-3.5955312	EXPLORATION	-0.030048016
-2.465288	HAVE	-0.08995631
-3.5955312	INVOLVE	-0.030048016
-3.5955312	SMALLER	-0.030048016
-3.5955312	BASINS	-0.030048016
-3.3555927	WELL	-0.030048043
-3.5955312	STEVENSON	-0.030048016
-3.5955312	LINDSAY	-0.030048016
-3.5066614	ONTARIO	-0.030048016
-3.5955312	FOLLOW	-0.030048016
-3.5955312	LINK	-0.030048016
-3.5066614	FIND	-0.17116138
-3.1843276	LIST	-0.18347774
-3.3555927	WORLD	-0.1188616
-3.5955312	ALLIANCES	-0.030048016
-3.5955312	TEASPOON	-0.030048016
-3.3555927	TYPICALLY	-0.030048043
-3.5955312	CHARACTERIZED	-0.030048016
-3.5066614	SMALL	-0.030048016
-3.5955312	SIZE	-0.030048016
-3.0618224	LONG	-0.030048016
-3.5955312	HANDLE	-0.030048016
-3.3555927	THESE	-0.030048016
-3.5955312	DEMOS	-0.030048016
-3.5955312	HELPED	-0.030048016
-3.5955312	BUILD	-0.030048016
-3.5955312	HYPE	-0.030048016
-3.5066614	AROUND	-0.030048016
-3.5066614	BAND	-0.030048016
-3.5066614	ONCE	-0.030048016
-3.5955312	CAT	-0.030048016
-3.5955312	BURGLAR	-0.030048016
-3.5955312	MASTER	-0.030048016
-3.5066614	AMONG	-0.030048016
-3.5955312	JEWEL	-0.030048016
-3.5955312	THIEVES	-0.030048016
-3.5955312	TEAMS	-0.030048016
-3.5955312	SEEDED	-0.030048016
-3.5066614	ACCORDING	-0.17116138
-3.5955312	REGULARSEASON	-0.030048016
-3.5066614	RECORD	-0.030048016
-2.966379	ABOUT	-0.030048043
-3.5066614	WEST	-0.030048016
-3.5955312	RICHFIELD	-0.030048016
-3.5955312	MATURE	-0.030048016
-3.5955312	WOOD	-0.030048016
-3.5955312	MAINLY	-0.030048016
-3.5955312	OAK	-0.030048016
-3.5955312	BEECH	-0.030048016
-3.5955312	CLAY	-0.030048016
-3.5955312	SOILS	-0.030048016
-3.5955312	IF	-0.030048016
-3.5955312	ANYTHING	-0.030048016
-3.0618224	I	-0.030048016
-2.966379	MORE	-0.030048043
-3.5955312	COMPETENT	-0.030048016
-3.5955312	HANDLING	-0.030048016
-3.5066614	PHYSICAL	-0.030048016
-3.5955312	AFFAIRS	-0.030048016
-3.5066614	VILLAGE	-0.030048016
-3.5955312	DEER	-0.030048016
-2.966379	RIVER	-0.12609863
-3.5955312	FEW	-0.030048016
-3.5955312	TENS	-0.030048016
-3.5955312	PLANETS	-0.030048016
-2.966379	BEEN	-0.047610022
-3.5066614	FOUND	-0.030048043
-3.5066614	RED	-0.030048016
-3.5066614	GIANTS	-0.030048016
-3.5955312	POSSIBILITIES	-0.030048016
-3.5955312	WHAT	-0.030048016
-3.5066614	COULD	-0.030048016
-3.5955312	CHANGED	-0.030048016
-2.7644682	AFTER	-0.048990786
-3.5955312	RECESS	-0.030048016
-2.555037	WERE	-0.045375537
-3.5955312	DISCUSSED	-0.030048016
-3.0618224	CAREER	-0.030048016
-3.5955312	RADIO	-0.030048016
-3.5066614	STARRING	-0.030048016
-3.5955312	DANGEROUSLY	-0.030048016
-3.5955312	YOURS	-0.030048016
-3.5955312	CORRUPTION	-0.030048016
-3.5955312	DECEITFUL	-0.030048016
-3.5066614	POLITICS	-0.17116138
-3.5955312	ISLAND	-0.030048016
-3.5955312	NATURALSTATE	-0.030048016
-3.5955312	CONIFEROUS	-0.030048016
-3.5955312	FOREST	-0.030048016
-3.5955312	HERBRICH	-0.030048016
-3.5955312	PARTS	-0.030048016
-3.5955312	GAVE	-0.030048016
-3.5955312	FRANCE	-0.030048016
-3.5066614	RACE	-0.030048016
-3.5066614	LEAD	-0.030048016
-3.5955312	GREAT	-0.030048016
-3.5955312	BRITAIN	-0.030048016
-3.5066614	SECOND	-0.030048016
-3.5955312	ETHEL	-0.030048016
-3.5066614	INVOLVED	-0.030048016
-3.5955312	EDUCATION	-0.030048016
-3.5955312	SERVING	-0.030048016
-3.5066614	COMMITTEE	-0.030048016
-3.5955312	FROEBEL	-0.030048016
-3.5955312	MOREOVER	-0.030048016
-3.5955312	RIKER'S	-0.030048016
-3.5955312	EMPIRICAL	-0.030048016
-3.3555927	CLAIMS	-0.030048043
-3.5955312	REFUTED	-0.030048016
-3.5066614	BELIEVE	-0.030048016
-3.5955312	COMPASSION	-0.030048016
-3.5955312	EMPATHY	-0.030048016
-3.5955312	CRUCIAL	-0.030048016
-3.5955312	FOSTERING	-0.030048016
-3.5066614	RELATIONSHIPS	-0.030048016
-3.5955312	CARINA	-0.030048016
-3.5955312	METALPOOR	-0.030048016
-3.5955312	SEEMS	-0.030048016
-3.5955312	EVIL	-0.030048016
-3.5955312	COOKIES	-0.030048016
-3.5955312	COMPLETELY	-0.030048016
-3.5066614	REPLACED	-0.030048016
-3.5955312	LUCKY	-0.030048016
-3.5955312	ONES	-0.030048016
-3.5955312	MAJORITY	-0.030048016
-3.5066614	LAND	-0.030048043
-3.5066614	FORMER	-0.030048016
-3.5066614	TOWN	-0.08113039
-3.5955312	STILL	-0.030048016
-3.5955312	ABOVE	-0.030048016
-3.0618224	WATER	-0.08113039
-3.5955312	EACH	-0.030048016
-3.5955312	RADIAL	-0.030048016
-3.5066614	GATE	-0.030048016
-3.5955312	CLEAR	-0.030048016
-3.5955312	SPAN	-0.030048016
-3.5066614	GROUP	-0.030048043
-3.5955312	SING	-0.030048016
-3.5066614	BRIDGE	-0.030048016
-3.5955312	END	-0.030048016
-3.5955312	SONG	-0.030048016
-3.5955312	REPEATING	-0.030048016
-3.5955312	CHORUS	-0.030048016
-3.5066614	TWICE	-0.030048016
-3.5066614	BUILT	-0.030048016
-3.0618224	FIRST	-0.030048043
-3.5066614	HOUSE	-0.030048016
-3.0618224	THERE	-0.10002227
-3.0618224	SHE	-0.047610022
-3.5955312	PORTRAYED	-0.030048016
-3.5955312	FORENSIC	-0.030048016
-3.5955312	PATHOLOGIST	-0.030048016
-3.5955312	AMY	-0.030048016
-3.3555927	SHORT	-0.030048043
-3.5955312	FRANCIS	-0.030048016
-3.5955312	XAVIER	-0.030048016
-3.5955312	THRILLER	-0.030048016
-3.5955312	POE	-0.030048016
-3.5955312	FILMING	-0.030048016
-3.3555927	DONE	-0.030048043
-3.5066614	PROFESSIONAL	-0.030048043
-3.5066614	CREW	-0.030048016
-3.5955312	CUTOUTS	-0.030048016
-3.5955312	WHITE	-0.030048016
-3.5955312	PLASTER	-0.030048016
-3.5066614	MAKE	-0.030048016
-3.5955312	FACADE	-0.030048016
-3.5955312	LOOK	-0.030048016
-3.1843276	LIKE	-0.030048016
-3.5955312	LACE	-0.030048016
-3.5066614	WALSH	-0.17116138
-3.5955312	MELBOURNE	-0.030048016
-3.5955312	LAWRENCE	-0.030048016
-3.5955312	DIRECTED	-0.030048016
-3.3555927	MUSIC	-0.030048043
-3.5955312	VIDEOS	-0.030048016
-3.5955312	SAN	-0.030048016
-3.5955312	JOSE	-0.030048016
-3.5955312	WESTERN	-0.030048016
-3.5066614	FRONT	-0.030048016
-3.0618224	MARRIED	-0.030048016
-3.5955312	MATHIEU	-0.030048016
-3.5955312	SWEENEY	-0.030048016
-3.5955312	UNION	-0.030048016
-3.5955312	IRON	-0.030048016
-3.3555927	WORKS	-0.030048043
-3.5066614	NUMBER	-0.1188616
-3.5955312	SHIPS	-0.030048016
-3.5955312	UNITED	-0.030048016
-3.5955312	STATES	-0.030048016
-3.5066614	NAVY	-0.030048016
-3.5066614	CURRENTLY	-0.030048016
-3.5955312	HOUSES	-0.030048016
-3.5955312	AMERICAN	-0.030048016
-3.5955312	AIRPOWER	-0.030048016
-3.1843276	MUSEUM	-0.18347774
-3.3555927	SEEN	-0.030048016
-3.5955312	LATITUDE	-0.030048016
-3.5955312	ALEXANDRIA	-0.030048016
-3.5955312	MOBILE	-0.030048016
-3.5955312	ALABAMA	-0.030048016
-3.5955312	SOUTHWARD	-0.030048016
-3.5955312	KIRK	-0.030048016
-3.5955312	REFUSES	-0.030048016
-3.5955312	LANDING	-0.030048016
-3.3555927	HELD	-0.030048043
-3.5955312	HOSTAGE	-0.030048016
-3.5955312	RESIGNED	-0.030048016
-3.5955312	CUBS	-0.030048016
-3.5955312	MINOR	-0.030048016
-3.5955312	CONTRACT	-0.030048016
-3.5955312	NEXT	-0.030048016
-3.5955312	FOLLOWUP	-0.030048016
-3.5955312	TESTS	-0.030048016
-3.3555927	INCLUDE	-0.030048043
-3.5955312	PAINFUL	-0.030048016
-3.5955312	BIOPSIES	-0.030048016
-2.966379	WHICH	-0.072188415
-3.5066614	RESULT	-0.030048016
-3.5955312	EXCESSIVE	-0.030048016
-3.5955312	BLEEDING	-0.030048016
-3.5955312	INFECTION	-0.030048016
-3.5066614	WON	-0.030048043
-3.5066614	NATIONAL	-0.030048016
-3.5955312	CHAMPIONSHIP	-0.030048016
-3.5955312	FLORIDA	-0.030048016
-3.5955312	SEMINOLES	-0.030048016
-3.5955312	WITNESSED	-0.030048016
-3.5955312	PERSONS	-0.030048016
-3.5955312	SWORN	-0.030048016
-3.5955312	AFFIDAVIT	-0.030048016
-3.5066614	LESS	-0.030048016
-3.5955312	CREATIVE	-0.030048016
-3.5955312	TACTICS	-0.030048016
-2.7644682	USED	-0.12367283
-3.5955312	PROSPECTIVE	-0.030048016
-3.5955312	CHALLENGER	-0.030048016
-3.5955312	ROGERS	-0.030048016
-3.1843276	COUNTY	-0.030048016
-3.5955312	SHERIFF'S	-0.030048016
-3.5066614	OFFICE	-0.030048016
-3.5955312	TEMPORARILY	-0.030048016
-3.5955312	TOOK	-0.030048016
-3.5066614	OVER	-0.030048016
-3.5955312	POLICING	-0.030048016
-3.5955312	DUTIES	-0.030048016
-3.5955312	NARDA	-0.030048016
-3.5955312	RAVANNA	-0.030048016
-3.5955312	BOSTON	-0.030048016
-3.5955312	MASSACHUSETTS	-0.030048016
-3.5955312	LISTENERS	-0.030048016
-3.5955312	EXCITED	-0.030048016
-3.5955312	RAUNCHY	-0.030048016
-3.5955312	EARTHY	-0.030048016
-3.5955312	SOUNDS	-0.030048016
-3.5955312	GROWLS	-0.030048016
-3.5955312	MUTES	-0.030048016
-3.5955312	REDDIT	-0.030048016
-3.5955312	TERMINALS	-0.030048016
-3.5955312	MANUFACTURED	-0.030048016
-3.5955312	SAMSUNG	-0.030048016
-3.1843276	NOW	-0.030048016
-3.5066614	FIRE	-0.030048016
-3.3555927	WE	-0.1188616
-2.821933	MAY	-0.10002227
-3.5955312	CONSIDER	-0.030048016
-2.888178	THREE	-0.030048016
-3.5955312	THINGS	-0.030048016
-3.5066614	HERE	-0.030048016
-3.5955312	BEST	-0.030048016
-3.5955312	IDEAS	-0.030048016
-3.3555927	ME	-0.1188616
-3.5955312	INITIALLY	-0.030048016
-3.1843276	GOOD	-0.030048016
-3.5955312	HOPE	-0.030048016
-3.5955312	GEORGIA	-0.030048016
-3.5066614	DURING	-0.1188616
-3.5955312	OCCUPIED	-0.030048016
-3.5955312	SOLDIERS	-0.030048016
-3.5066614	SEAT	-0.030048043
-3.5066614	MUNICIPALITY	-0.030048016
-3.5955312	PARAMYTHIA	-0.030048016
-3.5066614	SPECIES	-0.030048016
-3.5955312	HYBRIDS	-0.030048016
-3.5955312	CULTIVARS	-0.030048016
-3.5955312	VERBENA	-0.030048016
-3.5955312	ORNAMENTAL	-0.030048016
-3.5066614	PLANTS	-0.030048016
-3.5955312	HART'S	-0.030048016
-3.5955312	NIECE	-0.030048016
-3.5955312	NATALYA	-0.030048016
-3.5955312	WRESTLER	-0.030048016
-3.5955312	CHISHMY	-0.030048016
-3.5955312	UNLIKE	-0.030048043
-3.5955312	CONTEMPORARIES	-0.030048016
-3.5955312	CUNNINGHAM	-0.030048016
-2.966379	WOULD	-0.072188415
-3.5955312	ROUTINELY	-0.030048016
-3.5955312	CONFIRM	-0.030048016
-3.5955312	IDENTIFICATIONS	-0.030048016
-3.1843276	THROUGH	-0.030048016
-3.5066614	FIELD	-0.030048016
-3.5066614	SURVEYS	-0.17116138
-3.5955312	ROSEN	-0.030048016
-3.5955312	SHARED	-0.030048016
-2.555037	AN	-0.04291914
-3.5066614	APARTMENT	-0.030048016
-3.5955312	FIVE	-0.030048016
-3.5955312	STELLA	-0.030048016
-3.5955312	MEMBER	-0.030048016
-3.5955312	SHOWALTER	-0.030048016
-3.5955312	EVERY	-0.030048016
-3.5066614	SINCE	-0.030048016
-3.5955312	VOTE	-0.030048016
-3.5955312	O	-0.030048016
-3.5955312	HOLY	-0.030048016
-3.5066614	NIGHT	-0.17116138
-3.5066614	ESTATE	-0.030048016
-3.5955312	ROUGHLY	-0.030048016
-3.5955312	TWOTHIRDS	-0.030048016
-3.5066614	MODERN	-0.030048016
-3.5955312	SUBURB	-0.030048016
-3.3555927	EAST	-0.030048016
-3.5955312	RYDE	-0.030048016
-3.5066614	PROMOTED	-0.030048016
-3.5066614	HEAD	-0.030048016
-3.5955312	COACH	-0.030048016
-3.5955312	STEINAR	-0.030048016
-3.5955312	NILSEN	-0.030048016
-3.5955312	DISMISSED	-0.030048016
-3.5955312	EVENTUALLY	-0.030048016
-3.5066614	SODIUM	-0.030048016
-3.5955312	LEAK	-0.030048016
-3.5066614	RESULTED	-0.030048016
-3.5066614	FACILITY	-0.030048016
-3.5955312	SHUT	-0.030048016
-3.5066614	DOWN	-0.030048016
-3.5955312	LEAVE	-0.030048016
-3.3555927	MY	-0.030048043
-3.5955312	NECKLACES	-0.030048016
-3.5955312	BRACELETS	-0.030048016
-3.5955312	EARRINGS	-0.030048016
-3.5955312	LOUISE	-0.030048016
-3.5955312	SMITH	-0.030048016
-3.5955312	WEATHER	-0.030048016
-3.5955312	FORECASTING	-0.030048016
-3.5955312	CRITICAL	-0.030048016
-3.5066614	ASPECT	-0.030048016
-3.5955312	SAILING	-0.030048016
-3.5955312	YACHT	-0.030048016
-3.5066614	MANAGEMENT	-0.030048016
-3.5955312	OFFICEBASED	-0.030048016
-3.5955312	TRANSLATOR	-0.030048016
-3.5955312	COMES	-0.030048016
-3.5955312	OWN	-0.030048016
-3.5955312	SET	-0.030048016
-3.5955312	ADVANTAGES	-0.030048016
-3.5955312	DISADVANTAGES	-0.030048016
-3.5955312	NEITHER	-0.030048016
-3.5955312	FATHER	-0.030048016
-3.5066614	NOR	-0.030048016
-3.5955312	SON	-0.030048016
-3.3555927	MEETING	-0.030048043
-3.3555927	STEP	-0.030048043
-3.5955312	CHAIN	-0.030048016
-3.5066614	MIGHT	-0.030048016
-3.5955312	WATERMARKING	-0.030048016
-3.5066614	CONSIDERED	-0.17116138
-3.5955312	RELATIVELY	-0.030048016
-3.5955312	LIBERAL	-0.030048016
-3.5955312	SUPPORTER	-0.030048016
-3.5955312	CONSTITUTIONAL	-0.030048016
-3.5955312	MONARCHY	-0.030048016
-3.5955312	PLAN	-0.030048016
-3.5955312	FINALIZED	-0.030048016
-3.5955312	IMPLEMENTATION	-0.030048016
-3.5955312	PHASE	-0.030048016
-3.5955312	BEGINS	-0.030048016
-3.3555927	CONTROL	-0.030048043
-3.5955312	YOUR	-0.030048016
-3.5955312	SCHEDULE	-0.030048016
-3.5955312	PROJECTS	-0.030048016
-3.5955312	CLIENT	-0.030048016
-3.5955312	INTERACTIONS	-0.030048016
-3.5066614	STARTED	-0.030048016
-3.5066614	STUDY	-0.030048016
-3.5955312	BUSINESS	-0.030048016
-3.5955312	ADMINISTRATION	-0.030048016
-3.0618224	BUT	-0.030048016
-3.5955312	BROKE	-0.030048016
-3.5955312	OFF	-0.030048016
-3.5955312	SEMESTERS	-0.030048016
-3.5066614	SUCH	-0.030048043
-3.5955312	ATTEMPT	-0.030048016
-3.5955312	BASED	-0.030048016
-3.5955312	INFOGAP	-0.030048016
-3.5955312	DECISION	-0.030048016
-3.5066614	THEORY	-0.030048016
-3.5066614	FIFTEEN	-0.030048016
-3.0618224	KNOWN	-0.12609863
-3.5955312	GENUS	-0.030048016
-3.3555927	OFTEN	-0.030048043
-3.5955312	WINDY	-0.030048016
-3.5955312	PEAK	-0.030048016
-3.1843276	DUE	-0.3745475
-3.5955312	LACK	-0.030048016
-3.5955312	TREES	-0.030048016
-3.5955312	LA	-0.030048016
-3.5955312	MIRADA	-0.030048016
-2.888178	HIGH	-0.29427713
-3.5955312	EFFECT	-0.030048016
-3.0618224	BECAME	-0.08113039
-3.5955312	FAVOURITE	-0.030048016
-3.5066614	OTHERWISE	-0.030048016
-3.5955312	ROOMS	-0.030048016
-3.5955312	NUMBERED	-0.030048016
-3.5066614	KIND	-0.17116138
-3.5955312	RATIONAL	-0.030048016
-3.5955312	SCHEME	-0.030048016
-3.5955312	SOURCE	-0.030048016
-3.5955312	CODE	-0.030048016
-3.5955312	ENCLOSES	-0.030048016
-3.5955312	METAL	-0.030048016
-3.5955312	GROMMET	-0.030048016
-3.5955312	REINFORCEMENT	-0.030048016
-3.5955312	REDUCE	-0.030048016
-3.5955312	WEAR	-0.030048016
-3.5955312	DOUGLASHAMILTON	-0.030048016
-3.5955312	COUNTERING	-0.030048016
-3.3555927	GERMAN	-0.030048043
-3.5066614	TASK	-0.030048016
-3.5066614	FORCE	-0.030048016
-3.5066614	OPERATING	-0.030048016
-3.5955312	NEAR	-0.030048016
-3.5955312	CEYLON	-0.030048016
-3.5955312	SURROUNDED	-0.030048016
-3.5955312	MUD	-0.030048016
-3.5955312	WALL	-0.030048016
-3.5955312	DITCH	-0.030048016
-3.5955312	VARIETY	-0.030048016
-3.5955312	DIESEL	-0.030048016
-3.5955312	PARTICULATE	-0.030048016
-3.5955312	FILTER	-0.030048016
-3.5955312	TECHNOLOGIES	-0.030048016
-3.5955312	MARKET	-0.030048016
-3.5955312	SURPRISINGLY	-0.030048016
-3.5955312	DECIDED	-0.030048016
-3.5955312	CHOOSING	-0.030048016
-3.5955312	MEET	-0.030048016
-3.5955312	CONSTANTINE	-0.030048016
-3.5955312	BATTLE	-0.030048016
-2.7644682	TWO	-0.030048016
-3.5955312	DATED	-0.030048016
-3.5955312	TOGETHER	-0.030048016
-3.5955312	EXPERIENCE	-0.030048016
-3.5955312	UNCANNY	-0.030048016
-3.5955312	NORRIS	-0.030048016
-3.5955312	FOUGHT	-0.030048016
-3.5066614	LOSING	-0.030048016
-3.3555927	TITLE	-0.030048043
-3.5955312	PETTY	-0.030048016
-3.5955312	SUGGESTED	-0.030048016
-3.5955312	CALL	-0.030048016
-3.5955312	DONOVAN	-0.030048016
-3.5955312	LONGO	-0.030048016
-3.5955312	INSTRUCTOR	-0.030048016
-3.5955312	FATE	-0.030048016
-3.5955312	SIX	-0.030048016
-3.5955312	CRECY	-0.030048016
-3.3555927	REMAINS	-0.030048043
-3.5066614	UNKNOWN	-0.1188616
-3.5955312	TRACTION	-0.030048016
-3.5955312	ADDED	-0.030048016
-3.5955312	FAMOUSLY	-0.030048016
-3.3555927	SAID	-0.030048043
-3.5955312	UNCLEAR	-0.030048016
-3.5955312	PAPER	-0.030048016
-3.5955312	EVEN	-0.030048016
-3.5955312	WRONG	-0.030048016
-3.5066614	TODAY	-0.030048016
-3.5955312	ATTRACTED	-0.030048016
-3.5955312	FOLK	-0.030048016
-3.5955312	PRIMARY	-0.030048016
-3.5066614	REASON	-0.030048016
-3.5955312	PRESSURE	-0.030048016
-3.5066614	USE	-0.030048016
-3.5955312	NONLEAD	-0.030048016
-3.5955312	BULLETS	-0.030048016
-3.5066614	LAST	-0.030048043
-3.5066614	CHILD	-0.030048016
-3.3555927	BOY	-0.030048043
-3.5955312	FAIR	-0.030048016
-3.5955312	BONNY	-0.030048016
-3.5955312	TAGLINE	-0.030048016
-3.5955312	RULER	-0.030048016
-3.5955312	THAUMIEL	-0.030048016
-3.5955312	SATAN	-0.030048016
-3.5955312	GAME	-0.030048016
-3.5955312	DOWNIE	-0.030048016
-3.5066614	GOT	-0.030048016
-3.3555927	INTO	-0.030048043
-3.5955312	SCUFFLE	-0.030048016
-3.5955312	MAPLE	-0.030048016
-3.5955312	LEAFS	-0.030048016
-3.5955312	FORWARD	-0.030048016
-3.5955312	JASON	-0.030048016
-3.5955312	BLAKE	-0.030048016
-3.5955312	SHIPBUILDING	-0.030048016
-3.5066614	INDUSTRY	-0.030048016
-3.5955312	TENDS	-0.030048016
-3.5955312	FRAGMENTED	-0.030048016
-3.5955312	EUROPE	-0.030048016
-3.5955312	ASIA	-0.030048016
-3.5955312	BARTRAM	-0.030048016
-3.5066614	GREW	-0.17116138
-2.966379	UP	-0.030048043
-3.5066614	SCOTLAND	-0.030048016
-3.5066614	NORTHERN	-0.17116138
-3.5066614	IRELAND	-0.030048043
-3.5955312	AFRICA	-0.030048016
-3.5955312	JACK	-0.030048016
-3.1843276	NO	-0.030048016
-3.5955312	LONGER	-0.030048016
-3.5066614	JUST	-0.030048016
-3.5955312	HANDYMAN	-0.030048016
-3.5955312	WILLOW	-0.030048016
-3.5955312	CREEK	-0.030048016
-3.5955312	LEARNING	-0.030048016
-3.5066614	RUSSIAN	-0.030048016
-3.5955312	CHALLENGING	-0.030048016
-3.5955312	REWARDING	-0.030048016
-3.5955312	CURRENT	-0.030048016
-3.5955312	MAYOR	-0.030048016
-3.5955312	PROTIVIN	-0.030048016
-3.5955312	LENSING	-0.030048016
-3.5066614	MEDIA	-0.030048016
-3.5955312	SPECULATION	-0.030048016
-3.5955312	CHERNIN'S	-0.030048016
-3.5066614	HAVING	-0.030048016
-3.5955312	ROLE	-0.030048016
-3.5955312	YAHOO	-0.030048016
-3.5955312	ESPLEN	-0.030048016
-3.5066614	PITTSBURGH	-0.030048016
-3.3555927	CITY	-0.06591218
-3.1843276	EXAMPLE	-0.09489832
-3.5955312	SAFELIFE	-0.030048016
-3.5066614	COMPONENT	-0.030048016
-3.5955312	HELICOPTER	-0.030048016
-3.5955312	ROTOR	-0.030048016
-3.5955312	BLADE	-0.030048016
-3.5955312	AUTHOR	-0.030048016
-3.5955312	HUNTER	-0.030048016
-3.5955312	S	-0.030048016
-3.5955312	THOMPSON	-0.030048016
-3.5955312	REMARKED	-0.030048016
-3.5955312	DISAPPOINTED	-0.030048016
-3.5955312	DISJUNCT	-0.030048016
-3.5955312	SUBSET	-0.030048016
-3.5955312	OCCURS	-0.030048016
-3.3555927	CENTRAL	-0.030048043
-3.5955312	COLORADO	-0.030048016
-3.5955312	NORTHWESTERN	-0.030048016
-3.5066614	MEXICO	-0.030048016
-3.5955312	TOWER	-0.030048016
-3.5955312	SCRAPS	-0.030048016
-3.5955312	GIFFORDTOWN	-0.030048016
-3.5955312	SAVANE	-0.030048016
-3.5066614	FLOWS	-0.030048016
-2.966379	SOUTH	-0.030048016
-3.5066614	BANK	-0.030048016
-3.5955312	CALDWELL	-0.030048016
-3.0618224	THEY	-0.052525505
-3.5955312	DROP	-0.030048016
-3.5955312	BOMBS	-0.030048016
-3.5955312	FROZEN	-0.030048016
-3.5955312	RIVERS	-0.030048016
-3.5955312	BREAK	-0.030048016
-3.5955312	ICE	-0.030048016
-3.5955312	REFORM	-0.030048016
-3.5955312	CONVENTIONAL	-0.030048016
-3.5955312	SENSE	-0.030048016
-3.3555927	NAME	-0.030048016
-3.5955312	GREYHOUND	-0.030048016
-3.5955312	GENERALLY	-0.030048016
-3.5955312	BELIEVED	-0.030048016
-3.1843276	OLD	-0.030048043
-3.5066614	ENGLISH	-0.030048016
-3.5955312	GRIGHUND	-0.030048016
-3.5955312	AER	-0.030048016
-3.5955312	ARANN	-0.030048016
-3.5955312	ISLANDS	-0.030048016
-3.5955312	HEADQUARTERED	-0.030048016
-3.5955312	INVERIN	-0.030048016
-3.5066614	SEVEN	-0.030048016
-3.3555927	SONGS	-0.030048043
-3.3555927	PERFORMED	-0.030048043
-3.5955312	BEAUTIFUL	-0.030048016
-3.5066614	VISION	-0.030048016
-3.5955312	VERMA	-0.030048016
-3.5955312	PLACE	-0.030048016
-3.5066614	LEADER	-0.030048016
-3.5955312	BROTHER	-0.030048016
-3.5066614	PETER	-0.030048016
-3.5955312	REICHENSPERGER	-0.030048016
-3.5066614	ACTIVE	-0.17116138
-3.5955312	INSTEAD	-0.030048016
-3.5955312	FAVORING	-0.030048016
-3.5955312	INDIVIDUALS	-0.030048016
-3.5066614	EXTREME	-0.030048016
-3.5955312	PHENOTYPES	-0.030048016
-3.5955312	FAVORS	-0.030048016
-3.5955312	INTERMEDIATE	-0.030048016
-3.5955312	VARIANTS	-0.030048016
-3.3555927	SEVERAL	-0.030048043
-3.5955312	MISSIONS	-0.030048016
-3.5066614	PLAYER	-0.030048016
-3.5955312	MUST	-0.030048016
-3.5066614	SUPPLY	-0.030048016
-3.5066614	DROPS	-0.030048016
-3.5955312	SCIENTISTS	-0.030048016
-3.0618224	WORKING	-0.030048016
-3.5955312	UNDERGROUND	-0.030048016
-3.5955312	DOWNTOWN	-0.030048016
-3.5955312	COMMUNITY	-0.030048016
-3.5955312	MANHATTAN'S	-0.030048016
-3.5066614	SEE	-0.030048016
-3.5955312	SPHERICAL	-0.030048016
-3.5955312	DESIGN	-0.030048016
-3.3555927	PLAYERS	-0.030048043
-3.5955312	DO	-0.030048016
-3.5955312	CHARACTER'S	-0.030048016
-3.5955312	COMPOSURE	-0.030048016
-3.5955312	INCREASES	-0.030048016
-3.5955312	ALTHOUGH	-0.030048016
-3.5955312	EXTINCTION	-0.030048016
-3.5955312	COMPARED	-0.030048016
-3.5955312	HEMISPATIAL	-0.030048016
-3.5955312	NEGLECT	-0.030048016
-3.5066614	DIFFERENT	-0.030048016
-3.5955312	DISORDERS	-0.030048016
-3.5955312	MILLER	-0.030048016
-3.5955312	HURLEY	-0.030048016
-3.5955312	KEY	-0.030048016
-3.5955312	SOLOISTS	-0.030048016
-3.5955312	NADASWARAM	-0.030048016
-3.5955312	ANCIENT	-0.030048016
-3.5955312	TAMIL	-0.030048016
-3.5955312	TEXTS	-0.030048016
-3.5955312	ACCOMPLISHED	-0.030048016
-3.5955312	FELT	-0.030048016
-3.5955312	RETIRE	-0.030048016
-3.5955312	POINT	-0.030048016
-3.5955312	HARRISON	-0.030048016
-3.5955312	COPRODUCED	-0.030048016
-3.5955312	RECORDING	-0.030048016
-3.5955312	PERCUSSIONIST	-0.030048016
-3.5955312	RAY	-0.030048016
-3.5955312	COOPER	-0.030048016
-3.5955312	ENVIRONMENT	-0.030048016
-3.5955312	VARIABLES	-0.030048016
-3.5066614	PROVIDED	-0.030048016
-3.5066614	SYSTEMS	-0.17116138
-3.5955312	NESTING	-0.030048016
-3.3555927	SEASON	-0.1188616
-3.5955312	TURTLES	-0.030048016
-3.5955312	APRIL	-0.030048016
-3.5955312	AUGUST	-0.030048016
-3.5955312	HIGHLY	-0.030048016
-3.5955312	SUCCESSFUL	-0.030048016
-3.5955312	TELEVISION	-0.030048016
-3.5955312	PERIOD	-0.030048016
-3.5955312	PIECES	-0.030048016
-3.5955312	WEEKES'	-0.030048016
-3.5066614	BEGAN	-0.030048016
-3.5955312	OWEN	-0.030048016
-3.5955312	PLATERS	-0.030048016
-3.5955312	HOCKEY	-0.030048016
-3.5955312	TRY	-0.030048016
-3.5066614	POSTS	-0.030048016
-3.5066614	GIVEN	-0.030048016
-3.5955312	RC	-0.030048016
-3.5955312	DOCUMENTATION	-0.030048016
-3.5955312	HEIGHT	-0.030048016
-3.5066614	SLIGHTLY	-0.030048016
-3.5955312	LOWER	-0.030048016
-3.5955312	CUSTOM	-0.030048016
-3.5955312	POSITIVE	-0.030048016
-3.5955312	EFFORT	-0.030048016
-3.5955312	VENEZUELA	-0.030048016
-3.5955312	REGAINED	-0.030048016
-3.5955312	CREDITELIGIBILITY	-0.030048016
-3.5955312	RATING	-0.030048016
-3.5066614	CHINESE	-0.030048016
-3.5955312	BURIAL	-0.030048016
-3.5955312	COINS	-0.030048016
-3.5955312	COIN	-0.030048016
-3.5955312	CATALOGUES	-0.030048016
-3.5955312	SKY	-0.030048016
-3.5955312	NEWS	-0.030048016
-3.5066614	BROADCAST	-0.17116138
-3.5955312	STUDIOS	-0.030048016
-3.5955312	DUBLIN	-0.030048016
-3.5955312	ITSELF	-0.030048016
-3.5955312	PRESERVED	-0.030048016
-3.5066614	ELEMENTS	-0.030048016
-3.5955312	TYPICAL	-0.030048016
-3.5955312	ALPINE	-0.030048016
-3.5955312	ARCHITECTURE	-0.030048016
-3.5955312	OXYGEN	-0.030048016
-3.5955312	ABSENCE	-0.030048016
-3.5955312	PH	-0.030048016
-3.5955312	MATRIX	-0.030048016
-3.5955312	VIDEO'S	-0.030048016
-3.5955312	CLIMAX	-0.030048016
-3.5955312	CROWD	-0.030048016
-3.5955312	CHEERS	-0.030048016
-3.5955312	CAREY	-0.030048016
-3.5955312	BEGIN	-0.030048016
-3.5955312	CLAPPING	-0.030048016
-3.5955312	CHANTING	-0.030048016
-3.5955312	PRAISES	-0.030048016
-3.5955312	PERMANENT	-0.030048016
-3.5955312	EXHIBITION	-0.030048016
-3.5066614	SINGLE	-0.030048016
-3.5066614	DESIGNED	-0.030048016
-3.5955312	MATTER	-0.030048016
-3.5955312	PRACTICE	-0.030048016
-3.5955312	EXPANDED	-0.030048016
-3.5955312	SERVE	-0.030048016
-3.5955312	PURPOSE	-0.030048016
-3.3555927	CAME	-0.030048043
-3.5955312	EMINENT	-0.030048016
-3.5955312	OBTAIN	-0.030048016
-3.5955312	WELLS	-0.030048016
-3.5955312	STREAMS	-0.030048016
-3.5066614	FEATURES	-0.030048016
-3.5955312	PLAYABLE	-0.030048016
-3.3555927	CHARACTERS	-0.030048043
-3.5955312	LAUNCH	-0.030048016
-3.5955312	TOLD	-0.030048016
-3.5955312	HURRY	-0.030048016
-3.3555927	BECAUSE	-0.030048043
-3.5955312	WAITED	-0.030048016
-3.5955312	REFERENCE	-0.030048016
-3.5955312	MARKERS	-0.030048016
-3.5955312	INTERVALS	-0.030048016
-3.5066614	ALONG	-0.17116138
-3.3555927	MAJOR	-0.030048043
-3.5955312	CORRIDORS	-0.030048016
-3.5955312	DEPARTMENT	-0.030048016
-3.5955312	HISTORICALLY	-0.030048016
-3.5955312	PROMINENT	-0.030048016
-3.5955312	PRODUCER	-0.030048016
-3.5955312	GOLD	-0.030048016
-3.5955312	SILVER	-0.030048016
-3.5955312	COPPER	-0.030048016
-3.5955312	LISTING	-0.030048016
-3.5955312	SHARES	-0.030048016
-3.5955312	STOCK	-0.030048016
-3.5955312	EXCHANGES	-0.030048016
-3.5955312	DISCONTINUED	-0.030048016
-3.5955312	NOTICE	-0.030048016
-3.5066614	LISTED	-0.030048016
-3.5955312	UNSURVEYED	-0.030048016
-3.5955312	SKELETON	-0.030048016
-3.5955312	DANCES	-0.030048016
-3.5955312	CHARLESTON	-0.030048016
-3.5955312	GREATEST	-0.030048016
-3.5955312	CHART	-0.030048016
-3.5955312	SUCCESS	-0.030048016
-3.5955312	SUMMER	-0.030048016
-3.5955312	HIT	-0.030048016
-3.3555927	LOVE	-0.030048043
-3.5955312	SKINNY	-0.030048016
-3.5955312	DIPPING	-0.030048016
-3.3555927	DIED	-0.030048043
-3.5955312	INJURIES	-0.030048016
-3.5066614	SAME	-0.030048016
-3.5955312	IBRAHIM	-0.030048016
-3.5955312	ENCOMPASSED	-0.030048016
-3.5955312	EASTERN	-0.030048016
-3.5955312	ALGERIA	-0.030048016
-3.5955312	TUNISIA	-0.030048016
-3.5955312	TRIPOLITANIA	-0.030048016
-3.5955312	FUNCTION	-0.030048016
-3.5955312	STRUCTURES	-0.030048016
-3.5955312	SAFEGUARDING	-0.030048016
-3.5955312	LABOUR	-0.030048016
-3.5955312	MINORS	-0.030048016
-3.5066614	FINISHED	-0.030048016
-3.5955312	STINTS	-0.030048016
-3.5955312	LIONS	-0.030048016
-3.3555927	WORKED	-0.030048043
-3.5066614	HARD	-0.030048016
-3.5955312	ESTABLISH	-0.030048016
-3.5955312	STRONG	-0.030048016
-3.5955312	LINKS	-0.030048016
-3.5955312	FLOWERING	-0.030048016
-3.5955312	ANGIOSPERMS	-0.030048016
-3.5066614	DIVIDED	-0.17116138
-3.5955312	GROUPS	-0.030048016
-3.5955312	QUICKLY	-0.030048016
-3.5955312	KILLED	-0.030048016
-3.5955312	SUPERBOYPRIME	-0.030048016
-3.5955312	AMIDST	-0.030048016
-3.5955312	CHAOS	-0.030048016
-3.5955312	COMPETITION	-0.030048016
-3.5066614	YOUNG	-0.030048016
-3.5955312	SKIPPERS	-0.030048016
-3.5955312	ACROSS	-0.030048016
-3.5955312	CLASSES	-0.030048016
-3.5955312	LINGUIST	-0.030048016
-3.5955312	NOAM	-0.030048016
-3.5955312	CHOMSKY	-0.030048016
-3.3555927	PROPOSED	-0.030048043
-3.5955312	BIOLOGICAL	-0.030048016
-3.5066614	LANGUAGE	-0.030048016
-3.5955312	TERMED	-0.030048016
-3.5955312	UNIVERSAL	-0.030048016
-3.5955312	GRAMMAR	-0.030048016
-3.5955312	ACCOUNT	-0.030048016
-3.5066614	IMPORTANT	-0.030048043
-3.5955312	EXCEPTION	-0.030048016
-3.5066614	RULE	-0.030048016
-3.5955312	THERE'S	-0.030048016
-3.5955312	MINE	-0.030048016
-3.5955312	LUCIE	-0.030048016
-3.5955312	PATHWAYS	-0.030048016
-3.5955312	CREDENTIALING	-0.030048016
-3.5955312	YOU'RE	-0.030048016
-3.5066614	MAN	-0.030048016
-3.3555927	AGRICULTURAL	-0.030048043
-3.5955312	PRODUCTION	-0.030048016
-3.5955312	CONTRIBUTOR	-0.030048016
-3.5955312	JAMAICA'S	-0.030048016
-3.5066614	ECONOMY	-0.030048016
-3.5955312	CIRCUITS	-0.030048016
-3.1843276	VERY	-0.030048016
-3.5955312	FREQUENTLY	-0.030048016
-3.5955312	FED	-0.030048016
-3.5955312	TRANSFORMERS	-0.030048016
-3.5955312	RESISTANCE	-0.030048016
-3.5066614	DOCTOR	-0.030048016
-3.3555927	FRANK	-0.030048043
-3.5955312	PERALTA	-0.030048016
-3.5955312	STABBED	-0.030048016
-3.5955312	DAMER'S	-0.030048016
-3.5066614	FRIENDS	-0.030048016
-3.5955312	INFLUENTIAL	-0.030048016
-3.5955312	WHIGS	-0.030048016
-3.5955312	ARISTOCRATS	-0.030048016
-3.5955312	LABEL	-0.030048016
-3.5955312	SPECIALIZES	-0.030048016
-3.5955312	DOWNTEMPO	-0.030048016
-3.5955312	FORMED	-0.030048016
-3.5955312	TAT	-0.030048016
-3.5955312	MING	-0.030048016
-3.5066614	PAIR	-0.030048016
-3.5955312	SIGNED	-0.030048016
-3.5955312	POLYGRAM	-0.030048016
-3.5066614	MATT	-0.030048016
-3.5955312	MANAGES	-0.030048016
-3.5955312	RAISE	-0.030048016
-3.5955312	ALONE	-0.030048016
-3.5955312	ANALOGOUS	-0.030048016
-3.5955312	MULTIPLEXING	-0.030048016
-3.5066614	PROCESS	-0.030048016
-3.5955312	DANA'S	-0.030048016
-3.5066614	CHARACTER	-0.030048016
-3.5955312	PRODUCERS	-0.030048016
-3.5955312	RICK	-0.030048016
-3.5955312	NOWELS	-0.030048016
-3.5955312	GREGG	-0.030048016
-3.5955312	ALEXANDER	-0.030048016
-3.5955312	WADE	-0.030048016
-3.5955312	ALLOWS	-0.030048016
-3.5955312	CHEESE	-0.030048016
-3.5955312	MELT	-0.030048016
-3.5955312	BECOMING	-0.030048016
-3.5955312	GREASY	-0.030048016
-3.5955312	RADICALS	-0.030048016
-3.5955312	APPEAR	-0.030048016
-3.5066614	POSITION	-0.030048016
-3.5955312	ALBUM	-0.030048016
-3.5066614	TAKES	-0.030048016
-3.5955312	EXPERIMENTAL	-0.030048016
-3.5066614	FILM	-0.030048016
-3.5955312	KENNETH	-0.030048016
-3.5955312	ANGER	-0.030048016
-3.5955312	SULPHATE	-0.030048016
-3.5955312	CHLORIDE	-0.030048016
-3.5955312	THERAPEUTIC	-0.030048016
-3.5955312	BATHS	-0.030048016
-3.5955312	DRINKING	-0.030048016
-3.5066614	SAW	-0.030048016
-3.5955312	DARK	-0.030048016
-3.5955312	MAD	-0.030048016
-3.5955312	EYES	-0.030048016
-3.5955312	BASEBALL	-0.030048016
-3.3555927	HIM	-0.24960876
-3.5955312	LAKE	-0.030048016
-3.5955312	BORDERED	-0.030048016
-3.5955312	SOUTHWEST	-0.030048016
-3.5955312	SINCLAIR	-0.030048016
-3.5955312	WETLANDS	-0.030048016
-3.5066614	LIFE	-0.030048016
-3.5955312	DOMINATED	-0.030048016
-3.5955312	WESTENHOLZ	-0.030048016
-3.5955312	AUSTRALIAN	-0.030048016
-3.5955312	BROAD	-0.030048016
-3.5955312	USUALLY	-0.030048016
-3.5955312	STRETCH	-0.030048016
-3.1843276	SERVES	-0.09489832
-3.5066614	BLUE	-0.030048016
-3.1843276	LINE	-0.030048016
-3.5955312	PARK'S	-0.030048016
-3.5955312	BOUNDARY	-0.030048016
-3.5955312	CRUISERS	-0.030048016
-3.0618224	HAD	-0.072188415
-3.5955312	SENT	-0.030048016
-3.5955312	GUARD	-0.030048016
-3.5955312	WATERS	-0.030048016
-3.5955312	SOUTHEAST	-0.030048016
-3.5955312	ICELAND	-0.030048016
-3.5066614	SUBSEQUENT	-0.030048016
-3.5955312	REPORTS	-0.030048016
-3.5955312	PUBLISHED	-0.030048016
-2.966379	OTHER	-0.030048016
-3.5955312	ORGANIZATIONS	-0.030048016
-3.5955312	SHRUGGED	-0.030048016
-3.5955312	SHOULDERS	-0.030048016
-3.5066614	OTHERS	-0.030048016
-3.5955312	VOICE	-0.030048016
-3.5955312	IRRITATION	-0.030048016
-3.5955312	MAIN	-0.030048016
-3.5955312	THINK	-0.030048016
-3.5066614	IT'S	-0.030048016
-3.5955312	TRUE	-0.030048016
-3.5955312	SAYS	-0.030048016
-3.5066614	FALLS	-0.030048016
-3.5955312	WHITLEY	-0.030048016
-3.5955312	WARD	-0.030048016
-3.5955312	WAKEFIELD	-0.030048016
-3.5955312	METROPOLITAN	-0.030048016
-3.5955312	COUNCIL	-0.030048016
-3.5955312	PRECISE	-0.030048016
-3.5955312	ORIGIN	-0.030048016
-3.5955312	DIFFICULT	-0.030048016
-3.5955312	PINPOINT	-0.030048016
-3.5955312	AMALGAMATIONS	-0.030048016
-3.3555927	PARENTS	-0.09489832
-3.5066614	ARTISTS	-0.030048016
-3.5955312	DENNY	-0.030048016
-3.5955312	RESPONDED	-0.030048016
-3.5955312	VERSE	-0.030048016
-3.5955312	RETURN	-0.030048016
-3.5955312	EQUITY	-0.030048016
-3.0618224	COMPANY	-0.08113039
-3.5066614	FINANCIAL	-0.030048016
-3.5066614	TERMS	-0.030048016
-3.5955312	DISCLOSED	-0.030048016
-3.5955312	PILOT	-0.030048016
-3.1843276	MADE	-0.030048016
-3.5955312	BACK	-0.030048016
-3.5955312	BASE	-0.030048016
-3.5955312	FRONTAGE	-0.030048016
-3.5955312	MOTHER	-0.030048016
-3.5955312	SONS	-0.030048016
-3.5955312	KAYDEN	-0.030048016
-3.5955312	CASH	-0.030048016
-3.5955312	SEBASTIAN	-0.030048016
-3.5955312	EVANS	-0.030048016
-3.5955312	COMPILATION	-0.030048016
-3.5955312	EPISODES	-0.030048016
-3.5955312	ARMY'S	-0.030048016
-3.5955312	OPERATIONAL	-0.030048016
-3.5066614	HEADQUARTERS	-0.030048016
-3.5955312	FORCES	-0.030048016
-3.3555927	COMMAND	-0.030048043
-3.5955312	VICTORIA	-0.030048016
-3.5955312	BARRACKS	-0.030048016
-3.5955312	SYDNEY	-0.030048016
-3.5955312	REBRANDING	-0.030048016
-3.5955312	INTERNALLY	-0.030048016
-3.5955312	PROJECT	-0.030048016
-3.5955312	HYPHEN	-0.030048016
-3.5955312	KITCHEN	-0.030048016
-3.5955312	GALLEY	-0.030048016
-3.5066614	SITUATED	-0.030048016
-3.5955312	FOOD	-0.030048016
-3.5955312	COOKED	-0.030048016
-3.5066614	DEPENDING	-0.17116138
-3.5955312	CERTAIN	-0.030048016
-3.5955312	ACTIONS	-0.030048016
-3.5955312	SYMPHONY	-0.030048016
-3.5955312	RECEIVE	-0.030048016
-3.5955312	ENDINGS	-0.030048016
-3.5955312	HAMPSHIRE	-0.030048016
-3.5955312	EIGHTH	-0.030048016
-3.5066614	POINTS	-0.030048016
-3.5955312	MET	-0.030048016
-3.5955312	POLAROID	-0.030048016
-3.5955312	FURTHERMORE	-0.030048016
-3.5955312	MIRIAM	-0.030048016
-3.5955312	EMPHASIZES	-0.030048016
-3.5955312	IMPORTANCE	-0.030048016
-3.5066614	STAYING	-0.030048016
-3.5955312	HYDRATED	-0.030048016
-3.5955312	FLIGHT	-0.030048016
-3.5955312	EVENT	-0.030048016
-3.5955312	CATALYST	-0.030048016
-3.5955312	REST	-0.030048016
-3.5955312	NARRATIVE	-0.030048016
-3.5955312	PROBABLY	-0.030048016
-3.5955312	PERSON	-0.030048016
-3.5955312	DIRT	-0.030048016
-3.5955312	HIGHWAY	-0.030048016
-3.5955312	GOING	-0.030048016
-3.5955312	NORTHEAST	-0.030048016
-3.5955312	REACHES	-0.030048016
-3.5955312	ARUA	-0.030048016
-3.5955312	GULU	-0.030048016
-3.5066614	NORTH	-0.030048016
-3.5955312	SOLES	-0.030048016
-3.5955312	NEED	-0.030048016
-3.5955312	POSSESS	-0.030048016
-3.5955312	SLIP	-0.030048016
-3.5955312	GRIP	-0.030048016
-3.5066614	CHARACTERISTICS	-0.030048016
-3.5955312	SLOMAN	-0.030048016
-3.5955312	DAUGHTERS	-0.030048016
-3.5955312	CHARLES	-0.030048016
-3.5066614	WHEN	-0.030048016
-3.5955312	DANNY	-0.030048016
-3.5955312	KINGSBURY	-0.030048016
-3.5955312	ARCHITECT	-0.030048016
-3.1843276	STATION	-0.09489832
-3.5066614	PROGRAM	-0.030048016
-3.5955312	DIRECTOR	-0.030048016
-3.5955312	OUTER	-0.030048016
-3.5955312	RIM	-0.030048016
-3.5955312	UNDERGONE	-0.030048016
-3.5955312	EROSION	-0.030048016
-3.5955312	IMPACTS	-0.030048016
-3.5955312	PURPOSES	-0.030048016
-3.5955312	DEFINITION	-0.030048016
-3.5955312	INTENT	-0.030048016
-3.5955312	CONDITIONAL	-0.030048016
-3.5955312	BENNETT	-0.030048016
-3.5955312	LAWNSWOOD	-0.030048016
-3.5955312	LEEDS	-0.030048016
-3.5955312	HERTFORD	-0.030048016
-3.3555927	RULES	-0.030048043
-3.5955312	ADMIRALLORD	-0.030048016
-3.5955312	MOUNTEVANS	-0.030048016
-3.5955312	GROUPING	-0.030048016
-3.5955312	TRADITIONALLY	-0.030048016
-3.1843276	CALLED	-0.030048016
-3.5955312	APES	-0.030048016
-3.5955312	BRACKETED	-0.030048016
-3.5955312	RIGHT	-0.030048016
-3.5066614	TRACK	-0.030048043
-3.5955312	COCA	-0.030048016
-3.5955312	LEAF	-0.030048016
-3.5955312	VOCAL	-0.030048016
-3.5955312	SAMPLES	-0.030048016
-3.5955312	SINGING	-0.030048016
-3.5955312	TAUGHT	-0.030048016
-3.0618224	MOST	-0.030048043
-3.5955312	NARUTO	-0.030048016
-3.5955312	VIDEO	-0.030048016
-3.5955312	GAMES	-0.030048016
-3.5955312	RELEASED	-0.030048016
-3.5955312	JAPAN	-0.030048016
-3.5955312	BOLD	-0.030048016
-3.5955312	DENOTES	-0.030048016
-3.5066614	INTERNATIONAL	-0.030048016
-3.5066614	SIDE	-0.030048016
-3.5955312	GREER	-0.030048016
-3.5955312	SELECTION	-0.030048016
-3.5955312	RILEY	-0.030048016
-3.5955312	BUFFY	-0.030048016
-3.5955312	PURSUE	-0.030048016
-3.5955312	CAR	-0.030048016
-3.5066614	RENAMED	-0.030048016
-3.5955312	KIMBALL	-0.030048016
-3.5955312	PUZZLES	-0.030048016
-3.5955312	PLATFORMING	-0.030048016
-3.5066614	PLATFORMS	-0.17116138
-3.5955312	GRADUATION	-0.030048016
-3.5955312	ADMINISTRATOR	-0.030048016
-3.5955312	WESTERN'S	-0.030048016
-3.5955312	FRENCH	-0.030048016
-3.5955312	IMMERSION	-0.030048016
-3.5955312	AIRS	-0.030048016
-3.5066614	AMERICA	-0.030048016
-3.5955312	VIA	-0.030048016
-3.5955312	DISH	-0.030048016
-3.5955312	NETWORK	-0.030048016
-3.5955312	SIGNING	-0.030048016
-3.5955312	MAKES	-0.030048016
-3.5955312	ONETIME	-0.030048016
-3.5955312	DEALS	-0.030048016
-3.5955312	RELEASE	-0.030048016
-3.5955312	SINGLES	-0.030048016
-3.5955312	REBUILT	-0.030048016
-3.5955312	SIMPLY	-0.030048016
-3.5955312	'WELLS'	-0.030048016
-3.5955312	ENOUGH	-0.030048016
-3.5955312	CONFLICT	-0.030048016
-3.5955312	KOREA	-0.030048016
-3.5955312	CARNATIONS	-0.030048016
-3.5066614	EXPRESS	-0.030048016
-3.5955312	ADMIRATION	-0.030048016
-3.5955312	GRATITUDE	-0.030048016
-3.5955312	NAVAL	-0.030048016
-3.5955312	ACADEMY	-0.030048016
-3.5955312	ANNAPOLIS	-0.030048016
-3.5955312	LIKES	-0.030048016
-3.5955312	FLOWER	-0.030048016
-3.5955312	NECTAR	-0.030048016
-3.5955312	FRUIT	-0.030048016
-3.5955312	SEEDS	-0.030048016
-3.5955312	ROYAL	-0.030048016
-3.5955312	PRUSSIAN	-0.030048016
-3.5955312	GEOLOGICAL	-0.030048016
-3.5955312	INSTITUTE	-0.030048016
-3.5066614	MAKING	-0.030048016
-3.5955312	PHOTOGRAPHIC	-0.030048016
-3.5955312	BUILDER	-0.030048016
-3.5955312	EMPLOYED	-0.030048016
-3.5955312	HEATHROW	-0.030048016
-3.5955312	AIRPORT	-0.030048016
-3.5955312	POSSIBLE	-0.030048016
-3.5955312	EXPLANATION	-0.030048016
-3.5066614	ASSOCIATED	-0.17116138
-3.5955312	STIGMATA	-0.030048016
-3.5955312	MARYLAND	-0.030048016
-3.5955312	CUTTINGS	-0.030048016
-3.5955312	SLOW	-0.030048016
-3.5066614	STRIKE	-0.030048016
-3.5955312	ROOTS	-0.030048016
-3.5955312	UNDERGRADUATE	-0.030048016
-3.5955312	THEOLOGICAL	-0.030048016
-3.5955312	STUDIES	-0.030048016
-3.5066614	OVERALL	-0.030048016
-3.5066614	VIEW	-0.17116138
-3.5955312	CHRISTIAN	-0.030048016
-3.5955312	MYSTERY	-0.030048016
-3.5955312	BALANGIGA	-0.030048016
-3.5955312	REACHED	-0.030048016
-3.5955312	PUBLIC	-0.030048016
-3.5955312	UTILITY	-0.030048016
-3.5955312	VANS	-0.030048016
-3.5955312	BUSES	-0.030048016
-3.5955312	TACLOBAN	-0.030048016
-3.5955312	COMEDY	-0.030048016
-3.5955312	AWKWARD	-0.030048016
-3.5955312	VERSIFICATION	-0.030048016
-3.5955312	SHINING	-0.030048016
-3.5955312	STAR	-0.030048016
-3.5955312	CORE	-0.030048016
-3.5955312	WORLDS	-0.030048016
-3.5955312	WIN	-0.030048016
-3.5955312	EARNS	-0.030048016
-3.5955312	TWOYEAR	-0.030048016
-3.5955312	EXEMPTION	-0.030048016
-3.5955312	EVENTS	-0.030048016
-3.5955312	FORGERIES	-0.030048016
-3.5955312	CONCEAL	-0.030048016
-3.5955312	IDENTITIES	-0.030048016
-3.5955312	MOORE	-0.030048016
-3.5955312	LIVES	-0.030048016
-3.5955312	TORONTO	-0.030048016
-3.5955312	LAO	-0.030048016
-3.5955312	REPRESENTS	-0.030048016
-3.5955312	DOUBLED	-0.030048016
-3.5066614	WORD	-0.030048016
-3.5955312	ILLUSTRATIONS	-0.030048016
-3.5955312	CREATED	-0.030048016
-3.5955312	MAGAZINE	-0.030048016
-3.5955312	DEPICT	-0.030048016
-3.5955312	DIDN'T	-0.030048016
-3.5955312	BOTHER	-0.030048016
-3.5066614	SAYING	-0.030048016
-3.5955312	'THIS	-0.030048016
-3.5955312	SUCKS'	-0.030048016
-3.5955312	ANYMORE	-0.030048016
-3.5955312	DAMATURU	-0.030048016
-3.5066614	CAPITAL	-0.17116138
-3.5955312	DON'T	-0.030048016
-3.5955312	REALLY	-0.030048016
-3.5955312	GOD	-0.030048016
-3.5955312	RANK	-0.030048016
-3.5955312	CONFUSING	-0.030048016
-3.5955312	HISTORY	-0.030048016
-3.5955312	EXPERIENCED	-0.030048016
-3.5955312	WEIGHTLESSNESS	-0.030048016
-3.5955312	CURVATURE	-0.030048016
-3.5066614	EARTH	-0.17116138
-3.5955312	HOLMES	-0.030048016
-3.5955312	VERSUS	-0.030048016
-3.5955312	COONEY	-0.030048016
-3.5955312	REFEREED	-0.030048016
-3.5955312	MILLS	-0.030048016
-3.5955312	LANE	-0.030048016
-3.5955312	FREEWAY	-0.030048016
-3.5955312	ENTIRE	-0.030048016
-3.5955312	LENGTH	-0.030048016
-3.5955312	LEGENDARY	-0.030048016
-3.5955312	DANCE	-0.030048016
-3.5955312	MOUNTAINS	-0.030048016
-3.5066614	SEPARATE	-0.030048016
-3.5955312	LUZON'S	-0.030048016
-3.5955312	PLAIN	-0.030048016
-3.5066614	CHINA	-0.030048016
-3.5066614	SEA	-0.17116138
-3.5955312	FUNDAMENTAL	-0.030048016
-3.5955312	JUSTICE	-0.030048016
-3.5955312	THUS	-0.030048016
-3.5955312	VIOLATED	-0.030048016
-3.5955312	MOSQUE	-0.030048016
-3.5955312	SITIO	-0.030048016
-3.5955312	BOLANGAN	-0.030048016
-3.5955312	OUTSKIRTS	-0.030048016
-3.5955312	BEARING	-0.030048016
-3.5955312	PAGAN	-0.030048016
-3.5066614	SIMILAR	-0.030048016
-3.5955312	CHARLOTTE	-0.030048016
-3.5955312	PERKINS	-0.030048016
-3.5955312	GILMAN'S	-0.030048016
-3.5066614	STORY	-0.030048043
-3.5955312	YELLOW	-0.030048016
-3.5955312	WALLPAPER	-0.030048016
-3.5955312	ESTABLISHMENT	-0.030048016
-3.5955312	COMMANDED	-0.030048016
-3.5955312	OFFICER	-0.030048016
-3.5066614	LIEUTENANT	-0.1188616
-3.5066614	COMMANDER	-0.030048016
-3.5066614	APPLICATION	-0.030048016
-3.5955312	PATIENT	-0.030048016
-3.5066614	BECOME	-0.030048016
-3.5955312	SULTAN	-0.030048016
-3.5955312	HUSAYN	-0.030048016
-3.5955312	MIRZA'S	-0.030048016
-3.5955312	MERCENARY	-0.030048016
-3.5955312	RESCUE	-0.030048016
-3.5955312	OPERATION	-0.030048016
-3.5955312	AFFECTED	-0.030048016
-3.5955312	RAIN	-0.030048016
-3.5955312	SANTA	-0.030048016
-3.5955312	MONICA	-0.030048016
-3.5955312	MEN	-0.030048016
-3.5066614	LEFT	-0.030048016
-3.5066614	EVERYTHING	-0.030048016
-3.5955312	RING	-0.030048016
-3.5955312	AUTOMATICALLY	-0.030048016
-3.5955312	INCUR	-0.030048016
-3.5955312	DEDUCTION	-0.030048016
-3.5955312	LEVEL	-0.030048016
-3.5955312	GYMNAST	-0.030048016
-3.5955312	PAINTED	-0.030048016
-3.5955312	CHAPEL	-0.030048016
-3.5955312	PICTURE	-0.030048016
-3.5955312	JUDGMENT	-0.030048016
-3.5955312	BARBOUR	-0.030048016
-3.5066614	UNTIL	-0.17116138
-3.5955312	FOURTEEN	-0.030048016
-3.5955312	ORGANISATIONS	-0.030048016
-3.5955312	SUPPORTING	-0.030048016
-3.3555927	PEOPLE	-0.030048043
-3.5955312	UNDERTAKING	-0.030048016
-3.5955312	JOURNEY	-0.030048016
-3.5955312	SPLIT	-0.030048016
-3.5955312	SISTER	-0.030048016
-3.5066614	JOHN	-0.030048016
-3.5955312	DARLEY	-0.030048016
-3.5955312	BISHOP	-0.030048016
-3.5955312	KILMORE	-0.030048016
-3.5955312	ELPHIN	-0.030048016
-3.5955312	ARDAGH	-0.030048016
-3.5066614	HOME	-0.030048016
-3.5955312	LADEN	-0.030048016
-3.5955312	SOUVENIR	-0.030048016
-3.5066614	GIFTS	-0.030048016
-3.5955312	EXPENSIVE	-0.030048016
-3.5955312	PAINTINGS	-0.030048016
-3.5955312	BILLED	-0.030048016
-3.5955312	ANTICONSUMER	-0.030048016
-3.5955312	LIFESTYLE	-0.030048016
-3.5955312	CENTRE	-0.030048016
-3.5066614	RAILWAY	-0.030048016
-3.5955312	CONSTRUCTION	-0.030048016
-3.5955312	APPEALED	-0.030048016
-3.5066614	SUBSEQUENTLY	-0.030048016
-3.5955312	SUSPENDED	-0.030048016
-3.5955312	SENTENCE	-0.030048016
-3.5955312	FINE	-0.030048016
-3.5955312	PRESTON'S	-0.030048016
-3.5066614	BOOKS	-0.030048016
-3.5955312	THOROUGH	-0.030048016
-3.5955312	RESEARCH	-0.030048016
-3.5955312	CALCULATED	-0.030048016
-3.5955312	KILLING	-0.030048016
-3.5955312	COLD	-0.030048016
-3.5955312	BLOOD	-0.030048016
-3.5955312	STRUCTURE	-0.030048016
-3.5955312	SPECIAL	-0.030048016
-3.3555927	SERVICE	-0.030048043
-3.5955312	BRIGADE	-0.030048016
-3.5955312	PARASITES	-0.030048016
-3.5955312	KEEL	-0.030048016
-3.5955312	LAID	-0.030048016
-3.5955312	PORTSMOUTH	-0.030048016
-3.5955312	YARD	-0.030048016
-3.5955312	MANAGED	-0.030048016
-3.5955312	STEAL	-0.030048016
-3.5955312	GUN	-0.030048016
-3.5955312	SHOOT	-0.030048016
-3.5955312	INJURING	-0.030048016
-3.5066614	PRODUCED	-0.030048016
-3.5066614	THEMSELVES	-0.030048016
-3.5955312	METRORAIL'S	-0.030048016
-3.5955312	ORANGE	-0.030048016
-3.5066614	CLOSELY	-0.030048016
-3.5955312	FOLLOWS	-0.030048016
-3.5955312	LINE'S	-0.030048016
-3.5955312	ROUTE	-0.030048016
-3.5955312	COMPOSER	-0.030048016
-3.5066614	NAMES	-0.030048016
-3.5955312	LOVERS	-0.030048016
-3.5066614	RECORDED	-0.030048016
-3.5955312	EXPLAIN	-0.030048016
-3.5955312	TERM	-0.030048016
-3.5955312	BOX	-0.030048016
-3.5066614	LIGHT	-0.030048016
-3.5955312	SCULPTURE	-0.030048016
-3.5955312	RHEINTURM	-0.030048016
-3.5955312	LARGEST	-0.030048016
-3.5955312	DIGITAL	-0.030048016
-3.5955312	CLOCK	-0.030048016
-3.5955312	AUSTRIA	-0.030048016
-3.5955312	QUALIFIED	-0.030048016
-3.5955312	MALE	-0.030048016
-3.5955312	SWIMMER	-0.030048016
-3.5955312	CORRECTLY	-0.030048016
-3.5955312	FAIRLY	-0.030048016
-3.5955312	DEGREE	-0.030048016
-3.5955312	PRECISION	-0.030048016
-3.5955312	ACHIEVED	-0.030048016
-3.5955312	MONACO	-0.030048016
-3.5066614	INSTALLED	-0.030048016
-3.5955312	LEVELS	-0.030048016
-3.5955312	STRONGLY	-0.030048016
-3.5955312	LINKED	-0.030048016
-3.5955312	MAYO	-0.030048016
-3.5955312	CONNACHT	-0.030048016
-3.5955312	PARTICULARLY	-0.030048016
-3.5955312	REMARKABLE	-0.030048016
-3.5955312	THOSE	-0.030048016
-3.5955312	OSTRACA	-0.030048016
-3.5955312	CONTAIN	-0.030048016
-3.5955312	LITURGICAL	-0.030048016
-3.5955312	BEVEL	-0.030048016
-3.5955312	GEARS	-0.030048016
-3.5955312	SHAFT	-0.030048016
-3.5955312	STATION'S	-0.030048016
-3.5955312	PROGRAMMING	-0.030048016
-3.5955312	NOTTINGHAM	-0.030048016
-3.5955312	MALLET	-0.030048016
-3.5955312	DESIGNS	-0.030048016
-3.5066614	POPULAR	-0.030048016
-3.5955312	HUNGARY	-0.030048016
-3.5955312	TOO	-0.030048016
-3.5066614	CASES	-0.030048016
-3.5955312	INFECTED	-0.030048016
-3.5955312	CONTACT	-0.030048016
-3.5955312	SICK	-0.030048016
-3.5955312	HORSES	-0.030048016
-3.5066614	SOON	-0.030048016
-3.5955312	GIRLS	-0.030048016
-3.5955312	RECEIVED	-0.030048016
-3.5955312	UPDATED	-0.030048016
-3.5955312	CAB	-0.030048016
-3.5955312	SIGNALING	-0.030048016
-3.5066614	REGIONAL	-0.030048016
-3.5066614	PROGRAMS	-0.030048016
-3.5955312	SWITCHBACK	-0.030048016
-3.5955312	ORBIT	-0.030048016
-3.5955312	STABILIZER	-0.030048016
-3.5955312	NONTRIVIAL	-0.030048016
-3.5955312	JOHNSON	-0.030048016
-3.5955312	EARNED	-0.030048016
-3.5955312	PRO	-0.030048016
-3.5955312	BOWL	-0.030048016
-3.5955312	BERTH	-0.030048016
-3.5066614	CABLE	-0.030048016
-3.5955312	ENDS	-0.030048016
-3.5955312	SHOOTING	-0.030048016
-3.5955312	HAMMER	-0.030048016
-3.5955312	PARALYZING	-0.030048016
-3.5955312	BOAT	-0.030048016
-3.5955312	SINKING	-0.030048016
-3.5955312	ABANDONING	-0.030048016
-3.5066614	SHIP	-0.030048016
-3.5955312	BECOMES	-0.030048016
-3.5955312	SLAVE	-0.030048016
-3.5955312	FREES	-0.030048016
-3.5955312	HERSELF	-0.030048016
-3.5955312	MONTH	-0.030048016
-3.5955312	BEFORE	-0.030048016
-3.5955312	MURDERED	-0.030048016
-3.5955312	HASSELBACH'S	-0.030048016
-3.5955312	COMMUNISTPARTY	-0.030048016
-3.5955312	LOYAL	-0.030048016
-3.5955312	JOURNALISTS	-0.030048016
-3.5955312	TOWNS	-0.030048016
-3.5955312	COMMUNE	-0.030048016
-3.5955312	BASBELLAIN	-0.030048016
-3.5955312	DRINKLANGE	-0.030048016
-3.5955312	HAUTBELLAIN	-0.030048016
-3.5955312	HULDANGE	-0.030048016
-3.5955312	WILWERDANGE	-0.030048016
-3.5955312	ADDITIONALLY	-0.030048016
-3.5066614	UNIT	-0.030048016
-3.5955312	UNUSUAL	-0.030048016
-3.5955312	NONPASSENGER	-0.030048016
-3.5955312	WORKINGS	-0.030048016
-3.5955312	PATIENTS	-0.030048016
-3.5955312	WELFARE	-0.030048016
-3.5955312	GRATEFULLY	-0.030048016
-3.5955312	ACKNOWLEDGED	-0.030048016
-3.5955312	MOVE	-0.030048016
-3.5955312	BLAIR	-0.030048016
-3.5955312	HISTORIANS	-0.030048016
-3.5955312	TRAIN	-0.030048016
-3.5955312	ADVISE	-0.030048016
-3.5955312	REGION'S	-0.030048016
-3.5066614	ACTIVITIES	-0.030048016
-3.5955312	COTTON	-0.030048016
-3.5955312	CEREAL	-0.030048016
-3.5955312	GROWING	-0.030048016
-3.5955312	WINEMAKING	-0.030048016
-3.5955312	SERICULTURE	-0.030048016
-3.5955312	UNINCORPORATED	-0.030048016
-3.5955312	COMMUNITIES	-0.030048016
-3.5955312	LARSEN	-0.030048016
-3.5955312	MEDINA	-0.030048016
-3.5066614	JUNCTION	-0.030048016
-3.5955312	MIKESVILLE	-0.030048016
-3.5955312	CAUSE	-0.030048016
-3.5955312	UNDERSEA	-0.030048016
-3.5955312	AVALANCHE	-0.030048016
-3.5955312	BURIES	-0.030048016
-3.5955312	MONTHS	-0.030048016
-3.5955312	SABBATH	-0.030048016
-3.5955312	LOSES	-0.030048016
-3.5955312	DOCTOR'S	-0.030048016
-3.5955312	TIMESENSITIVE	-0.030048016
-3.5955312	HEART	-0.030048016
-3.5955312	GROWS	-0.030048016
-3.5955312	THEREFORE	-0.030048016
-3.5955312	NOBILITY	-0.030048016
-3.5955312	UNTITLED	-0.030048016
-3.5955312	NETHERLANDS	-0.030048016
-3.5955312	WRITE	-0.030048016
-3.5955312	NOTHING	-0.030048016
-3.5955312	YEARLONG	-0.030048016
-3.5955312	LAYOFF	-0.030048016
-3.5066614	RETURNED	-0.030048016
-3.5955312	CYLINDER	-0.030048016
-3.5066614	TRADITIONAL	-0.030048016
-3.5955312	BOATS	-0.030048016
-3.5955312	KETEKS	-0.030048016
-3.5955312	SAMPANS	-0.030048016
-3.5066614	GOVERNMENT	-0.030048016
-3.5955312	COUNCILMANAGER	-0.030048016
-3.5955312	FORM	-0.030048016
-3.5955312	AFTERNOON	-0.030048016
-3.5955312	MRS	-0.030048016
-3.5955312	BLEWETT	-0.030048016
-3.5955312	ELECTION	-0.030048016
-3.5955312	LAI	-0.030048016
-3.5955312	TEACHING	-0.030048016
-3.5955312	SACRED	-0.030048016
-3.5955312	HEARTS	-0.030048016
-3.5955312	CONVENT	-0.030048016
-3.5066614	MEANING	-0.030048016
-3.5955312	TRIBE	-0.030048016
-3.5955312	MUTE	-0.030048016
-3.5955312	WRITES	-0.030048016
-3.5955312	WANTS	-0.030048016
-3.5955312	SAY	-0.030048016
-3.5955312	MOSES	-0.030048016
-3.5955312	METROLINK	-0.030048016
-3.5955312	RADCLIFFE	-0.030048016
-3.5955312	STOP	-0.030048016
-3.5955312	ADMINISTRATIVELY	-0.030048016
-3.5955312	SERMERSOOQ	-0.030048016
-3.5955312	PICKUP	-0.030048016
-3.5955312	TRUCKS	-0.030048016
-3.5955312	FIFTH	-0.030048016
-3.5955312	GEAR	-0.030048016
-3.5066614	RESIDENTIAL	-0.030048016
-3.5955312	FISHER	-0.030048016
-3.5955312	SUED	-0.030048016
-3.5955312	DEES	-0.030048016
-3.5955312	COPYRIGHT	-0.030048016
-3.5955312	INFRINGEMENT	-0.030048016
-3.5955312	LIE	-0.030048016
-3.5955312	ALEXANDER'S	-0.030048016
-3.5955312	RECOGNIZED	-0.030048016
-3.5955312	ROMAN	-0.030048016
-3.5955312	SENATE	-0.030048016
-3.5955312	PTOLEMY	-0.030048016
-3.5955312	PHILOMETOR	-0.030048016
-3.5955312	EGYPT	-0.030048016
-3.5955312	POPE	-0.030048016
-3.5955312	ARGUABLY	-0.030048016
-3.5955312	SATIRISES	-0.030048016
-3.5955312	LOOKING	-0.030048016
-3.5955312	JUDGMENTALLY	-0.030048016
-3.5955312	CAVEAT	-0.030048016
-3.5955312	SUPREME	-0.030048016
-3.5066614	COURT	-0.030048016
-3.5955312	NORTHWEST	-0.030048016
-3.5955312	TERRITORIES	-0.030048016
-3.5955312	DUTY	-0.030048016
-3.5955312	ENFORCE	-0.030048016
-3.5955312	JUDGEMENTS	-0.030048016
-3.5955312	COURTS	-0.030048016
-3.5955312	APPEARS	-0.030048016
-3.5955312	LEWIS	-0.030048016
-3.5955312	CLARK'S	-0.030048016
-3.5955312	MAPS	-0.030048016
-3.5955312	PORTPELLAH	-0.030048016
-3.5955312	DEMERIT	-0.030048016
-3.5955312	CLOSE	-0.030048016
-3.5955312	RELATION	-0.030048016
-3.5955312	STUDENTS'	-0.030048016
-3.5955312	CONDUCT	-0.030048016
-3.5955312	GRADE	-0.030048016
-3.5955312	RAGAN	-0.030048016
-3.5955312	KING	-0.030048016
-3.5955312	SITE	-0.030048016
-3.5955312	TESCO	-0.030048016
-3.5955312	SUPERMARKET	-0.030048016
-3.5955312	VARIOUS	-0.030048016
-3.5955312	ACADEMIC	-0.030048016
-3.5955312	INSTITUTIONS	-0.030048016
-3.5955312	OFFER	-0.030048016
-3.5955312	COURSES	-0.030048016
-3.5955312	ETHICS	-0.030048016
-3.5955312	MEDICAL	-0.030048016
-3.5955312	HUMANITIES	-0.030048016
-3.5955312	UNDELETION	-0.030048016
-3.5955312	FAILSAFE	-0.030048016
-3.5955312	DATE	-0.030048016
-3.5955312	POSTPONED	-0.030048016
-3.5066614	TRANSMISSION	-0.030048016
-3.5066614	ELECTRON	-0.030048016
-3.5955312	MICROSCOPE	-0.030048016
-3.5955312	PROTOTYPE	-0.030048016
-3.5955312	MICROSCOPES	-0.030048016
-3.5955312	TUSSOCK	-0.030048016
-3.5955312	TUNDRA	-0.030048016
-3.5955312	DOMINATES	-0.030048016
-3.5955312	TERRAIN	-0.030048016
-3.5955312	SURROUNDING	-0.030048016
-3.5955312	SCARLETT	-0.030048016
-3.5955312	ACCEPTS	-0.030048016
-3.5955312	RHETT'S	-0.030048016
-3.5955312	SPECIALIZED	-0.030048016
-3.5955312	PUNK	-0.030048016
-3.5066614	ROCK	-0.030048016
-3.5955312	INDIE	-0.030048016
-3.5955312	EMO	-0.030048016
-3.5955312	NEWPORT	-0.030048016
-3.5066614	BEACH	-0.030048016
-3.5955312	PLANT	-0.030048016
-3.5955312	DEMOLISHED	-0.030048016
-3.5955312	REZONED	-0.030048016
-3.5955312	DEVELOPMENT	-0.030048016
-3.5066614	VARIETIES	-0.030048016
-3.5955312	INTRODUCED	-0.030048016
-3.5955312	VAST	-0.030048016
-3.5955312	AFRICAN	-0.030048016
-3.5955312	OIL	-0.030048016
-3.5955312	PALM	-0.030048016
-3.5955312	PLANTATIONS	-0.030048016
-3.5955312	DOT	-0.030048016
-3.5066614	SOMETIMES	-0.030048016
-3.5955312	FERRY	-0.030048016
-3.5955312	POWERED	-0.030048016
-3.5955312	SOMEONE	-0.030048016
-3.5955312	LAWYERS	-0.030048016
-3.5955312	LIBERTARIANS	-0.030048016
-3.5955312	GIVE	-0.030048016
-3.5955312	POEMS	-0.030048016
-3.5066614	INSPIRED	-0.030048016
-3.5955312	LATE	-0.030048016
-3.5955312	GIRL	-0.030048016
-3.5955312	PRIME	-0.030048016
-3.5066614	MINISTER	-0.030048016
-3.5066614	FOREIGN	-0.030048016
-3.5955312	HONEST	-0.030048016
-3.5955312	LOMBARD	-0.030048016
-3.5955312	INVASION	-0.030048016
-3.5066614	BELONGED	-0.030048016
-3.5955312	DUCHY	-0.030048016
-3.5955312	IVREA	-0.030048016
-3.5955312	STINT	-0.030048016
-3.5066614	WHAT'S	-0.030048016
-3.5955312	HICKS	-0.030048016
-3.5066614	CALIFORNIA	-0.17116138
-3.5955312	BULLPUP	-0.030048016
-3.5955312	CONFIGURATION	-0.030048016
-3.5955312	KUSHNAPUP	-0.030048016
-3.5066614	AVAILABLE	-0.030048016
-3.5955312	SAIGA	-0.030048016
-3.5955312	CALIBERS	-0.030048016
-3.5955312	ELIGIBLE	-0.030048016
-3.5955312	FACILITIES	-0.030048016
-3.5955312	ENGLAND	-0.030048016
-3.5955312	WALES	-0.030048016
-3.5955312	HARRIS	-0.030048016
-3.5955312	PAINT	-0.030048016
-3.5955312	TRUSTEES	-0.030048016
-3.5955312	SONIC	-0.030048016
-3.5955312	TAILS	-0.030048016
-3.5955312	SWIM	-0.030048016
-3.5955312	UNDERWATER	-0.030048016
-3.5955312	TOWNSHIP	-0.030048016
-3.5955312	INCLUDES	-0.030048016
-3.5955312	DECORIA	-0.030048016
-3.5955312	STAINEDGLASS	-0.030048016
-3.5955312	WINDOWS	-0.030048016
-3.5955312	CHAMPDEMARS	-0.030048016
-3.5955312	METRO	-0.030048016
-3.5955312	MONTREAL	-0.030048016
-3.5955312	GENERATION	-0.030048016
-3.5955312	ACTORS	-0.030048016
-3.5955312	IVAN	-0.030048016
-3.5955312	VAZOV	-0.030048016
-3.5955312	THEATER	-0.030048016
-3.5955312	ODDER	-0.030048016
-3.5955312	AARHUS	-0.030048016
-3.5955312	CLIMB	-0.030048016
-3.5955312	WINDOW	-0.030048016
-3.5955312	TRANSPARENT	-0.030048016
-3.5955312	CAMPAIGNED	-0.030048016
-3.5066614	AGAINST	-0.030048016
-3.5955312	RELIANCE	-0.030048016
-3.5955312	HOSPITALITY	-0.030048016
-3.5955312	STAFF	-0.030048016
-3.5955312	TIPS	-0.030048016
-3.5955312	FOUR	-0.030048016
-3.5066614	CHILDREN	-0.030048016
-3.5955312	LOS	-0.030048016
-3.5955312	ANGELES	-0.030048016
-3.5955312	OPERAS	-0.030048016
-3.5955312	INCLUDING	-0.030048016
-3.5955312	LUCREZIA	-0.030048016
-3.5955312	BORGIA	-0.030048016
-3.5955312	PRODUCTIONS	-0.030048016
-3.5955312	DAME	-0.030048016
-3.5955312	JOAN	-0.030048016
-3.5955312	SUTHERLAND	-0.030048016
-3.5955312	WHO	-0.030048016
-3.5955312	INCREASED	-0.030048016
-3.5955312	DETAIL	-0.030048016
-3.5955312	APPARENT	-0.030048016
-3.5066614	GRAND	-0.030048016
-3.5955312	PRIX	-0.030048016
-3.5955312	MODE	-0.030048016
-3.5955312	PRODUCES	-0.030048016
-3.5955312	TROPHY	-0.030048016
-3.5955312	BASS	-0.030048016
-3.5955312	ANNUALLY	-0.030048016
-3.5955312	PUEBLO	-0.030048016
-3.5955312	VINELAND	-0.030048016
-3.5955312	RESIDENTS	-0.030048016
-3.5955312	ISOTOPES	-0.030048016
-3.5955312	HALFLIVES	-0.030048016
-3.3555927	UNDER	-0.030048043
-3.5955312	HOUR	-0.030048016
-3.5955312	EXPAND	-0.030048016
-3.5955312	PRODUCTIVITY	-0.030048016
-3.5955312	PER	-0.030048016
-3.5955312	WORKER	-0.030048016
-3.5955312	INCREASE	-0.030048016
-3.5955312	XENO	-0.030048016
-3.5066614	DRAINAGE	-0.030048016
-3.5955312	DENSITY	-0.030048016
-3.5955312	DEPENDS	-0.030048016
-3.5955312	UPON	-0.030048016
-3.5955312	CLIMATE	-0.030048016
-3.5955312	BASIN	-0.030048016
-3.5955312	CHOLESTEROL	-0.030048016
-3.5955312	REGULATES	-0.030048016
-3.5955312	MEMBRANE	-0.030048016
-3.5955312	PROTEINS	-0.030048016
-3.5955312	LIPID	-0.030048016
-3.5955312	RAFTS	-0.030048016
-3.5955312	EDIACARAN	-0.030048016
-3.5955312	FEDERATION	-0.030048016
-3.5955312	AUSTRALIA	-0.030048016
-3.5955312	MCNEIL	-0.030048016
-3.5955312	CONFIDENT	-0.030048016
-3.5955312	STRENGTH	-0.030048016
-3.5955312	REFUSED	-0.030048016
-3.5955312	SURRENDER	-0.030048016
-3.5955312	SUSPENSE	-0.030048016
-3.5955312	POWER	-0.030048016
-3.5955312	WORK	-0.030048016
-3.5955312	CONGRESS	-0.030048016
-3.5955312	PASSED	-0.030048016
-3.5955312	ACT	-0.030048016
-3.5955312	ORDER	-0.030048016
-3.5955312	AVOID	-0.030048016
-3.5955312	NATIONWIDE	-0.030048016
-3.5066614	FILMED	-0.030048016
-3.5955312	JERSEY	-0.030048016
-3.5955312	PROFESSION	-0.030048016
-3.5955312	PERSONAL	-0.030048016
-3.5955312	INTERTWINED	-0.030048016
-3.5955312	CLUBS	-0.030048016
-3.5066614	REPRESENTED	-0.030048016
-3.5955312	TECHNIQUE	-0.030048016
-3.5955312	HAND	-0.030048016
-3.5955312	PRINTING	-0.030048016
-3.5955312	INK	-0.030048016
-3.5955312	MIXED	-0.030048016
-3.5955312	RELATED	-0.030048016
-3.5955312	SUNDER	-0.030048016
-3.5955312	CLUB'S	-0.030048016
-3.5955312	TOP	-0.030048016
-3.5955312	SCORER	-0.030048016
-3.5955312	GEORGE	-0.030048016
-3.5955312	EXPLORES	-0.030048016
-3.5955312	RESCUES	-0.030048016
-3.5955312	PARAGLIDER	-0.030048016
-3.5955312	BAY	-0.030048016
-3.5955312	ALUMNI	-0.030048016
-3.5955312	OCCUPY	-0.030048016
-3.5955312	SENIOR	-0.030048016
-3.5955312	EXECUTIVE	-0.030048016
-3.5955312	INDIA	-0.030048016
-3.5955312	ABROAD	-0.030048016
-3.5955312	ENQUIRY	-0.030048016
-3.5955312	MINIMUM	-0.030048016
-3.5955312	PERFORMANCE	-0.030048016
-3.5955312	STANDARDS	-0.030048016
-3.5955312	ELIGIBILITY	-0.030048016
-3.5955312	CRITERIA	-0.030048016
-3.5955312	APPLY	-0.030048016
-3.5955312	NUCLEAR	-0.030048016
-3.5955312	CENTER	-0.030048016
-3.5955312	INAUGURATED	-0.030048016
-3.5955312	STAYS	-0.030048016
-3.5955312	HUT	-0.030048016
-3.5955312	SHELTER	-0.030048016
-3.5955312	SPECIALLY	-0.030048016
-3.5955312	OYSTER	-0.030048016
-3.5066614	WHOM	-0.030048016
-3.5955312	NOBODY	-0.030048016
-3.5955312	WAYNE	-0.030048016
-3.5955312	ENRAGED	-0.030048016
-3.5066614	DEMANDED	-0.030048016
-3.5955312	FULL	-0.030048016
-3.5955312	COURTMARTIAL	-0.030048016
-3.5955312	OPENING	-0.030048016
-3.5955312	SNOOPY	-0.030048016
-3.5955312	PRACTICES	-0.030048016
-3.5955312	MAGIC	-0.030048016
-3.5955312	WOODSTOCK	-0.030048016
-3.5955312	DE	-0.030048016
-3.5955312	LUCO	-0.030048016
-3.5955312	BASQUE	-0.030048016
-3.5955312	COUNTRY	-0.030048016
-3.5955312	EXCELLENT	-0.030048016
-3.5955312	ARRANGEMENT	-0.030048016
-3.5955312	PEARCE	-0.030048016
-3.5955312	POST	-0.030048016
-3.5955312	CONSTANT	-0.030048016
-3.5955312	TRAVELLING	-0.030048016
-3.5955312	EXTENSIVE	-0.030048016
-3.5955312	LATELY	-0.030048016
-3.5955312	DEBUTED	-0.030048016
-3.5955312	E	-0.030048016
-3.5955312	ALTERNATIVELY	-0.030048016
-3.5955312	MISSION	-0.030048016
-3.5955312	EQUIPMENT	-0.030048016
-3.5955312	CABIN	-0.030048016
-3.5955312	HOPEWELL	-0.030048016
-3.5955312	FISHKILL	-0.030048016
-3.5955312	TRANSLATED	-0.030048016
-3.5955312	MEANINGFUL	-0.030048016
-3.5066614	HALLUCINATIONS	-0.030048016
-3.5955312	SEMANTIC	-0.030048016
-3.5955312	SCANDINAVIA	-0.030048016
-3.5955312	TRAVELLED	-0.030048016
-3.5955312	RUSSIA	-0.030048016
-3.5955312	CAMERA	-0.030048016
-3.5955312	PUSHED	-0.030048016
-3.5955312	IMAGE	-0.030048016
-3.5955312	CLAIRE	-0.030048016
-3.5955312	SO	-0.030048016
-3.5955312	ALMOST	-0.030048016
-3.5955312	ENTIRELY	-0.030048016
-3.5955312	ANNIE	-0.030048016
-3.5955312	FINDS	-0.030048016
-3.5955312	DRAGON	-0.030048016
-3.5955312	CUSTODY	-0.030048016
-3.5955312	SHIRT	-0.030048016
-3.5955312	BEARS'	-0.030048016
-3.5955312	MARVEL	-0.030048016
-3.5955312	EDITORS	-0.030048016
-3.5955312	SCRAPPED	-0.030048016
-3.5955312	CONCERNS	-0.030048016
-3.5955312	CONTROVERSY	-0.030048016
-3.5955312	GENERATE	-0.030048016
-3.5955312	COFFEY	-0.030048016
-3.5955312	OPENED	-0.030048016
-3.5955312	DOCK	-0.030048016
-3.5955312	DISTILLERY	-0.030048016
-3.5955312	CANAL	-0.030048016
-3.5066614	STREET	-0.030048016
-3.5955312	EVERYBODY	-0.030048016
-3.5955312	LIKED	-0.030048016
-3.5955312	TACT	-0.030048016
-3.5955312	WRITTEN	-0.030048016
-3.5955312	NOVELS	-0.030048016
-3.5066614	TEANECK	-0.030048016
-3.5955312	ROOT	-0.030048016
-3.5955312	BARK	-0.030048016
-3.5955312	TANNING	-0.030048016
-3.5955312	BARRIER	-0.030048016
-3.5955312	FREE	-0.030048016
-3.5955312	BUS	-0.030048016
-3.5955312	VIRGINIA	-0.030048016
-3.5955312	EMPHASIZE	-0.030048016
-3.5955312	CULTURAL	-0.030048016
-3.5955312	SKILLS	-0.030048016
-3.5955312	TROOPS	-0.030048016
-3.5955312	HIGHLIGHTED	-0.030048016
-3.5955312	SECTIONS	-0.030048016
-3.5955312	CONTRIBUTIONS	-0.030048016
-3.5955312	DEFORMATION	-0.030048016
-3.5955312	ALGEBRAIC	-0.030048016
-3.5955312	MINESWEEPERS	-0.030048016
-3.5955312	EQUIPPED	-0.030048016
-3.5955312	SWEEPING	-0.030048016
-3.5955312	MOORED	-0.030048016
-3.5955312	MAGNETIC	-0.030048016
-3.5955312	MINES	-0.030048016
-3.5066614	FAMOUS	-0.17116138
-3.5955312	DETAILS	-0.030048016
-3.5955312	EYELIDS	-0.030048016
-3.5955312	TOENAILS	-0.030048016
-3.5955312	OVERSAW	-0.030048016
-3.5955312	REORGANISATION	-0.030048016
-3.5955312	DEVONSHIRE	-0.030048016
-3.5955312	ESTATES	-0.030048016
-3.5955312	LIMESTONE	-0.030048016
-3.5955312	CAVES	-0.030048016
-3.5955312	DOES	-0.030048016
-3.5955312	EXIST	-0.030048016
-3.5955312	MOUNTAIN	-0.030048016
-3.5955312	REMAIN	-0.030048016
-3.5955312	UNDOCUMENTED	-0.030048016
-3.5955312	AGNOTHERAPY	-0.030048016
-3.5955312	METHOD	-0.030048016
-3.5955312	DEVELOPED	-0.030048016
-3.5955312	ISRAEL	-0.030048016
-3.5955312	ELDERLY	-0.030048016
-3.5955312	FEELINGS	-0.030048016
-3.5955312	CHURCH	-0.030048016
-3.5955312	WAITING	-0.030048016
-3.5955312	TRAINS	-0.030048016
-3.5955312	LITTLE	-0.030048016
-3.5955312	SURVIVED	-0.030048016
-3.5955312	BEL	-0.030048016
-3.5955312	SELDOM	-0.030048016
-3.5955312	DECIBEL	-0.030048016
-3.5955312	VICTORIES	-0.030048016
-3.5955312	BEGUN	-0.030048016
-3.5955312	ADD	-0.030048016
-3.5955312	AMBIGUOUS	-0.030048016
-3.5955312	PRIVATELY	-0.030048016
-3.5955312	UNQUOTED	-0.030048016
-3.5955312	UNLISTED	-0.030048016
-3.5955312	SINATRA	-0.030048016
-3.5955312	LIZA	-0.030048016
-3.5955312	MINNELLI	-0.030048016
-3.5955312	DEFINED	-0.030048016
-3.5955312	CONFORMATION	-0.030048016
-3.5955312	COMPETITIONS	-0.030048016
-3.5955312	MIXEDBREED	-0.030048016
-3.5955312	DOGS	-0.030048016
-3.5066614	TAFOYA	-0.030048016
-3.5955312	GERONIMO	-0.030048016
-3.5955312	EIGHT	-0.030048016
-3.5955312	RESIDENCE	-0.030048016
-3.5955312	STORM	-0.030048016
-3.5066614	PETREL	-0.030048016
-3.5955312	BULWER'S	-0.030048016
-3.5955312	YELLOWLEGGED	-0.030048016
-3.5955312	GULL	-0.030048016
-3.5955312	WHETHER	-0.030048016
-3.5955312	KOHLIT	-0.030048016
-3.5955312	PREMIER	-0.030048016
-3.5955312	SPEAKERS	-0.030048016
-3.5955312	BUREAU	-0.030048016
-3.5955312	WORKLOAD	-0.030048016
-3.5955312	RAILROADS	-0.030048016
-3.5955312	REQUIRED	-0.030048016
-3.5955312	SKILLFUL	-0.030048016
-3.5955312	COORDINATION	-0.030048016
-3.5955312	ANNE	-0.030048016
-3.5955312	HOPED	-0.030048016
-3.5955312	TEARS	-0.030048016
-3.5955312	SOLITUDE	-0.030048016
-3.5955312	CONCERTO	-0.030048016
-3.5955312	GUITAR	-0.030048016
-3.5955312	ORCHESTRA	-0.030048016
-3.5955312	REPUTATION	-0.030048016
-3.5955312	LAWYER	-0.030048016
-3.5955312	STATESMAN	-0.030048016
-3.5955312	LETTERS	-0.030048016
-3.5955312	WEBSITE	-0.030048016
-3.5955312	SCANNED	-0.030048016
-3.5955312	COPY	-0.030048016
-3.5955312	BODY	-0.030048016
-3.5955312	PLEASURE	-0.030048016
-3.5955312	BOATING	-0.030048016
-3.5066614	SHOULD	-0.030048016
-3.5955312	SURPRISED	-0.030048016
-3.5955312	TUNES	-0.030048016
-3.5955312	MULTIPLE	-0.030048016
-3.5955312	BEAVERCREEK	-0.030048016
-3.5955312	BIRTHPLACE	-0.030048016
-3.5955312	GEOCACHING	-0.030048016
-3.5955312	ROOM	-0.030048016
-3.5955312	ENGLISHMEN	-0.030048016
-3.5955312	OLDEST	-0.030048016
-3.5955312	CONTINUOUS	-0.030048016
-3.5955312	ORGANIZATION	-0.030048016
-3.5955312	ORLEANS	-0.030048016
-3.5955312	MARDI	-0.030048016
-3.5955312	GRAS	-0.030048016
-3.5955312	FESTIVITIES	-0.030048016
-3.5955312	BOYZONE	-0.030048016
-3.5955312	LOUIS	-0.030048016
-3.5955312	QUOTED	-0.030048016
-3.5955312	WE'RE	-0.030048016
-3.5955312	ABSOLUTELY	-0.030048016
-3.5955312	DEVASTATED	-0.030048016
-3.5955312	REGIMENT'S	-0.030048016
-3.5955312	OVERSEAS	-0.030048016
-3.5955312	OPIUM	-0.030048016
-3.5955312	PAST	-0.030048016
-3.5066614	DUALDISC	-0.17116138
-3.5955312	RELEASES	-0.030048016
-3.5955312	COMPARE	-0.030048016
-3.5955312	MARKETING	-0.030048016
-3.5955312	STRATEGIES	-0.030048016
-3.5955312	COMPETITORS	-0.030048016
-3.5955312	CITIES	-0.030048016
-3.5955312	PROBLEMS	-0.030048016
-3.5955312	HEADED	-0.030048016
-3.5955312	LOBBIES	-0.030048016
-3.5955312	PROVINCIAL	-0.030048016
-3.5955312	NATION'S	-0.030048016
-3.5955312	BEHIND	-0.030048016
-3.5955312	TAI	-0.030048016
-3.5955312	MO	-0.030048016
-3.5955312	SHAN	-0.030048016
-3.5955312	TALLEST	-0.030048016
-3.5955312	HILL	-0.030048016
-3.5955312	HONG	-0.030048016
-3.5955312	KONG	-0.030048016
-3.5955312	RAN	-0.030048016
-3.5066614	RACES	-0.030048016
-3.5955312	SUFFERING	-0.030048016
-3.5955312	FAILURE	-0.030048016

\2-grams:
-1.0966963	HE </s>	0
-1.0213921	BORN </s>	0
-0.80142653	OXFORD </s>	0
-0.80142653	ESTAIRES </s>	0
-1.0355568	HER </s>	0
-0.9046732	POOR </s>	0
-0.80142653	GOLF </s>	0
-0.9809233	YEAR </s>	0
-1.12596	TO </s>	0
-0.80142653	COLLECTIONS </s>	0
-0.7521204	YOU </s>	0
-0.80142653	FIT </s>	0
-0.80142653	LOCALITY </s>	0
-0.80142653	ABILITIES </s>	0
-1.0846086	FOR </s>	0
-0.61736584	LEAGUE </s>	0
-0.80142653	WEEK </s>	0
-0.5354856	SOCIETY </s>	0
-0.80142653	UNRELIABLE </s>	0
-0.80142653	LUBBOCK </s>	0
-0.80142653	DERAILLEURS </s>	0
-1.0552814	IT </s>	0
-0.5354856	FAMILY </s>	0
-0.80142653	COMICS </s>	0
-0.9809233	UNIVERSITY </s>	0
-1.2555703	ON </s>	0
-0.9672486	FOOTBALL </s>	0
-0.9046732	TEAM </s>	0
-0.80142653	RESULTS </s>	0
-0.9046732	STUDENTS </s>	0
-0.85031676	SCHOOL </s>	0
-0.5354856	DISTRICT </s>	0
-0.94537294	NEARBY </s>	0
-0.80142653	SMITHVILLE </s>	0
-1.0251244	OPEN </s>	0
-0.4071965	WOMEN </s>	0
-0.94537294	THEM </s>	0
-0.94537294	ATTENTION </s>	0
-0.9672486	ANOTHER </s>	0
-1.1081737	ONE </s>	0
-0.7183561	AREA </s>	0
-0.94537294	TRAINING </s>	0
-0.4071965	SPORTS </s>	0
-0.80142653	TECHNOLOGY </s>	0
-0.80142653	STE </s>	0
-0.9046732	MONEY </s>	0
-0.9046732	MANAGER </s>	0
-1.0590873	THAT </s>	0
-0.94537294	DID </s>	0
-0.94537294	DEATH </s>	0
-0.80142653	PERSONNEL </s>	0
-0.675104	DAY </s>	0
-1.1109204	AS </s>	0
-0.94537294	TIME </s>	0
-0.80142653	CORPS </s>	0
-0.9046732	TIMES </s>	0
-0.80142653	INTERFERE </s>	0
-0.80142653	EQUIVALENCE </s>	0
-0.80142653	SWITZERLAND </s>	0
-0.80142653	NOISE </s>	0
-0.94537294	USER </s>	0
-0.9046732	SPACE </s>	0
-0.80142653	SWANK </s>	0
-0.4071965	CEMETERY </s>	0
-0.9046732	ONTARIO </s>	0
-1.0930549	LIST </s>	0
-0.5354856	WORLD </s>	0
-0.80142653	ALLIANCES </s>	0
-0.80142653	HANDLE </s>	0
-0.9672486	BAND </s>	0
-0.80142653	THIEVES </s>	0
-0.9046732	RECORD </s>	0
-0.80142653	RICHFIELD </s>	0
-0.80142653	SOILS </s>	0
-0.80142653	AFFAIRS </s>	0
-0.9809233	VILLAGE </s>	0
-0.5351873	RIVER </s>	0
-0.94537294	FOUND </s>	0
-0.9046732	GIANTS </s>	0
-1.0344507	AFTER </s>	0
-0.80142653	DISCUSSED </s>	0
-0.80142653	YOURS </s>	0
-0.4071965	POLITICS </s>	0
-0.80142653	PARTS </s>	0
-0.9046732	SECOND </s>	0
-0.80142653	REFUTED </s>	0
-0.9046732	RELATIONSHIPS </s>	0
-0.80142653	METALPOOR </s>	0
-0.9046732	REPLACED </s>	0
-0.80142653	ONES </s>	0
-1.0251244	TOWN </s>	0
-1.0251244	WATER </s>	0
-0.80142653	SPAN </s>	0
-0.9046732	BRIDGE </s>	0
-0.9046732	TWICE </s>	0
-1.0659208	THERE </s>	0
-0.80142653	POE </s>	0
-0.9046732	CREW </s>	0
-0.9672486	LIKE </s>	0
-0.80142653	LACE </s>	0
-0.80142653	MELBOURNE </s>	0
-0.94537294	MUSIC </s>	0
-0.9046732	FRONT </s>	0
-0.80142653	SWEENEY </s>	0
-0.9046732	NAVY </s>	0
-0.40686354	MUSEUM </s>	0
-0.80142653	SOUTHWARD </s>	0
-0.80142653	HOSTAGE </s>	0
-0.80142653	INFECTION </s>	0
-0.80142653	SEMINOLES </s>	0
-0.80142653	AFFIDAVIT </s>	0
-1.0921711	USED </s>	0
-0.80142653	CHALLENGER </s>	0
-0.80142653	DUTIES </s>	0
-0.80142653	MASSACHUSETTS </s>	0
-0.80142653	MUTES </s>	0
-0.80142653	SAMSUNG </s>	0
-0.80142653	THINGS </s>	0
-0.9046732	HERE </s>	0
-0.5354856	ME </s>	0
-0.80142653	GEORGIA </s>	0
-0.80142653	SOLDIERS </s>	0
-0.94537294	SEAT </s>	0
-0.9046732	MUNICIPALITY </s>	0
-0.80142653	PARAMYTHIA </s>	0
-0.9046732	PLANTS </s>	0
-0.80142653	WRESTLER </s>	0
-0.4071965	SURVEYS </s>	0
-0.80142653	SHOWALTER </s>	0
-0.4071965	NIGHT </s>	0
-0.9046732	ESTATE </s>	0
-0.80142653	RYDE </s>	0
-0.80142653	DISMISSED </s>	0
-0.9046732	DOWN </s>	0
-0.80142653	SMITH </s>	0
-0.9046732	ASPECT </s>	0
-0.9046732	MANAGEMENT </s>	0
-0.80142653	DISADVANTAGES </s>	0
-0.94537294	MEETING </s>	0
-0.80142653	WATERMARKING </s>	0
-0.80142653	MONARCHY </s>	0
-0.80142653	BEGINS </s>	0
-0.80142653	INTERACTIONS </s>	0
-0.80142653	SEMESTERS </s>	0
-0.9046732	THEORY </s>	0
-0.80142653	GENUS </s>	0
-0.80142653	TREES </s>	0
-0.80142653	FAVOURITE </s>	0
-0.80142653	SCHEME </s>	0
-0.80142653	WEAR </s>	0
-0.9046732	FORCE </s>	0
-0.80142653	CEYLON </s>	0
-0.80142653	DITCH </s>	0
-0.80142653	MARKET </s>	0
-0.80142653	BATTLE </s>	0
-1.016541	TWO </s>	0
-0.80142653	TOGETHER </s>	0
-0.80142653	UNCANNY </s>	0
-0.94537294	TITLE </s>	0
-0.80142653	INSTRUCTOR </s>	0
-0.5354856	UNKNOWN </s>	0
-0.80142653	ADDED </s>	0
-0.80142653	WRONG </s>	0
-0.80142653	BULLETS </s>	0
-0.94537294	LAST </s>	0
-0.80142653	BONNY </s>	0
-0.80142653	SATAN </s>	0
-0.80142653	BLAKE </s>	0
-0.9046732	INDUSTRY </s>	0
-0.80142653	ASIA </s>	0
-0.990285	UP </s>	0
-0.94537294	IRELAND </s>	0
-0.80142653	AFRICA </s>	0
-0.80142653	CREEK </s>	0
-0.80142653	REWARDING </s>	0
-0.80142653	LENSING </s>	0
-0.9046732	MEDIA </s>	0
-0.80142653	YAHOO </s>	0
-0.7521204	CITY </s>	0
-0.80142653	BLADE </s>	0
-0.9046732	MEXICO </s>	0
-0.9046732	FLOWS </s>	0
-0.9046732	BANK </s>	0
-0.80142653	SENSE </s>	0
-0.990285	OLD </s>	0
-0.80142653	GRIGHUND </s>	0
-0.80142653	INVERIN </s>	0
-0.94537294	SONGS </s>	0
-0.9046732	VISION </s>	0
-0.9046732	LEADER </s>	0
-0.80142653	VARIANTS </s>	0
-0.9046732	DROPS </s>	0
-0.80142653	UNDERGROUND </s>	0
-0.80142653	DESIGN </s>	0
-0.80142653	INCREASES </s>	0
-0.80142653	DISORDERS </s>	0
-0.80142653	SOLOISTS </s>	0
-0.80142653	TEXTS </s>	0
-0.80142653	POINT </s>	0
-0.80142653	COOPER </s>	0
-0.4071965	SYSTEMS </s>	0
-0.5354856	SEASON </s>	0
-0.80142653	AUGUST </s>	0
-0.80142653	PIECES </s>	0
-0.9046732	POSTS </s>	0
-0.80142653	DOCUMENTATION </s>	0
-0.9046732	SLIGHTLY </s>	0
-0.80142653	CUSTOM </s>	0
-0.80142653	RATING </s>	0
-0.80142653	CATALOGUES </s>	0
-0.80142653	DUBLIN </s>	0
-0.9046732	ELEMENTS </s>	0
-0.80142653	ARCHITECTURE </s>	0
-0.80142653	PRAISES </s>	0
-0.80142653	PRACTICE </s>	0
-0.94537294	CHARACTERS </s>	0
-0.80142653	LAUNCH </s>	0
-0.80142653	CORRIDORS </s>	0
-0.80142653	COPPER </s>	0
-0.80142653	NOTICE </s>	0
-0.9046732	LISTED </s>	0
-0.80142653	UNSURVEYED </s>	0
-0.80142653	CHARLESTON </s>	0
-0.80142653	DIPPING </s>	0
-0.80142653	TRIPOLITANIA </s>	0
-0.80142653	MINORS </s>	0
-0.80142653	LIONS </s>	0
-0.80142653	GROUPS </s>	0
-0.80142653	CHAOS </s>	0
-0.80142653	CLASSES </s>	0
-0.80142653	GRAMMAR </s>	0
-0.9046732	RULE </s>	0
-0.80142653	LUCIE </s>	0
-0.80142653	CREDENTIALING </s>	0
-0.9046732	MAN </s>	0
-0.9046732	ECONOMY </s>	0
-0.80142653	RESISTANCE </s>	0
-0.80142653	ARISTOCRATS </s>	0
-0.80142653	POLYGRAM </s>	0
-0.80142653	ALONE </s>	0
-0.9046732	PROCESS </s>	0
-0.9046732	CHARACTER </s>	0
-0.80142653	WADE </s>	0
-0.80142653	GREASY </s>	0
-0.9046732	FILM </s>	0
-0.80142653	ANGER </s>	0
-0.80142653	DRINKING </s>	0
-0.80142653	EYES </s>	0
-0.3079351	HIM </s>	0
-0.9046732	LAKE </s>	0
-0.80142653	WETLANDS </s>	0
-0.9672486	LINE </s>	0
-0.80142653	BOUNDARY </s>	0
-0.80142653	ICELAND </s>	0
-0.80142653	ORGANIZATIONS </s>	0
-0.9046732	OTHERS </s>	0
-0.80142653	IRRITATION </s>	0
-0.80142653	SAYS </s>	0
-0.80142653	COUNCIL </s>	0
-0.80142653	AMALGAMATIONS </s>	0
-0.9046732	ARTISTS </s>	0
-0.80142653	VERSE </s>	0
-0.675104	COMPANY </s>	0
-0.80142653	DISCLOSED </s>	0
-0.80142653	BASE </s>	0
-0.80142653	FRONTAGE </s>	0
-0.80142653	EVANS </s>	0
-0.94537294	COMMAND </s>	0
-0.80142653	SYDNEY </s>	0
-0.80142653	HYPHEN </s>	0
-0.80142653	COOKED </s>	0
-0.80142653	ENDINGS </s>	0
-0.9046732	POINTS </s>	0
-0.80142653	POLAROID </s>	0
-0.80142653	FLIGHT </s>	0
-0.80142653	NARRATIVE </s>	0
-0.80142653	PERSON </s>	0
-0.9046732	CHARACTERISTICS </s>	0
-0.80142653	DAUGHTERS </s>	0
-0.80142653	DIRECTOR </s>	0
-0.80142653	IMPACTS </s>	0
-0.80142653	CONDITIONAL </s>	0
-0.94537294	RULES </s>	0
-0.80142653	RIGHT </s>	0
-0.94537294	TRACK </s>	0
-0.80142653	JAPAN </s>	0
-0.9046732	INTERNATIONAL </s>	0
-0.9046732	SIDE </s>	0
-0.80142653	CAR </s>	0
-0.4071965	PLATFORMS </s>	0
-0.80142653	NETWORK </s>	0
-0.80142653	SINGLES </s>	0
-0.80142653	'WELLS' </s>	0
-0.80142653	CONFLICT </s>	0
-0.80142653	GRATITUDE </s>	0
-0.80142653	ANNAPOLIS </s>	0
-0.80142653	SEEDS </s>	0
-0.80142653	AIRPORT </s>	0
-0.80142653	STIGMATA </s>	0
-0.80142653	MARYLAND </s>	0
-0.9046732	STRIKE </s>	0
-0.80142653	ROOTS </s>	0
-0.80142653	MYSTERY </s>	0
-0.80142653	VERSIFICATION </s>	0
-0.80142653	WORLDS </s>	0
-0.80142653	EVENTS </s>	0
-0.80142653	IDENTITIES </s>	0
-0.80142653	TORONTO </s>	0
-0.9046732	WORD </s>	0
-0.80142653	ANYMORE </s>	0
-0.4071965	CAPITAL </s>	0
-0.80142653	GOD </s>	0
-0.80142653	HISTORY </s>	0
-0.4071965	EARTH </s>	0
-0.80142653	LANE </s>	0
-0.80142653	LENGTH </s>	0
-0.9046732	SEPARATE </s>	0
-0.9046732	CHINA </s>	0
-0.4071965	SEA </s>	0
-0.80142653	VIOLATED </s>	0
-0.94537294	STORY </s>	0
-0.80142653	WALLPAPER </s>	0
-0.5354856	LIEUTENANT </s>	0
-0.9046732	COMMANDER </s>	0
-0.9046732	APPLICATION </s>	0
-0.80142653	PATIENT </s>	0
-0.80142653	RAIN </s>	0
-0.80142653	RING </s>	0
-0.80142653	JUDGMENT </s>	0
-0.80142653	JOURNEY </s>	0
-0.9046732	JOHN </s>	0
-0.80142653	ARDAGH </s>	0
-0.9046732	HOME </s>	0
-0.80142653	PAINTINGS </s>	0
-0.80142653	LIFESTYLE </s>	0
-0.80142653	CONSTRUCTION </s>	0
-0.80142653	FINE </s>	0
-0.9046732	BOOKS </s>	0
-0.80142653	RESEARCH </s>	0
-0.80142653	BLOOD </s>	0
-0.80142653	PARASITES </s>	0
-0.80142653	YARD </s>	0
-0.9046732	THEMSELVES </s>	0
-0.80142653	ROUTE </s>	0
-0.9046732	NAMES </s>	0
-0.9046732	RECORDED </s>	0
-0.80142653	BOX </s>	0
-0.80142653	SWIMMER </s>	0
-0.80142653	ACHIEVED </s>	0
-0.80142653	LEVELS </s>	0
-0.80142653	CONNACHT </s>	0
-0.80142653	SHAFT </s>	0
-0.80142653	NOTTINGHAM </s>	0
-0.80142653	TOO </s>	0
-0.80142653	HORSES </s>	0
-0.80142653	NONTRIVIAL </s>	0
-0.9046732	BOAT </s>	0
-0.9046732	SHIP </s>	0
-0.80142653	HERSELF </s>	0
-0.80142653	MURDERED </s>	0
-0.80142653	JOURNALISTS </s>	0
-0.80142653	WILWERDANGE </s>	0
-0.9046732	UNIT </s>	0
-0.80142653	WORKINGS </s>	0
-0.80142653	MOVE </s>	0
-0.80142653	SERICULTURE </s>	0
-0.80142653	MONTHS </s>	0
-0.80142653	NETHERLANDS </s>	0
-0.80142653	SAMPANS </s>	0
-0.9046732	GOVERNMENT </s>	0
-0.80142653	BLEWETT </s>	0
-0.80142653	CONVENT </s>	0
-0.80142653	TRIBE </s>	0
-0.80142653	SAY </s>	0
-0.80142653	STOP </s>	0
-0.80142653	GEAR </s>	0
-0.80142653	INFRINGEMENT </s>	0
-0.80142653	TERRITORIES </s>	0
-0.80142653	COURTS </s>	0
-0.80142653	PORTPELLAH </s>	0
-0.80142653	GRADE </s>	0
-0.80142653	KING </s>	0
-0.80142653	SUPERMARKET </s>	0
-0.80142653	HUMANITIES </s>	0
-0.80142653	FAILSAFE </s>	0
-0.80142653	POSTPONED </s>	0
-0.80142653	MICROSCOPES </s>	0
-0.80142653	EMO </s>	0
-0.80142653	DEVELOPMENT </s>	0
-0.9046732	VARIETIES </s>	0
-0.80142653	INTRODUCED </s>	0
-0.80142653	GIRL </s>	0
-0.9046732	MINISTER </s>	0
-0.80142653	IVREA </s>	0
-0.4071965	CALIFORNIA </s>	0
-0.9046732	AVAILABLE </s>	0
-0.80142653	CALIBERS </s>	0
-0.80142653	TRUSTEES </s>	0
-0.80142653	UNDERWATER </s>	0
-0.80142653	MONTREAL </s>	0
-0.80142653	THEATER </s>	0
-0.80142653	AARHUS </s>	0
-0.80142653	TIPS </s>	0
-0.9046732	CHILDREN </s>	0
-0.80142653	SUTHERLAND </s>	0
-0.80142653	MODE </s>	0
-0.80142653	ANNUALLY </s>	0
-0.80142653	RESIDENTS </s>	0
-0.80142653	HOUR </s>	0
-0.80142653	INCREASE </s>	0
-0.80142653	BASIN </s>	0
-0.80142653	RAFTS </s>	0
-0.80142653	AUSTRALIA </s>	0
-0.80142653	SURRENDER </s>	0
-0.80142653	POWER </s>	0
-0.9046732	FILMED </s>	0
-0.80142653	JERSEY </s>	0
-0.80142653	INTERTWINED </s>	0
-0.80142653	SCORER </s>	0
-0.80142653	ABROAD </s>	0
-0.80142653	COURTMARTIAL </s>	0
-0.80142653	COUNTRY </s>	0
-0.80142653	PEARCE </s>	0
-0.80142653	E </s>	0
-0.80142653	FISHKILL </s>	0
-0.9046732	HALLUCINATIONS </s>	0
-0.80142653	RUSSIA </s>	0
-0.80142653	CLAIRE </s>	0
-0.80142653	ANNIE </s>	0
-0.80142653	CUSTODY </s>	0
-0.80142653	GENERATE </s>	0
-0.80142653	TACT </s>	0
-0.80142653	NOVELS </s>	0
-0.80142653	TANNING </s>	0
-0.80142653	TROOPS </s>	0
-0.80142653	SECTIONS </s>	0
-0.80142653	MINES </s>	0
-0.80142653	TOENAILS </s>	0
-0.80142653	ESTATES </s>	0
-0.80142653	UNDOCUMENTED </s>	0
-0.80142653	FEELINGS </s>	0
-0.80142653	SURVIVED </s>	0
-0.80142653	MINNELLI </s>	0
-0.80142653	DOGS </s>	0
-0.80142653	GULL </s>	0
-0.80142653	BUREAU </s>	0
-0.80142653	COORDINATION </s>	0
-0.80142653	SOLITUDE </s>	0
-0.80142653	ORCHESTRA </s>	0
-0.80142653	LETTERS </s>	0
-0.80142653	BOATING </s>	0
-0.80142653	GEOCACHING </s>	0
-0.80142653	FESTIVITIES </s>	0
-0.80142653	DEVASTATED </s>	0
-0.9046732	RELEASES </s>	0
-0.80142653	COMPETITORS </s>	0
-0.80142653	PROBLEMS </s>	0
-0.80142653	KONG </s>	0
-0.9046732	RACES </s>	0
-1.1020335	<s> HE	-0.18620917
-1.7409419	YEAR HE	-0.14135626
-2.3562024	IS HE	-0.010288029
-0.87113065	WHERE HE	-0.010288029
-1.1448646	BOTHERING HE	-0.010288029
-1.5005442	THAT HE	-0.010288029
-1.5674994	TIME HE	-0.010288029
-0.947232	WHICH HE	-0.010288029
-1.1448646	SURPRISINGLY HE	-0.010288029
-1.1448646	FAMOUSLY HE	-0.010288029
-1.6811874	EXAMPLE HE	-0.010288029
-1.1448646	REMARKED HE	-0.010288029
-1.1448646	DISAPPOINTED HE	-0.010288029
-1.1448646	ACCOMPLISHED HE	-0.010288029
-1.1448646	FELT HE	-0.010288029
-1.4177974	OTHERS HE	-0.010288029
-1.1448646	TRUE HE	-0.010288029
-1.4177974	ARTISTS HE	-0.010288029
-1.4177974	WHEN HE	-0.010288029
-1.4177974	GRADUATION HE	-0.010288029
-1.1448646	ILLUSTRATIONS HE	-0.010288029
-1.4177974	EVERYTHING HE	-0.010288029
-1.4177974	ADDITIONALLY HE	-0.010288029
-1.1448646	LAYOFF HE	-0.010288029
-1.1448646	ELECTION HE	-0.010288029
-0.93547815	HE WAS	-0.05807908
-1.7143736	AND WAS	-0.010288029
-1.3263911	DIVISION WAS	-0.010288029
-1.8084743	THIS WAS	-0.09313655
-1.0937283	STAGE WAS	-0.010288029
-1.0937283	GHETTOIZATION WAS	-0.010288029
-1.0937283	PHILPOTT WAS	-0.010288029
-1.8190618	IT WAS	-0.010288002
-1.7344623	SCHOOL WAS	-0.010288029
-1.6268978	AREA WAS	-0.010288029
-1.51639	SERIES WAS	-0.010288029
-1.0937283	HART WAS	-0.010288029
-1.8089519	THAT WAS	-0.010288029
-1.0937283	RAFF WAS	-0.010288029
-1.0937283	STEVENSON WAS	-0.010288029
-1.6328452	I WAS	-0.010288029
-1.566884	VILLAGE WAS	-0.010288029
-1.0937283	ETHEL WAS	-0.010288029
-1.5920227	TOWN WAS	-0.010288029
-1.3263911	HOUSE WAS	-0.010288029
-0.7554093	THERE WAS	-0.010288002
-1.2238318	SHE WAS	-0.010288029
-1.0937283	FILMING WAS	-0.010288029
-1.3263911	CREW WAS	-0.010288029
-0.47411284	WALSH WAS	-0.010288029
-1.6268978	WHICH WAS	-0.010288029
-1.0937283	RAVANNA WAS	-0.010288029
-1.3263911	ESTATE WAS	-0.010288029
-1.0937283	NILSEN WAS	-0.010288029
-1.3263911	FACILITY WAS	-0.010288029
-1.4434282	STEP WAS	-0.010288029
-1.4434282	CONTROL WAS	-0.010288029
-1.0937283	DOUGLASHAMILTON WAS	-0.010288029
-1.3263911	REASON WAS	-0.010288029
-1.3263911	CHILD WAS	-0.010288029
-1.4434282	IRELAND WAS	-0.010288029
-1.0937283	JACK WAS	-0.010288029
-1.51639	NAME WAS	-0.010288029
-1.0937283	REICHENSPERGER WAS	-0.010288029
-1.0937283	HURLEY WAS	-0.010288029
-1.0937283	EFFORT WAS	-0.010288029
-1.0937283	EXCHANGES WAS	-0.010288029
-1.0937283	IBRAHIM WAS	-0.010288029
-1.3263911	PROCESS WAS	-0.010288029
-1.3263911	CHARACTER WAS	-0.010288029
-1.3263911	LIFE WAS	-0.010288029
-1.5920227	COMPANY WAS	-0.010288029
-1.0937283	GALLEY WAS	-0.010288029
-1.0937283	FOOD WAS	-0.010288029
-1.0937283	SLOMAN WAS	-0.010288029
-1.0937283	KINGSBURY WAS	-0.010288029
-1.0937283	BENNETT WAS	-0.010288029
-1.0937283	GREER WAS	-0.010288029
-1.0937283	COMEDY WAS	-0.010288029
-1.0937283	COONEY WAS	-0.010288029
-1.0937283	JUSTICE WAS	-0.010288029
-1.0937283	ESTABLISHMENT WAS	-0.010288029
-1.0937283	OPERATION WAS	-0.010288029
-1.3263911	GIFTS WAS	-0.010288029
-1.0937283	KEEL WAS	-0.010288029
-1.3263911	BOAT WAS	-0.010288029
-1.0937283	DATE WAS	-0.010288029
-1.0937283	MICROSCOPE WAS	-0.010288029
-1.0937283	PLANT WAS	-0.010288029
-1.0937283	HICKS WAS	-0.010288029
-1.0937283	MCNEIL WAS	-0.010288029
-1.0937283	WAYNE WAS	-0.010288029
-1.0937283	LUCO WAS	-0.010288029
-1.0937283	SHIRT WAS	-0.010288029
-1.0937283	DECIBEL WAS	-0.010288029
-1.2273835	WAS BORN	-0.400996
-2.0631492	ALL BORN	-0.010288029
-2.5337014	<s> AT	-0.010288029
-1.7069337	BORN AT	-0.010288029
-0.4838932	EDUCATED AT	-0.010288029
-2.4802055	IS AT	-0.010288029
-1.9476721	LOCATED AT	-0.010288029
-1.7755934	CAREER AT	-0.010288029
-1.4339188	RACE AT	-0.010288029
-1.1533893	WINDY AT	-0.010288029
-1.1533893	TAGLINE AT	-0.010288029
-1.1533893	SCRAPS AT	-0.010288029
-1.7755934	WORKING AT	-0.010288029
-1.1533893	RETIRE AT	-0.010288029
-1.4339188	PROVIDED AT	-0.010288029
-1.1533893	DISCONTINUED AT	-0.010288029
-1.1533893	TAUGHT AT	-0.010288029
-1.1533893	EMPLOYED AT	-0.010288029
-1.1533893	LAID AT	-0.010288029
-1.4339188	BELONGED AT	-0.010288029
-2.470554	AT WICHENFORD	-0.010288029
-1.6678632	<s> IN	-0.010288029
-0.74761593	BORN IN	-0.010288029
-1.0687333	WICHENFORD IN	-0.010288029
-1.386732	ALSO IN	-0.010288029
-1.2845149	POOR IN	-0.010288029
-1.4964365	INCLUDED IN	-0.010288029
-1.6818141	IS IN	-0.010288029
-1.0687333	MINISTERS IN	-0.010288029
-1.3893771	THIRD IN	-0.010288029
-1.2845149	SYSTEM IN	-0.010288029
-1.6435329	SCHOOL IN	-0.010288029
-1.4274478	DISTRICT IN	-0.010288029
-1.2845149	POSITIONS IN	-0.010288029
-1.4860137	PARTY IN	-0.010288029
-1.6916788	ARE IN	-0.010288029
-1.5986265	LATER IN	-0.010288029
-1.3893771	DEATH IN	-0.010288029
-1.4531395	COME IN	-0.010288029
-1.4964365	ONLY IN	-0.010288029
-1.0687333	LACHEN IN	-0.010288029
-1.5853332	REFERRED IN	-0.010288029
-1.0687333	RUNS IN	-0.010288029
-1.3893771	THAN IN	-0.010288029
-1.2845149	STARS IN	-0.010288029
-1.0115472	LOCATED IN	-0.010288029
-1.0687333	COMPETENT IN	-0.010288029
-1.4964365	CAREER IN	-0.010288029
-1.2845149	STARRING IN	-0.010288029
-1.2845149	INVOLVED IN	-0.010288029
-1.2845149	BELIEVE IN	-0.010288029
-1.0687333	CRUCIAL IN	-0.010288029
-1.3893771	SHORT IN	-0.010288029
-1.3893771	DONE IN	-0.010288029
-1.0687333	CUTOUTS IN	-0.010288029
-1.4531395	SEEN IN	-0.010288029
-1.2845149	RESULT IN	-0.010288029
-1.650704	USED IN	-0.010288029
-1.4531395	NOW IN	-0.010288029
-1.2845149	RESULTED IN	-0.010288029
-1.3893771	STEP IN	-0.010288029
-1.2845149	STUDY IN	-0.010288029
-1.5853332	KNOWN IN	-0.010288029
-1.0687333	NUMBERED IN	-0.010288029
-1.0687333	CONSTANTINE IN	-0.010288029
-1.3893771	REMAINS IN	-0.010288029
-1.3893771	SAID IN	-0.010288029
-1.0687333	FRAGMENTED IN	-0.010288029
-1.5279018	UP IN	-0.010288029
-1.0687333	ROLE IN	-0.010288029
-1.5751843	CITY IN	-0.010288029
-1.0687333	HEADQUARTERED IN	-0.010288029
-1.2845149	VISION IN	-0.010288029
-0.46967205	ACTIVE IN	-0.010288029
-1.2845149	GIVEN IN	-0.010288029
-1.0687333	STUDIOS IN	-0.010288029
-1.3893771	DIED IN	-0.010288029
-1.0687333	SPECIALIZES IN	-0.010288029
-1.0687333	APPEAR IN	-0.010288029
-1.2845149	POSITION IN	-0.010288029
-1.5537266	HAD IN	-0.010288029
-1.0687333	RESPONDED IN	-0.010288029
-1.0687333	EQUITY IN	-0.010288029
-1.0687333	BARRACKS IN	-0.010288029
-1.0687333	ACTIONS IN	-0.010288029
-1.0687333	EIGHTH IN	-0.010288029
-1.4860137	STATION IN	-0.010288029
-1.2845149	PROGRAM IN	-0.010288029
-1.0687333	SELECTION IN	-0.010288029
-1.0687333	PURSUE IN	-0.010288029
-1.0687333	AIRS IN	-0.010288029
-1.0687333	ACADEMY IN	-0.010288029
-1.0687333	LIVES IN	-0.010288029
-1.0687333	LEGENDARY IN	-0.010288029
-1.0687333	PAINTED IN	-0.010288029
-1.0687333	CLOCK IN	-0.010288029
-1.2845149	INSTALLED IN	-0.010288029
-1.2845149	POPULAR IN	-0.010288029
-1.2845149	ACTIVITIES IN	-0.010288029
-1.0687333	UNTITLED IN	-0.010288029
-1.0687333	TRUCKS IN	-0.010288029
-1.0687333	SPECIALIZED IN	-0.010288029
-1.0687333	ACTORS IN	-0.010288029
-1.0687333	APPARENT IN	-0.010288029
-1.0687333	CONFIDENT IN	-0.010288029
-1.0687333	ACT IN	-0.010288029
-1.0687333	SUNDER IN	-0.010288029
-1.0687333	APPLY IN	-0.010288029
-1.0687333	STAYS IN	-0.010288029
-1.2845149	STREET IN	-0.010288029
-1.0687333	SKILLS IN	-0.010288029
-1.0687333	HIGHLIGHTED IN	-0.010288029
-1.0687333	DEVELOPED IN	-0.010288029
-1.0687333	HILL IN	-0.010288029
-1.0687333	FAILURE IN	-0.010288029
-3.1101184	IN WORCESTERSHIRE	-0.010288029
-1.0587288	WORCESTERSHIRE AND	-0.010288029
-1.0587288	OVERRUN AND	-0.010288029
-1.0587288	TREASURER AND	-0.010288029
-1.2681919	ENGINES AND	-0.010288029
-1.0587288	FOSTER AND	-0.010288029
-1.2681919	DEFENSE AND	-0.010288029
-1.429282	FOOTBALL AND	-0.010288029
-1.2681919	INSIDE AND	-0.010288029
-1.0587288	ARQUETTE AND	-0.010288029
-1.0587288	SIZE AND	-0.010288029
-1.0587288	OAK AND	-0.010288029
-1.2681919	GIANTS AND	-0.010288029
-1.0587288	CORRUPTION AND	-0.010288029
-1.0587288	COMPASSION AND	-0.010288029
-1.368701	LAND AND	-0.010288029
-1.2681919	GATE AND	-0.010288029
-1.2681919	BRIDGE AND	-0.010288029
-1.470152	MARRIED AND	-0.010288029
-1.0587288	ALABAMA AND	-0.010288029
-1.0587288	REFUSES AND	-0.010288029
-1.0587288	BLEEDING AND	-0.010288029
-1.0587288	PERSONS AND	-0.010288029
-1.0587288	GROWLS AND	-0.010288029
-1.2681919	FIRE AND	-0.010288029
-1.0587288	HYBRIDS AND	-0.010288029
-1.0587288	BRACELETS AND	-0.010288029
-1.0587288	ADVANTAGES AND	-0.010288029
-1.0587288	PROJECTS AND	-0.010288029
-1.0587288	REINFORCEMENT AND	-0.010288029
-1.0587288	WALL AND	-0.010288029
-1.0587288	DATED AND	-0.010288029
-1.2681919	CHILD AND	-0.010288029
-1.0587288	FAIR AND	-0.010288029
-1.368701	IRELAND AND	-0.010288029
-1.0587288	CHALLENGING AND	-0.010288029
-1.2681919	PITTSBURGH AND	-0.010288029
-1.5462611	CITY AND	-0.010288029
-1.2681919	LEADER AND	-0.010288029
-1.0587288	CAREY AND	-0.010288029
-1.0587288	CLAPPING AND	-0.010288029
-1.0587288	WELLS AND	-0.010288029
-1.0587288	SILVER AND	-0.010288029
-1.368701	LOVE AND	-0.010288029
-1.0587288	TUNISIA AND	-0.010288029
-1.0587288	TRANSFORMERS AND	-0.010288029
-1.2681919	FRIENDS AND	-0.010288029
-1.0587288	WHIGS AND	-0.010288029
-1.0587288	ALEXANDER AND	-0.010288029
-1.0587288	SULPHATE AND	-0.010288029
-1.0587288	BATHS AND	-0.010288029
-1.2681919	LIFE AND	-0.010288029
-1.0587288	CRUISERS AND	-0.010288029
-1.5003484	COMPANY AND	-0.010288029
-1.0587288	CASH AND	-0.010288029
-1.2681919	SITUATED AND	-0.010288029
-1.0587288	HAMPSHIRE AND	-0.010288029
-1.0587288	ARUA AND	-0.010288029
-1.0587288	SLIP AND	-0.010288029
-1.0587288	LEEDS AND	-0.010288029
-1.0587288	RILEY AND	-0.010288029
-1.0587288	PUZZLES AND	-0.010288029
-1.0587288	REBUILT AND	-0.010288029
-1.0587288	FRUIT AND	-0.010288029
-1.0587288	BUILDER AND	-0.010288029
-1.0587288	VANS AND	-0.010288029
-1.0587288	AWKWARD AND	-0.010288029
-1.0587288	WEIGHTLESSNESS AND	-0.010288029
-1.0587288	ELPHIN AND	-0.010288029
-1.2681919	GIFTS AND	-0.010288029
-1.0587288	APPEALED AND	-0.010288029
-1.0587288	SENTENCE AND	-0.010288029
-1.0587288	GUN AND	-0.010288029
-1.2681919	PRODUCED AND	-0.010288029
-1.0587288	SWITCHBACK AND	-0.010288029
-1.0587288	SINKING AND	-0.010288029
-1.0587288	HULDANGE AND	-0.010288029
-1.0587288	TRAIN AND	-0.010288029
-1.0587288	COTTON AND	-0.010288029
-1.0587288	WINEMAKING AND	-0.010288029
-1.2681919	JUNCTION AND	-0.010288029
-1.0587288	HEART AND	-0.010288029
-1.2681919	RESIDENTIAL AND	-0.010288029
-1.0587288	EGYPT AND	-0.010288029
-1.0587288	LEWIS AND	-0.010288029
-1.2681919	ROCK AND	-0.010288029
-1.0587288	DEMOLISHED AND	-0.010288029
-1.2681919	MINISTER AND	-0.010288029
-1.0587288	EXPAND AND	-0.010288029
-1.0587288	CLIMATE AND	-0.010288029
-1.0587288	FEDERATION AND	-0.010288029
-1.0587288	PROFESSION AND	-0.010288029
-1.0587288	INK AND	-0.010288029
-1.2681919	INDIA AND	-0.010288029
-1.0587288	ENRAGED AND	-0.010288029
-1.0587288	DRAGON AND	-0.010288029
-1.2681919	TEANECK AND	-0.010288029
-1.0587288	CULTURAL AND	-0.010288029
-1.0587288	EYELIDS AND	-0.010288029
-1.0587288	CHURCH AND	-0.010288029
-1.0587288	SINATRA AND	-0.010288029
-1.2681919	PETREL AND	-0.010288029
-1.0587288	GUITAR AND	-0.010288029
-1.0587288	STATESMAN AND	-0.010288029
-1.0587288	PROVINCIAL AND	-0.010288029
-3.0146666	WAS EDUCATED	-0.010288029
-3.0368903	AND EDUCATED	-0.010288029
-2.470554	AT BALLIOL	-0.010288029
-1.1709583	BALLIOL COLLEGE	-0.010288029
-2.6250944	THE COLLEGE	-0.010288029
-1.8565964	STATE COLLEGE	-0.010288029
-1.1709583	HERTFORD COLLEGE	-0.010288029
-0.8843909	COLLEGE OXFORD	-0.14135626
-0.71175194	<s> THE	-0.0397394
-1.260425	WAS THE	-0.010288029
-0.7505406	AT THE	-0.010288029
-0.6818323	IN THE	-0.010288055
-1.1955471	AND THE	-0.010288002
-1.2448032	TOWARDS THE	-0.010288029
-0.68326735	BY THE	-0.010288029
-1.604228	THIS THE	-0.010288029
-1.6030462	ALSO THE	-0.010288029
-1.339423	OUTSIDE THE	-0.010288029
-0.5401166	OF THE	-0.026731478
-0.7853574	TO THE	-0.010288029
-0.6862143	WITH THE	-0.010288029
-1.0518283	IS THE	-0.036187038
-1.0465189	FOR THE	-0.010288029
-0.39777207	WITHIN THE	-0.058079053
-1.3957863	YEARS THE	-0.010288029
-1.5204027	THEN THE	-0.010288029
-1.3827287	SOCIETY THE	-0.010288029
-1.4969895	BOTH THE	-0.010288029
-0.75206065	FROM THE	-0.010288029
-0.73536277	ATTENDED THE	-0.010288002
-1.4653374	WHERE THE	-0.010288029
-0.36889404	ON THE	-0.010288029
-1.0441414	EXAMINING THE	-0.010288029
-1.5982085	ARE THE	-0.010288029
-1.3957863	HOWEVER THE	-0.010288029
-1.116778	THAT THE	-0.010288002
-1.543196	NOT THE	-0.010288029
-1.0441414	SUPPORT THE	-0.010288029
-1.0269973	AS THE	-0.010288029
-1.4969895	ALL THE	-0.010288029
-0.46509406	THROUGHOUT THE	-0.010288029
-1.2448032	TIMES THE	-0.010288029
-1.0441414	ORDERS THE	-0.010288029
-1.2448032	PROVIDES THE	-0.010288029
-1.2448032	WHILE THE	-0.010288029
-1.5233421	REFERRED THE	-0.010288029
-1.0441414	INVOLVE THE	-0.010288029
-1.339423	WELL THE	-0.010288029
-1.0441414	FOLLOW THE	-0.010288029
-0.46509406	FIND THE	-0.010288029
-1.2448032	AROUND THE	-0.010288029
-1.3957863	ONCE THE	-0.010288029
-1.460571	ABOUT THE	-0.010288029
-1.5586748	AFTER THE	-0.010288029
-1.0441414	FRANCE THE	-0.010288029
-1.2448032	REPLACED THE	-0.010288029
-1.0441414	SING THE	-0.010288029
-1.0441414	END THE	-0.010288029
-1.0441414	REPEATING THE	-0.010288029
-1.2448032	BUILT THE	-0.010288029
-1.2448032	MAKE THE	-0.010288029
-1.0441414	HOUSES THE	-0.010288029
-1.3957863	SEEN THE	-0.010288029
-1.339423	HELD THE	-0.010288029
-1.0441414	CONTRACT THE	-0.010288029
-1.339423	WON THE	-0.010288029
-1.2448032	HERE THE	-0.010288029
-1.0441414	INITIALLY THE	-0.010288029
-0.62655234	DURING THE	-0.010288029
-1.3957863	THROUGH THE	-0.010288029
-1.2448032	PROMOTED THE	-0.010288029
-1.0441414	NEITHER THE	-0.010288029
-1.2448032	NOR THE	-0.010288029
-1.0441414	FINALIZED THE	-0.010288029
-1.4653374	BECAME THE	-0.010288029
-1.0441414	COUNTERING THE	-0.010288029
-1.2448032	LOSING THE	-0.010288029
-1.2448032	JUST THE	-0.010288029
-1.2448032	ENGLISH THE	-0.010288029
-1.0441414	FAVORS THE	-0.010288029
-1.0441414	MISSIONS THE	-0.010288029
-1.0441414	NEGLECT THE	-0.010288029
-1.0441414	COPRODUCED THE	-0.010288029
-1.0441414	ABSENCE THE	-0.010288029
-1.0441414	CLIMAX THE	-0.010288029
-1.0441414	OBTAIN THE	-0.010288029
-1.339423	BECAUSE THE	-0.010288029
-0.46509406	ALONG THE	-0.010288029
-1.0441414	AMIDST THE	-0.010288029
-1.0441414	FORMED THE	-0.010288029
-1.2448032	MATT THE	-0.010288029
-1.0441414	ALLOWS THE	-0.010288029
-1.2448032	SAW THE	-0.010288029
-1.4324908	SERVES THE	-0.010288029
-1.3957863	LINE THE	-0.010288029
-1.0441414	GUARD THE	-0.010288029
-1.0441414	SYMPHONY THE	-0.010288029
-1.0441414	EMPHASIZES THE	-0.010288029
-1.0441414	DEFINITION THE	-0.010288029
-1.2448032	OVERALL THE	-0.010288029
-1.0441414	DAMATURU THE	-0.010288029
-1.339423	STORY THE	-0.010288029
-1.0441414	LEVEL THE	-0.010288029
-1.0441414	UNDERTAKING THE	-0.010288029
-1.0441414	EXPLAIN THE	-0.010288029
-1.0441414	ORBIT THE	-0.010288029
-1.2448032	ADDITIONALLY THE	-0.010288029
-1.0441414	ACKNOWLEDGED THE	-0.010288029
-1.0441414	LOSES THE	-0.010288029
-1.0441414	ENFORCE THE	-0.010288029
-1.0441414	DOMINATES THE	-0.010288029
-1.0441414	SURROUNDING THE	-0.010288029
-1.0441414	DOT THE	-0.010288029
-1.2448032	SOMETIMES THE	-0.010288029
-1.2448032	AGAINST THE	-0.010288029
-1.339423	UNDER THE	-0.010288029
-1.0441414	REGULATES THE	-0.010288029
-1.0441414	PASSED THE	-0.010288029
-1.0441414	EXPLORES THE	-0.010288029
-1.2448032	INDIA THE	-0.010288029
-1.0441414	SO THE	-0.010288029
-1.0441414	FINDS THE	-0.010288029
-1.0441414	SCRAPPED THE	-0.010288029
-1.0441414	OPENED THE	-0.010288029
-1.0441414	OVERSAW THE	-0.010288029
-1.0441414	SHAN THE	-0.010288029
-1.2448032	RACES THE	-0.010288029
-3.395758	THE PORTUGUESE	-0.010288029
-3.3458056	THE DIVISION	-0.010288029
-1.1730222	PORTUGUESE DIVISION	-0.010288029
-3.0337005	WAS OVERRUN	-0.010288029
-3.0617156	AND WITHDREW	-0.010288029
-3.564358	<s> TOWARDS	-0.010288029
-1.1730222	WITHDREW TOWARDS	-0.010288029
-1.4728696	TOWARDS ESTAIRES	-0.010288029
-2.114235	<s> HER	-0.010288029
-2.393204	BY HER	-0.010288029
-2.7020285	OF HER	-0.010288029
-2.4625237	WITH HER	-0.010288029
-2.475259	FOR HER	-0.010288029
-1.976422	BOTH HER	-0.010288029
-2.3016913	FROM HER	-0.010288029
-2.5079985	ON HER	-0.010288029
-1.44823	AMONG HER	-0.010288029
-1.44823	BEGAN HER	-0.010288029
-1.160832	RAISE HER	-0.010288029
-1.160832	LIKED HER	-0.010288029
-2.35589	HER HEALTH	-0.010288029
-1.1412616	HEALTH BY	-0.010288029
-1.7268978	YEAR BY	-0.010288029
