\data\
ngram 1=2457
ngram 2=4720
ngram 3=4922

\1-grams:
-3.7029266	<unk>	0
0	<s>	-0.3549223
-1.0111139	</s>	0
-2.3108103	HE	-0.087829195
-1.8346245	WAS	-0.14383072
-3.4819407	BORN	-0.115407646
-2.441595	AT	-0.10308626
-3.6240063	WICHENFORD,	-0.028137721
-1.7051115	IN	-0.14759977
-3.6240063	WORCESTERSHIRE,	-0.028137721
-1.6650249	AND	-0.051618017
-3.4819407	EDUCATED	-0.16664252
-3.6240063	BALLIOL	-0.028137721
-3.4819407	COLLEGE,	-0.16664252
-3.6240063	OXFORD.	-0.028137721
-1.6054798	THE	-0.06396381
-3.6240063	PORTUGUESE	-0.028137721
-3.4819407	DIVISION	-0.028137721
-3.6240063	OVERRUN	-0.028137721
-3.6240063	WITHDREW	-0.028137721
-3.4819407	TOWARDS	-0.028137721
-3.6240063	ESTAIRES.	-0.028137721
-2.7161212	HER	-0.045418587
-3.6240063	HEALTH	-0.028137721
-2.2413821	BY	-0.13690601
-2.5920744	THIS	-0.050052065
-3.6240063	STAGE	-0.028137721
-2.5575182	ALSO	-0.045418587
-3.6240063	POOR.	-0.028137721
-2.330052	HIS	-0.03538519
-3.6240063	SPORTING	-0.028137721
-3.6240063	INTERESTS	-0.028137721
-3.357037	OUTSIDE	-0.028137721
-1.601786	OF	-0.1956767
-3.6240063	CRICKET	-0.028137721
-3.063872	INCLUDED	-0.028137721
-3.6240063	GOLF.	-0.028137721
-3.6240063	FOLLOWING	-0.028137721
-3.357037	YEAR	-0.028137721
-3.6240063	ELECTED	-0.028137721
-1.8222284	TO	-0.12374779
-2.67072	BE	-0.028137721
-3.063872	PART	-0.5040296
-3.6240063	LONDON	-0.028137721
-3.6240063	DESIGNER	-0.028137721
-3.6240063	COLLECTIONS.	-0.028137721
-1.9025422	A	-0.053334814
-3.4819407	HEALTHY	-0.028137721
-3.6240063	DIET	-0.028137721
-3.4819407	COMBINED	-0.028137721
-2.128951	WITH	-0.12899052
-3.4819407	LOTS	-0.028137721
-3.6240063	EXERCISE	-0.028137721
-2.5255103	CAN	-0.29416895
-3.4819407	HELP	-0.028137721
-3.357037	YOU	-0.028137721
-3.4819407	KEEP	-0.028137721
-3.6240063	FIT.	-0.028137721
-3.6240063	SAFRONOV	-0.028137721
-1.7597339	IS	-0.1307962
-3.6240063	NEAREST	-0.028137721
-3.4819407	RURAL	-0.028137721
-3.6240063	LOCALITY.	-0.028137721
-3.6240063	CONTEMPORARY	-0.028137721
-3.4819407	FELLOW	-0.028137721
-3.6240063	MINISTERS	-0.028137721
-3.6240063	SOUTHERN	-0.028137721
-3.6240063	BAPTIST	-0.028137721
-3.6240063	CONVENTION	-0.028137721
-3.6240063	PRAISED	-0.028137721
-3.6240063	PREACHING	-0.028137721
-3.6240063	ABILITIES.	-0.028137721
-3.6240063	BUCKNELL	-0.028137721
-3.6240063	TIED	-0.028137721
-2.0710742	FOR	-0.08512971
-3.357037	THIRD	-0.028137721
-3.6240063	COLONIAL	-0.028137721
-3.4819407	LEAGUE.	-0.16664252
-3.6240063	GHETTOIZATION	-0.028137721
-3.6240063	COMPLETED	-0.028137721
-2.9685524	WITHIN	-0.2414583
-3.6240063	WEEK.	-0.028137721
-3.6240063	PHILPOTT	-0.028137721
-2.8904345	MANY	-0.05252816
-3.357037	YEARS	-0.028137721
-3.6240063	TREASURER	-0.028137721
-2.7668285	THEN	-0.028137721
-3.6240063	PRESIDENT	-0.028137721
-3.6240063	BRITISH	-0.028137721
-3.6240063	PSYCHOLOGICAL	-0.028137721
-3.4819407	SOCIETY.	-0.16664252
-3.063872	BOTH	-0.028137721
-3.4819407	ENGINES	-0.028137721
-3.6240063	GEARBOX	-0.028137721
-3.6240063	PROVED	-0.028137721
-3.6240063	UNRELIABLE.	-0.028137721
-3.6240063	AWARD	-0.028137721
-3.357037	WENT	-0.115407646
-3.6240063	DAVID	-0.028137721
-3.6240063	FOSTER	-0.028137721
-3.6240063	JEREMY	-0.028137721
-3.6240063	LUBBOCK.	-0.028137721
-2.5920744	ITS	-0.04322051
-3.6240063	PRODUCTS	-0.028137721
-3.357037	RANGE	-0.028137721
-2.441595	FROM	-0.11671986
-3.6240063	SUSPENSION	-0.028137721
-3.6240063	FORKS	-0.028137721
-3.6240063	DERAILLEURS.	-0.028137721
-2.4957004	IT	-0.057161815
-3.4819407	BELONGS	-0.16664252
-3.357037	LARGE	-0.028137721
-3.6240063	FAMILY	-0.028137721
-3.6240063	FRANCO-BELGIAN	-0.028137721
-3.6240063	COMICS.	-0.028137721
-3.063872	ATTENDED	-0.10701127
-3.6240063	IOWA	-0.028137721
-3.063872	STATE	-0.028137721
-3.6240063	UNIVERSITY,	-0.028137721
-3.063872	WHERE	-0.0783703
-3.6240063	PLAYED	-0.028137721
-3.4819407	DEFENSE	-0.028137721
-2.1677825	ON	-0.28843996
-3.6240063	SCHOOL'S	-0.028137721
-3.357037	FOOTBALL	-0.028137721
-3.6240063	TEAM.	-0.028137721
-2.8242488	SOME	-0.028137749
-3.6240063	SCHOLARS	-0.028137721
-3.6240063	EXAMINING	-0.028137721
-3.4819407	SYSTEM	-0.028137721
-3.6240063	DEPTH	-0.028137721
-3.6240063	DISAGREE	-0.028137721
-3.6240063	"OFFICIAL"	-0.028137721
-3.6240063	RESULTS.	-0.028137721
-3.6240063	MARSHALLVILLE	-0.028137721
-3.6240063	STUDENTS	-0.028137721
-3.6240063	ATTEND	-0.028137721
-3.6240063	GREEN	-0.028137721
-3.4819407	LOCAL	-0.028137721
-2.9685524	SCHOOL	-0.028137721
-3.6240063	DISTRICT	-0.028137721
-3.4819407	NEARBY	-0.028137721
-3.6240063	SMITHVILLE.	-0.028137721
-3.4819407	POLITICAL	-0.028137721
-3.4819407	POSITIONS	-0.028137721
-3.4819407	INSIDE	-0.028137721
-3.1861732	PARTY	-0.0918919
-2.2104304	ARE	-0.03585694
-3.1861732	OPEN	-0.0918919
-3.4819407	WOMEN.	-0.16664252
-3.6240063	DESPITE	-0.028137721
-2.7668285	THEIR	-0.028137749
-3.6240063	FREQUENT	-0.028137721
-3.6240063	BOTHERING,	-0.028137721
-3.4819407	NEVER	-0.028137721
-3.6240063	PAID	-0.028137721
-3.4819407	THEM	-0.028137721
-3.4819407	ANY	-0.028137721
-3.6240063	ATTENTION.	-0.028137721
-3.357037	HUMAN	-0.028137721
-3.063872	BEING	-0.028137721
-3.6240063	CANNOT	-0.028137721
-3.6240063	SAFELY	-0.028137721
-3.6240063	TRUSTED	-0.028137721
-3.6240063	SOLELY	-0.028137721
-3.6240063	MERCY	-0.028137721
-3.6240063	ANOTHER.	-0.028137721
-2.6296194	ONE	-0.12943342
-3.1861732	AREA	-0.028137721
-3.4819407	TRAINING	-0.028137721
-3.6240063	SPECIFIC	-0.028137721
-3.6240063	BEHAVIOR	-0.028137721
-2.5575182	HAS	-0.09485506
-3.4819407	GAINED	-0.028137721
-3.4819407	SIGNIFICANT	-0.028137721
-3.4819407	ATTENTION	-0.028137721
-3.4819407	SPORTS.	-0.16664252
-3.4819407	HOWEVER,	-0.028137721
-3.357037	SERIES	-0.028137721
-3.6240063	LAUNCHED	-0.028137721
-3.4819407	WITHOUT	-0.028137721
-3.6240063	TECHNOLOGY.	-0.028137721
-3.6240063	WILEY	-0.028137721
-3.6240063	GRADUATED	-0.028137721
-3.6240063	SAULT	-0.028137721
-3.6240063	STE.	-0.028137721
-3.6240063	LENNY	-0.028137721
-3.6240063	HART	-0.028137721
-3.6240063	GRATEFUL	-0.028137721
-3.6240063	DEAD'S	-0.028137721
-3.4819407	ORIGINAL	-0.028137721
-3.6240063	MONEY	-0.028137721
-3.6240063	MANAGER.	-0.028137721
-2.8904345	LATER	-0.028137721
-3.6240063	COMMENTED	-0.028137721
-2.371298	THAT	-0.06506351
-3.6240063	DID	-0.028137721
-2.8242488	NOT	-0.028137721
-3.6240063	SUPPORT	-0.028137721
-3.4819407	DEATH	-0.028137721
-3.6240063	NORWEGIAN	-0.028137721
-3.6240063	MILITARY	-0.028137721
-3.6240063	PERSONNEL.	-0.028137721
-3.6240063	TRUTH	-0.028137721
-2.9685524	WILL	-0.028137721
-3.1861732	COME	-0.028137721
-3.357037	OUT	-0.028137721
-3.4819407	DAY	-0.028137721
-2.2923853	AS	-0.11564515
-3.6240063	HAPPENS	-0.028137721
-2.8242488	ALL	-0.028137721
-3.6240063	TIME.	-0.028137721
-3.6240063	COLONEL	-0.028137721
-3.6240063	BEALL	-0.028137721
-3.357037	SERVED	-0.028137721
-3.4819407	THROUGHOUT	-0.16664252
-3.4819407	WAR	-0.028137721
-3.063872	ONLY	-0.028137721
-3.6240063	COMMANDANT	-0.028137721
-3.6240063	MARINE	-0.028137721
-3.6240063	CORPS.	-0.028137721
-3.1861732	NAMED	-0.0783703
-3.357037	NOTABLE	-0.028137721
-3.6240063	BOOK	-0.028137721
-3.4819407	"THE	-0.028137721
-2.8904345	NEW	-0.028137721
-3.6240063	YORK	-0.028137721
-3.6240063	TIMES".	-0.028137721
-3.6240063	SERVANTS	-0.028137721
-3.6240063	OBEYED	-0.028137721
-3.6240063	ORDERS,	-0.028137721
-3.6240063	MONKS	-0.028137721
-3.6240063	POWERLESS	-0.028137721
-3.6240063	INTERFERE.	-0.028137721
-3.6240063	DEAL	-0.028137721
-3.6240063	THIS,	-0.028137721
-3.6240063	UNICODE	-0.028137721
-3.4819407	PROVIDES	-0.028137721
-3.6240063	MECHANISM	-0.028137721
-3.6240063	CANONICAL	-0.028137721
-3.6240063	EQUIVALENCE.	-0.028137721
-3.6240063	RAFF	-0.028137721
-3.6240063	LACHEN	-0.028137721
-3.6240063	SWITZERLAND.	-0.028137721
-3.4819407	WHILE	-0.028137721
-3.6240063	PERCENTAGE	-0.028137721
-3.6240063	CONSISTS	-0.028137721
-3.6240063	INCOHERENT	-0.028137721
-2.67072	OR	-0.028137749
-3.6240063	CHAOTIC	-0.028137721
-3.6240063	SOUND,	-0.028137721
-3.063872	REFERRED	-0.13684268
-3.6240063	NOISE.	-0.028137721
-3.6240063	SHARITY-LIGHT	-0.028137721
-3.6240063	RUNS	-0.028137721
-3.4819407	USER	-0.028137721
-3.6240063	SPACE	-0.028137721
-3.357037	RATHER	-0.115407646
-3.4819407	THAN	-0.028137721
-3.6240063	KERNEL	-0.028137721
-3.6240063	SPACE.	-0.028137721
-3.4819407	STARS	-0.028137721
-3.357037	MICHAEL	-0.028137721
-3.6240063	GROSS,	-0.028137721
-3.6240063	ALEXIS	-0.028137721
-3.6240063	ARQUETTE,	-0.028137721
-3.6240063	HILARY	-0.028137721
-3.6240063	SWANK.	-0.028137721
-3.6240063	GRAVE	-0.028137721
-3.1861732	LOCATED	-0.0918919
-3.6240063	HIETZING	-0.028137721
-3.4819407	CEMETERY.	-0.16664252
-3.6240063	FUTURE	-0.028137721
-3.6240063	EXPLORATION	-0.028137721
-2.4678056	HAVE	-0.09211534
-3.6240063	INVOLVE	-0.028137721
-3.6240063	SMALLER	-0.028137721
-3.6240063	BASINS	-0.028137721
-3.4819407	WELL	-0.028137721
-3.6240063	STEVENSON	-0.028137721
-3.6240063	LINDSAY,	-0.028137721
-3.6240063	ONTARIO.	-0.028137721
-3.6240063	FOLLOW	-0.028137721
-3.6240063	LINK	-0.028137721
-3.4819407	FIND	-0.16664252
-3.4819407	LIST	-0.16664252
-3.6240063	WORLD	-0.028137721
-3.6240063	ALLIANCES.	-0.028137721
-3.6240063	TEASPOON	-0.028137721
-3.357037	TYPICALLY	-0.028137721
-3.6240063	CHARACTERIZED	-0.028137721
-3.4819407	SMALL	-0.028137721
-3.6240063	SIZE	-0.028137721
-3.063872	LONG	-0.028137721
-3.6240063	HANDLE.	-0.028137721
-3.357037	THESE	-0.028137721
-3.6240063	DEMOS	-0.028137721
-3.6240063	HELPED	-0.028137721
-3.6240063	BUILD	-0.028137721
-3.6240063	HYPE	-0.028137721
-3.4819407	AROUND	-0.028137721
-3.6240063	BAND.	-0.028137721
-3.4819407	ONCE	-0.028137721
-3.6240063	CAT	-0.028137721
-3.6240063	BURGLAR,	-0.028137721
-3.6240063	MASTER	-0.028137721
-3.4819407	AMONG	-0.028137721
-3.6240063	JEWEL	-0.028137721
-3.6240063	THIEVES.	-0.028137721
-3.6240063	TEAMS	-0.028137721
-3.6240063	SEEDED	-0.028137721
-3.4819407	ACCORDING	-0.16664252
-3.6240063	REGULAR-SEASON	-0.028137721
-3.6240063	RECORD.	-0.028137721
-2.9685524	ABOUT	-0.028137721
-3.4819407	WEST	-0.028137721
-3.6240063	RICHFIELD.	-0.028137721
-3.6240063	MATURE	-0.028137721
-3.6240063	WOOD	-0.028137721
-3.6240063	MAINLY	-0.028137721
-3.6240063	OAK	-0.028137721
-3.6240063	BEECH	-0.028137721
-3.6240063	CLAY	-0.028137721
-3.6240063	SOILS.	-0.028137721
-3.6240063	IF	-0.028137721
-3.6240063	ANYTHING,	-0.028137721
-3.1861732	I	-0.028137721
-2.9685524	MORE	-0.028137721
-3.6240063	COMPETENT	-0.028137721
-3.6240063	HANDLING	-0.028137721
-3.4819407	PHYSICAL	-0.028137721
-3.6240063	AFFAIRS.	-0.028137721
-3.6240063	VILLAGE	-0.028137721
-3.6240063	DEER	-0.028137721
-3.357037	RIVER.	-0.2821808
-3.6240063	FEW	-0.028137721
-3.6240063	TENS	-0.028137721
-3.6240063	PLANETS	-0.028137721
-2.9685524	BEEN	-0.045418587
-3.6240063	FOUND	-0.028137721
-3.4819407	RED	-0.028137721
-3.6240063	GIANTS.	-0.028137721
-3.6240063	POSSIBILITIES	-0.028137721
-3.6240063	WHAT	-0.028137721
-3.4819407	COULD	-0.028137721
-3.6240063	CHANGED	-0.028137721
-2.8242488	AFTER	-0.04677682
-3.6240063	RECESS	-0.028137721
-2.5575182	WERE	-0.04322051
-3.6240063	DISCUSSED.	-0.028137721
-3.063872	CAREER	-0.028137721
-3.6240063	RADIO	-0.028137721
-3.4819407	STARRING	-0.028137721
-3.6240063	"DANGEROUSLY	-0.028137721
-3.6240063	YOURS".	-0.028137721
-3.4819407	TIME	-0.028137721
-3.6240063	CORRUPTION	-0.028137721
-3.6240063	DECEITFUL	-0.028137721
-3.4819407	POLITICS.	-0.16664252
-3.6240063	ISLAND	-0.028137721
-3.6240063	NATURAL-STATE	-0.028137721
-3.6240063	CONIFEROUS	-0.028137721
-3.6240063	FOREST,	-0.028137721
-3.6240063	HERB-RICH	-0.028137721
-3.6240063	PARTS.	-0.028137721
-3.6240063	GAVE	-0.028137721
-3.6240063	FRANCE	-0.028137721
-3.4819407	RACE	-0.028137721
-3.6240063	LEAD,	-0.028137721
-3.6240063	GREAT	-0.028137721
-3.6240063	BRITAIN	-0.028137721
-3.6240063	SECOND.	-0.028137721
-3.6240063	ETHEL	-0.028137721
-3.4819407	INVOLVED	-0.028137721
-3.6240063	EDUCATION	-0.028137721
-3.6240063	SERVING	-0.028137721
-3.4819407	COMMITTEE	-0.028137721
-3.6240063	FROEBEL	-0.028137721
-3.6240063	MOREOVER,	-0.028137721
-3.6240063	RIKER'S	-0.028137721
-3.6240063	EMPIRICAL	-0.028137721
-3.357037	CLAIMS	-0.028137721
-3.6240063	REFUTED.	-0.028137721
-3.4819407	BELIEVE	-0.028137721
-3.6240063	COMPASSION	-0.028137721
-3.6240063	EMPATHY	-0.028137721
-3.6240063	CRUCIAL	-0.028137721
-3.6240063	FOSTERING	-0.028137721
-3.6240063	RELATIONSHIPS.	-0.028137721
-3.6240063	CARINA	-0.028137721
-3.6240063	METAL-POOR.	-0.028137721
-3.6240063	SEEMS	-0.028137721
-3.6240063	EVIL	-0.028137721
-3.6240063	COOKIES	-0.028137721
-3.6240063	COMPLETELY	-0.028137721
-3.6240063	REPLACED	-0.028137721
-3.6240063	LUCKY	-0.028137721
-3.6240063	ONES.	-0.028137721
-3.6240063	MAJORITY	-0.028137721
-3.6240063	LAND	-0.028137721
-3.4819407	FORMER	-0.028137721
-3.4819407	TOWN	-0.0918919
-3.6240063	STILL	-0.028137721
-3.6240063	ABOVE	-0.028137721
-3.6240063	WATER.	-0.028137721
-3.6240063	EACH	-0.028137721
-3.6240063	RADIAL	-0.028137721
-3.6240063	GATE	-0.028137721
-3.6240063	CLEAR	-0.028137721
-3.6240063	SPAN.	-0.028137721
-3.4819407	GROUP	-0.028137721
-3.6240063	SING	-0.028137721
-3.6240063	BRIDGE,	-0.028137721
-3.6240063	END	-0.028137721
-3.6240063	SONG	-0.028137721
-3.6240063	REPEATING	-0.028137721
-3.6240063	CHORUS	-0.028137721
-3.6240063	TWICE.	-0.028137721
-3.4819407	BUILT	-0.028137721
-3.063872	FIRST	-0.028137721
-3.4819407	HOUSE	-0.028137721
-3.6240063	THERE.	-0.028137721
-3.063872	SHE	-0.045418587
-3.6240063	PORTRAYED	-0.028137721
-3.6240063	FORENSIC	-0.028137721
-3.6240063	PATHOLOGIST	-0.028137721
-3.6240063	AMY	-0.028137721
-3.357037	SHORT	-0.028137721
-3.6240063	FRANCIS	-0.028137721
-3.6240063	XAVIER	-0.028137721
-3.6240063	THRILLER	-0.028137721
-3.6240063	POE.	-0.028137721
-3.6240063	FILMING	-0.028137721
-3.357037	DONE	-0.028137721
-3.4819407	PROFESSIONAL	-0.028137721
-3.6240063	CREW.	-0.028137721
-3.6240063	CUTOUTS	-0.028137721
-3.6240063	WHITE	-0.028137721
-3.6240063	PLASTER	-0.028137721
-3.4819407	MAKE	-0.028137721
-3.6240063	FACADE	-0.028137721
-3.6240063	LOOK	-0.028137721
-3.357037	LIKE	-0.028137721
-3.6240063	LACE.	-0.028137721
-3.4819407	WALSH	-0.16664252
-3.6240063	MELBOURNE.	-0.028137721
-3.6240063	LAWRENCE	-0.028137721
-3.6240063	DIRECTED	-0.028137721
-3.4819407	MUSIC	-0.028137721
-3.6240063	VIDEOS	-0.028137721
-3.6240063	SAN	-0.028137721
-3.6240063	JOSE	-0.028137721
-3.6240063	BAND,	-0.028137721
-3.6240063	WESTERN	-0.028137721
-3.6240063	FRONT.	-0.028137721
-3.1861732	MARRIED	-0.028137721
-3.6240063	MATHIEU	-0.028137721
-3.6240063	SWEENEY.	-0.028137721
-3.6240063	UNION	-0.028137721
-3.6240063	IRON	-0.028137721
-3.357037	WORKS	-0.028137721
-3.4819407	NUMBER	-0.115407646
-3.6240063	SHIPS	-0.028137721
-3.6240063	UNITED	-0.028137721
-3.6240063	STATES	-0.028137721
-3.6240063	NAVY.	-0.028137721
-3.6240063	CURRENTLY,	-0.028137721
-3.6240063	HOUSES	-0.028137721
-3.6240063	AMERICAN	-0.028137721
-3.6240063	AIRPOWER	-0.028137721
-3.357037	MUSEUM.	-0.2821808
-3.357037	SEEN	-0.028137721
-3.6240063	LATITUDE	-0.028137721
-3.6240063	ALEXANDRIA	-0.028137721
-3.6240063	MOBILE,	-0.028137721
-3.6240063	ALABAMA	-0.028137721
-3.6240063	SOUTHWARD.	-0.028137721
-3.6240063	KIRK	-0.028137721
-3.6240063	REFUSES,	-0.028137721
-3.6240063	LANDING	-0.028137721
-3.357037	HELD	-0.028137721
-3.6240063	HOSTAGE.	-0.028137721
-3.6240063	RE-SIGNED	-0.028137721
-3.6240063	CUBS	-0.028137721
-3.357037	ANOTHER	-0.028137721
-3.6240063	MINOR	-0.028137721
-3.4819407	LEAGUE	-0.028137721
-3.6240063	CONTRACT	-0.028137721
-3.6240063	NEXT	-0.028137721
-3.4819407	DAY.	-0.16664252
-3.6240063	FOLLOW-UP	-0.028137721
-3.6240063	TESTS	-0.028137721
-3.357037	INCLUDE	-0.028137721
-3.6240063	PAINFUL	-0.028137721
-3.6240063	BIOPSIES	-0.028137721
-2.9685524	WHICH	-0.06958426
-3.4819407	RESULT	-0.028137721
-3.6240063	EXCESSIVE	-0.028137721
-3.6240063	BLEEDING	-0.028137721
-3.6240063	INFECTION.	-0.028137721
-3.4819407	WON	-0.028137721
-3.4819407	COLLEGE	-0.028137721
-3.4819407	NATIONAL	-0.028137721
-3.6240063	CHAMPIONSHIP	-0.028137721
-3.6240063	FLORIDA	-0.028137721
-3.357037	UNIVERSITY	-0.028137721
-3.6240063	SEMINOLES.	-0.028137721
-3.6240063	WITNESSED	-0.028137721
-3.6240063	PERSONS	-0.028137721
-3.6240063	SWORN	-0.028137721
-3.6240063	AFFIDAVIT.	-0.028137721
-3.4819407	LESS	-0.028137721
-3.6240063	CREATIVE	-0.028137721
-3.6240063	TACTICS	-0.028137721
-2.8904345	USED	-0.101814575
-3.6240063	PROSPECTIVE	-0.028137721
-3.6240063	CHALLENGER.	-0.028137721
-3.6240063	ROGERS	-0.028137721
-3.1861732	COUNTY	-0.028137721
-3.6240063	SHERIFF'S	-0.028137721
-3.4819407	OFFICE	-0.028137721
-3.6240063	TEMPORARILY	-0.028137721
-3.6240063	TOOK	-0.028137721
-3.4819407	OVER	-0.028137721
-3.6240063	POLICING	-0.028137721
-3.6240063	DUTIES.	-0.028137721
-3.6240063	NARDA	-0.028137721
-3.6240063	RAVANNA	-0.028137721
-3.6240063	BOSTON,	-0.028137721
-3.6240063	MASSACHUSETTS.	-0.028137721
-3.6240063	LISTENERS	-0.028137721
-3.6240063	EXCITED	-0.028137721
-3.6240063	RAUNCHY,	-0.028137721
-3.6240063	EARTHY	-0.028137721
-3.6240063	SOUNDS	-0.028137721
-3.6240063	GROWLS	-0.028137721
-3.6240063	MUTES.	-0.028137721
-3.6240063	REDDIT	-0.028137721
-3.6240063	USER?	-0.028137721
-3.6240063	TERMINALS	-0.028137721
-3.6240063	MANUFACTURED	-0.028137721
-3.6240063	SAMSUNG.	-0.028137721
-3.1861732	NOW	-0.028137721
-3.6240063	FIRE	-0.028137721
-3.357037	WE	-0.115407646
-2.8242488	MAY	-0.10701127
-3.6240063	CONSIDER	-0.028137721
-2.8904345	THREE	-0.028137721
-3.6240063	THINGS.	-0.028137721
-3.6240063	HERE	-0.028137721
-3.6240063	BEST	-0.028137721
-3.6240063	IDEAS	-0.028137721
-3.4819407	ME.	-0.16664252
-3.6240063	INITIALLY,	-0.028137721
-3.1861732	GOOD	-0.028137721
-3.6240063	HOPE,	-0.028137721
-3.6240063	GEORGIA.	-0.028137721
-3.4819407	DURING	-0.115407646
-3.6240063	YEARS,	-0.028137721
-3.6240063	OCCUPIED	-0.028137721
-3.6240063	SOLDIERS.	-0.028137721
-3.6240063	SEAT	-0.028137721
-3.6240063	MUNICIPALITY	-0.028137721
-3.6240063	PARAMYTHIA.	-0.028137721
-3.6240063	SPECIES,	-0.028137721
-3.6240063	HYBRIDS	-0.028137721
-3.6240063	CULTIVARS	-0.028137721
-3.6240063	VERBENA	-0.028137721
-3.6240063	ORNAMENTAL	-0.028137721
-3.6240063	PLANTS.	-0.028137721
-3.6240063	HART'S	-0.028137721
-3.6240063	NIECE	-0.028137721
-3.6240063	NATALYA	-0.028137721
-3.6240063	WRESTLER.	-0.028137721
-3.6240063	CHISHMY	-0.028137721
-3.6240063	UNLIKE	-0.028137721
-3.6240063	CONTEMPORARIES,	-0.028137721
-3.6240063	CUNNINGHAM	-0.028137721
-2.9685524	WOULD	-0.06958426
-3.6240063	ROUTINELY	-0.028137721
-3.6240063	CONFIRM	-0.028137721
-3.6240063	IDENTIFICATIONS	-0.028137721
-3.1861732	THROUGH	-0.028137721
-3.4819407	FIELD	-0.028137721
-3.4819407	SURVEYS.	-0.16664252
-3.6240063	ROSEN	-0.028137721
-3.6240063	SHARED	-0.028137721
-2.5575182	AN	-0.040803906
-3.4819407	APARTMENT	-0.028137721
-3.6240063	FIVE	-0.028137721
-3.6240063	STELLA	-0.028137721
-3.6240063	MEMBER	-0.028137721
-3.6240063	SHOWALTER.	-0.028137721
-3.6240063	EVERY	-0.028137721
-3.4819407	SINCE	-0.028137721
-3.6240063	VOTE	-0.028137721
-3.6240063	O	-0.028137721
-3.6240063	HOLY	-0.028137721
-3.4819407	NIGHT.	-0.16664252
-3.6240063	ESTATE	-0.028137721
-3.6240063	ROUGHLY	-0.028137721
-3.6240063	TWO-THIRDS	-0.028137721
-3.4819407	MODERN	-0.028137721
-3.6240063	SUBURB	-0.028137721
-3.357037	EAST	-0.028137721
-3.6240063	RYDE.	-0.028137721
-3.4819407	PROMOTED	-0.028137721
-3.4819407	HEAD	-0.028137721
-3.6240063	COACH	-0.028137721
-3.6240063	STEINAR	-0.028137721
-3.6240063	NILSEN	-0.028137721
-3.6240063	DISMISSED.	-0.028137721
-3.6240063	EVENTUALLY	-0.028137721
-3.4819407	SODIUM	-0.028137721
-3.6240063	LEAK	-0.028137721
-3.4819407	RESULTED	-0.028137721
-3.6240063	FIRE,	-0.028137721
-3.4819407	FACILITY	-0.028137721
-3.6240063	SHUT	-0.028137721
-3.6240063	DOWN.	-0.028137721
-3.6240063	LEAVE	-0.028137721
-3.357037	MY	-0.028137721
-3.6240063	NECKLACES,	-0.028137721
-3.6240063	BRACELETS,	-0.028137721
-3.6240063	EARRINGS	-0.028137721
-3.6240063	LOUISE	-0.028137721
-3.6240063	SMITH.	-0.028137721
-3.6240063	WEATHER	-0.028137721
-3.6240063	FORECASTING	-0.028137721
-3.6240063	CRITICAL	-0.028137721
-3.6240063	ASPECT	-0.028137721
-3.6240063	SAILING	-0.028137721
-3.6240063	YACHT	-0.028137721
-3.6240063	MANAGEMENT.	-0.028137721
-3.6240063	OFFICE-BASED	-0.028137721
-3.6240063	TRANSLATOR	-0.028137721
-3.6240063	COMES	-0.028137721
-3.6240063	OWN	-0.028137721
-3.6240063	SET	-0.028137721
-3.6240063	ADVANTAGES	-0.028137721
-3.6240063	DISADVANTAGES.	-0.028137721
-3.6240063	NEITHER	-0.028137721
-3.6240063	FATHER	-0.028137721
-3.4819407	NOR	-0.028137721
-3.6240063	SON	-0.028137721
-3.6240063	MEETING.	-0.028137721
-3.4819407	STEP	-0.028137721
-3.6240063	CHAIN	-0.028137721
-3.4819407	MIGHT	-0.028137721
-3.6240063	WATERMARKING.	-0.028137721
-3.4819407	CONSIDERED	-0.16664252
-3.6240063	RELATIVELY	-0.028137721
-3.6240063	LIBERAL	-0.028137721
-3.6240063	SUPPORTER	-0.028137721
-3.6240063	CONSTITUTIONAL	-0.028137721
-3.6240063	MONARCHY.	-0.028137721
-3.6240063	PLAN	-0.028137721
-3.6240063	FINALIZED,	-0.028137721
-3.6240063	IMPLEMENTATION	-0.028137721
-3.6240063	PHASE	-0.028137721
-3.6240063	BEGINS.	-0.028137721
-3.357037	CONTROL	-0.028137721
-3.6240063	YOUR	-0.028137721
-3.6240063	SCHEDULE,	-0.028137721
-3.6240063	PROJECTS,	-0.028137721
-3.6240063	CLIENT	-0.028137721
-3.6240063	INTERACTIONS.	-0.028137721
-3.4819407	STARTED	-0.028137721
-3.4819407	STUDY	-0.028137721
-3.6240063	BUSINESS	-0.028137721
-3.6240063	ADMINISTRATION	-0.028137721
-3.063872	BUT	-0.028137721
-3.6240063	BROKE	-0.028137721
-3.6240063	OFF	-0.028137721
-3.6240063	SEMESTERS.	-0.028137721
-3.4819407	SUCH	-0.028137721
-3.6240063	ATTEMPT	-0.028137721
-3.6240063	BASED	-0.028137721
-3.6240063	INFO-GAP	-0.028137721
-3.6240063	DECISION	-0.028137721
-3.6240063	THEORY.	-0.028137721
-3.4819407	FIFTEEN	-0.028137721
-3.6240063	SPECIES	-0.028137721
-3.063872	KNOWN	-0.13684268
-3.6240063	GENUS.	-0.028137721
-3.357037	OFTEN	-0.028137721
-3.6240063	WINDY	-0.028137721
-3.6240063	PEAK,	-0.028137721
-3.1861732	DUE	-0.4071195
-3.6240063	LACK	-0.028137721
-3.6240063	TREES.	-0.028137721
-3.6240063	LA	-0.028137721
-3.6240063	MIRADA	-0.028137721
-2.8904345	HIGH	-0.16351984
-3.4819407	SCHOOL.	-0.16664252
-3.6240063	EFFECT	-0.028137721
-3.063872	BECAME	-0.0783703
-3.6240063	FAVOURITE.	-0.028137721
-3.4819407	OTHERWISE,	-0.028137721
-3.6240063	ROOMS	-0.028137721
-3.6240063	NUMBERED	-0.028137721
-3.4819407	KIND	-0.16664252
-3.6240063	RATIONAL	-0.028137721
-3.6240063	SCHEME.	-0.028137721
-3.6240063	SOURCE	-0.028137721
-3.6240063	CODE	-0.028137721
-3.6240063	HERE.	-0.028137721
-3.6240063	ENCLOSES	-0.028137721
-3.6240063	METAL	-0.028137721
-3.6240063	GROMMET	-0.028137721
-3.6240063	REINFORCEMENT	-0.028137721
-3.6240063	REDUCE	-0.028137721
-3.6240063	WEAR.	-0.028137721
-3.6240063	DOUGLAS-HAMILTON	-0.028137721
-3.6240063	COUNTERING	-0.028137721
-3.4819407	GERMAN	-0.028137721
-3.4819407	TASK	-0.028137721
-3.6240063	FORCE	-0.028137721
-3.4819407	OPERATING	-0.028137721
-3.6240063	NEAR	-0.028137721
-3.6240063	CEYLON.	-0.028137721
-3.6240063	SURROUNDED	-0.028137721
-3.6240063	MUD	-0.028137721
-3.6240063	WALL	-0.028137721
-3.6240063	DITCH.	-0.028137721
-3.1861732	THERE	-0.11954614
-3.6240063	VARIETY	-0.028137721
-3.6240063	DIESEL	-0.028137721
-3.6240063	PARTICULATE	-0.028137721
-3.6240063	FILTER	-0.028137721
-3.6240063	TECHNOLOGIES	-0.028137721
-3.6240063	MARKET.	-0.028137721
-3.6240063	SURPRISINGLY,	-0.028137721
-3.6240063	DECIDED	-0.028137721
-3.6240063	CHOOSING	-0.028137721
-3.6240063	MEET	-0.028137721
-3.6240063	CONSTANTINE	-0.028137721
-3.6240063	BATTLE.	-0.028137721
-2.8242488	TWO	-0.028137721
-3.6240063	DATED	-0.028137721
-3.6240063	TOGETHER.	-0.028137721
-3.6240063	TIMES	-0.028137721
-3.6240063	EXPERIENCE	-0.028137721
-3.6240063	UNCANNY.	-0.028137721
-3.6240063	NORRIS	-0.028137721
-3.6240063	FOUGHT	-0.028137721
-3.6240063	TWICE	-0.028137721
-3.4819407	LOSING	-0.028137721
-3.6240063	TITLE.	-0.028137721
-3.6240063	PETTY	-0.028137721
-3.6240063	SUGGESTED	-0.028137721
-3.6240063	CALL	-0.028137721
-3.6240063	DONOVAN,	-0.028137721
-3.6240063	DID.	-0.028137721
-3.6240063	LONGO	-0.028137721
-3.6240063	INSTRUCTOR.	-0.028137721
-3.6240063	FATE	-0.028137721
-3.6240063	SIX	-0.028137721
-3.6240063	CRECY	-0.028137721
-3.357037	REMAINS	-0.028137721
-3.4819407	UNKNOWN.	-0.16664252
-3.6240063	TRACTION	-0.028137721
-3.6240063	ADDED.	-0.028137721
-3.6240063	FAMOUSLY,	-0.028137721
-3.357037	SAID	-0.028137721
-3.6240063	UNCLEAR	-0.028137721
-3.6240063	PAPER:	-0.028137721
-3.6240063	EVEN	-0.028137721
-3.6240063	WRONG!	-0.028137721
-3.4819407	TODAY	-0.028137721
-3.6240063	ATTRACTED	-0.028137721
-3.6240063	FOLK	-0.028137721
-3.6240063	ASPECT.	-0.028137721
-3.6240063	PRIMARY	-0.028137721
-3.4819407	REASON	-0.028137721
-3.6240063	PRESSURE	-0.028137721
-3.4819407	USE	-0.028137721
-3.6240063	NON-LEAD	-0.028137721
-3.6240063	BULLETS.	-0.028137721
-3.6240063	LAST	-0.028137721
-3.4819407	CHILD	-0.028137721
-3.6240063	BOY,	-0.028137721
-3.6240063	FAIR	-0.028137721
-3.6240063	BONNY.	-0.028137721
-3.6240063	TAGLINE:	-0.028137721
-3.6240063	LAST!	-0.028137721
-3.6240063	RULER	-0.028137721
-3.6240063	THAUMIEL	-0.028137721
-3.6240063	SATAN.	-0.028137721
-3.6240063	GAME,	-0.028137721
-3.6240063	DOWNIE	-0.028137721
-3.4819407	GOT	-0.028137721
-3.357037	INTO	-0.028137721
-3.6240063	SCUFFLE	-0.028137721
-3.6240063	MAPLE	-0.028137721
-3.6240063	LEAFS	-0.028137721
-3.6240063	FORWARD	-0.028137721
-3.6240063	JASON	-0.028137721
-3.6240063	BLAKE.	-0.028137721
-3.6240063	SHIPBUILDING	-0.028137721
-3.6240063	INDUSTRY	-0.028137721
-3.6240063	TENDS	-0.028137721
-3.6240063	FRAGMENTED	-0.028137721
-3.6240063	EUROPE	-0.028137721
-3.6240063	ASIA.	-0.028137721
-3.6240063	BARTRAM	-0.028137721
-3.4819407	GREW	-0.16664252
-3.063872	UP	-0.028137721
-3.4819407	SCOTLAND,	-0.028137721
-3.4819407	NORTHERN	-0.028137721
-3.6240063	IRELAND,	-0.028137721
-3.6240063	AFRICA.	-0.028137721
-3.6240063	ON,	-0.028137721
-3.6240063	JACK	-0.028137721
-3.1861732	NO	-0.028137721
-3.6240063	LONGER	-0.028137721
-3.4819407	JUST	-0.028137721
-3.6240063	HANDYMAN	-0.028137721
-3.6240063	WILLOW	-0.028137721
-3.6240063	CREEK.	-0.028137721
-3.6240063	LEARNING	-0.028137721
-3.4819407	RUSSIAN	-0.028137721
-3.6240063	CHALLENGING	-0.028137721
-3.6240063	REWARDING.	-0.028137721
-3.6240063	CURRENT	-0.028137721
-3.6240063	MAYOR	-0.028137721
-3.6240063	PROTIVIN	-0.028137721
-3.6240063	LENSING.	-0.028137721
-3.6240063	MEDIA	-0.028137721
-3.6240063	SPECULATION	-0.028137721
-3.6240063	CHERNIN'S	-0.028137721
-3.4819407	HAVING	-0.028137721
-3.6240063	ROLE	-0.028137721
-3.6240063	YAHOO!	-0.028137721
-3.6240063	ESPLEN	-0.028137721
-3.4819407	PITTSBURGH	-0.028137721
-3.4819407	CITY	-0.028137721
-3.4819407	DISTRICT.	-0.16664252
-3.357037	EXAMPLE	-0.115407646
-3.6240063	SAFE-LIFE	-0.028137721
-3.4819407	COMPONENT	-0.028137721
-3.6240063	HELICOPTER	-0.028137721
-3.6240063	ROTOR	-0.028137721
-3.6240063	BLADE.	-0.028137721
-3.6240063	AUTHOR	-0.028137721
-3.6240063	HUNTER	-0.028137721
-3.6240063	S.	-0.028137721
-3.6240063	THOMPSON	-0.028137721
-3.6240063	REMARKED	-0.028137721
-3.6240063	DISAPPOINTED	-0.028137721
-3.6240063	IT.	-0.028137721
-3.6240063	DISJUNCT	-0.028137721
-3.6240063	SUBSET	-0.028137721
-3.6240063	OCCURS	-0.028137721
-3.357037	CENTRAL	-0.028137721
-3.6240063	COLORADO	-0.028137721
-3.6240063	NORTHWESTERN	-0.028137721
-3.6240063	MEXICO.	-0.028137721
-3.6240063	TOWER	-0.028137721
-3.6240063	SCRAPS	-0.028137721
-3.6240063	GIFFORDTOWN	-0.028137721
-3.6240063	SAVANE	-0.028137721
-3.357037	RIVER	-0.028137721
-3.6240063	FLOWS	-0.028137721
-2.9685524	SOUTH	-0.028137721
-3.6240063	BANK	-0.028137721
-3.6240063	CALDWELL	-0.028137721
-3.063872	THEY	-0.050253388
-3.6240063	DROP	-0.028137721
-3.6240063	BOMBS	-0.028137721
-3.6240063	FROZEN	-0.028137721
-3.6240063	RIVERS	-0.028137721
-3.6240063	BREAK	-0.028137721
-3.6240063	ICE	-0.028137721
-3.6240063	FLOWS.	-0.028137721
-3.6240063	REFORM	-0.028137721
-3.6240063	CONVENTIONAL	-0.028137721
-3.6240063	SENSE.	-0.028137721
-3.357037	NAME	-0.028137721
-3.6240063	"GREYHOUND"	-0.028137721
-3.6240063	GENERALLY	-0.028137721
-3.6240063	BELIEVED	-0.028137721
-3.357037	OLD	-0.028137721
-3.4819407	ENGLISH	-0.028137721
-3.6240063	"GRIGHUND".	-0.028137721
-3.6240063	AER	-0.028137721
-3.6240063	ARANN	-0.028137721
-3.6240063	ISLANDS	-0.028137721
-3.6240063	HEADQUARTERED	-0.028137721
-3.6240063	INVERIN.	-0.028137721
-3.4819407	SEVEN	-0.028137721
-3.4819407	SONGS	-0.028137721
-3.357037	PERFORMED	-0.028137721
-3.6240063	"BEAUTIFUL	-0.028137721
-3.6240063	VISION".	-0.028137721
-3.6240063	VERMA	-0.028137721
-3.6240063	PLACE	-0.028137721
-3.6240063	LEADER.	-0.028137721
-3.6240063	BROTHER,	-0.028137721
-3.4819407	PETER	-0.028137721
-3.6240063	REICHENSPERGER,	-0.028137721
-3.4819407	ACTIVE	-0.16664252
-3.6240063	INSTEAD	-0.028137721
-3.6240063	FAVORING	-0.028137721
-3.6240063	INDIVIDUALS	-0.028137721
-3.4819407	EXTREME	-0.028137721
-3.6240063	PHENOTYPES,	-0.028137721
-3.6240063	FAVORS	-0.028137721
-3.6240063	INTERMEDIATE	-0.028137721
-3.6240063	VARIANTS.	-0.028137721
-3.357037	SEVERAL	-0.028137721
-3.6240063	MISSIONS,	-0.028137721
-3.4819407	PLAYER	-0.028137721
-3.6240063	MUST	-0.028137721
-3.4819407	SUPPLY	-0.028137721
-3.6240063	DROPS	-0.028137721
-3.6240063	SCIENTISTS	-0.028137721
-3.063872	WORKING	-0.028137721
-3.6240063	UNDERGROUND.	-0.028137721
-3.6240063	DOWNTOWN	-0.028137721
-3.6240063	COMMUNITY	-0.028137721
-3.6240063	MANHATTAN'S	-0.028137721
-3.6240063	VILLAGE.	-0.028137721
-3.4819407	SEE	-0.028137721
-3.6240063	SPHERICAL	-0.028137721
-3.6240063	DESIGN.	-0.028137721
-3.357037	PLAYERS	-0.028137721
-3.6240063	DO	-0.028137721
-3.6240063	WELL,	-0.028137721
-3.6240063	CHARACTER'S	-0.028137721
-3.6240063	COMPOSURE	-0.028137721
-3.4819407	MEETING	-0.028137721
-3.6240063	INCREASES.	-0.028137721
-3.6240063	ALTHOUGH	-0.028137721
-3.6240063	EXTINCTION	-0.028137721
-3.6240063	COMPARED	-0.028137721
-3.6240063	HEMISPATIAL	-0.028137721
-3.6240063	NEGLECT,	-0.028137721
-3.4819407	DIFFERENT	-0.028137721
-3.6240063	DISORDERS.	-0.028137721
-3.6240063	MILLER,	-0.028137721
-3.6240063	HURLEY	-0.028137721
-3.6240063	KEY	-0.028137721
-3.6240063	SOLOISTS.	-0.028137721
-3.6240063	NADASWARAM	-0.028137721
-3.6240063	ANCIENT	-0.028137721
-3.6240063	TAMIL	-0.028137721
-3.6240063	TEXTS.	-0.028137721
-3.6240063	ACCOMPLISHED	-0.028137721
-3.6240063	FELT	-0.028137721
-3.6240063	RETIRE	-0.028137721
-3.6240063	POINT.	-0.028137721
-3.6240063	HARRISON	-0.028137721
-3.6240063	CO-PRODUCED	-0.028137721
-3.6240063	RECORDING	-0.028137721
-3.6240063	PERCUSSIONIST	-0.028137721
-3.6240063	RAY	-0.028137721
-3.6240063	COOPER.	-0.028137721
-3.6240063	ENVIRONMENT	-0.028137721
-3.6240063	VARIABLES	-0.028137721
-3.4819407	PROVIDED	-0.028137721
-3.4819407	SYSTEMS.	-0.16664252
-3.6240063	NESTING	-0.028137721
-3.6240063	SEASON	-0.028137721
-3.6240063	TURTLES	-0.028137721
-3.6240063	APRIL	-0.028137721
-3.6240063	AUGUST.	-0.028137721
-3.6240063	HIGHLY	-0.028137721
-3.6240063	SUCCESSFUL	-0.028137721
-3.6240063	TELEVISION	-0.028137721
-3.6240063	PERIOD	-0.028137721
-3.6240063	PIECES.	-0.028137721
-3.6240063	WEEKES'	-0.028137721
-3.4819407	BEGAN	-0.028137721
-3.6240063	OWEN	-0.028137721
-3.6240063	SOUND	-0.028137721
-3.6240063	PLATERS	-0.028137721
-3.6240063	ONTARIO	-0.028137721
-3.6240063	HOCKEY	-0.028137721
-3.6240063	TRY	-0.028137721
-3.6240063	POSTS.	-0.028137721
-3.4819407	GIVEN	-0.028137721
-3.6240063	RC	-0.028137721
-3.6240063	DOCUMENTATION.	-0.028137721
-3.6240063	HEIGHT	-0.028137721
-3.6240063	SLIGHTLY	-0.028137721
-3.6240063	LOWER	-0.028137721
-3.6240063	CUSTOM.	-0.028137721
-3.6240063	POSITIVE	-0.028137721
-3.6240063	EFFORT	-0.028137721
-3.6240063	VENEZUELA	-0.028137721
-3.6240063	REGAINED	-0.028137721
-3.6240063	CREDIT-ELIGIBILITY	-0.028137721
-3.6240063	RATING.	-0.028137721
-3.4819407	CHINESE	-0.028137721
-3.6240063	BURIAL	-0.028137721
-3.6240063	COINS	-0.028137721
-3.6240063	COIN	-0.028137721
-3.6240063	CATALOGUES.	-0.028137721
-3.6240063	SKY	-0.028137721
-3.6240063	NEWS	-0.028137721
-3.6240063	IRELAND	-0.028137721
-3.4819407	BROADCAST	-0.16664252
-3.6240063	STUDIOS	-0.028137721
-3.6240063	DUBLIN.	-0.028137721
-3.6240063	ITSELF	-0.028137721
-3.6240063	PRESERVED	-0.028137721
-3.6240063	ELEMENTS	-0.028137721
-3.6240063	TYPICAL	-0.028137721
-3.6240063	ALPINE	-0.028137721
-3.6240063	ARCHITECTURE.	-0.028137721
-3.6240063	OXYGEN	-0.028137721
-3.6240063	ABSENCE,	-0.028137721
-3.6240063	PH	-0.028137721
-3.6240063	MATRIX	-0.028137721
-3.6240063	DROPS.	-0.028137721
-3.6240063	VIDEO'S	-0.028137721
-3.6240063	CLIMAX,	-0.028137721
-3.6240063	CROWD	-0.028137721
-3.6240063	CHEERS	-0.028137721
-3.6240063	CAREY	-0.028137721
-3.6240063	BEGIN	-0.028137721
-3.6240063	CLAPPING	-0.028137721
-3.6240063	CHANTING	-0.028137721
-3.6240063	PRAISES.	-0.028137721
-3.6240063	PERMANENT	-0.028137721
-3.6240063	EXHIBITION,	-0.028137721
-3.6240063	"WITH	-0.028137721
-3.4819407	SINGLE	-0.028137721
-3.6240063	STEP"	-0.028137721
-3.4819407	DESIGNED	-0.028137721
-3.6240063	MATTER	-0.028137721
-3.6240063	PRACTICE.	-0.028137721
-3.6240063	EXPANDED	-0.028137721
-3.6240063	SERVE	-0.028137721
-3.6240063	PURPOSE	-0.028137721
-3.357037	CAME	-0.028137721
-3.6240063	EMINENT	-0.028137721
-3.4819407	FAMILY.	-0.16664252
-3.6240063	OBTAIN	-0.028137721
-3.1861732	WATER	-0.0918919
-3.6240063	WELLS	-0.028137721
-3.6240063	STREAMS	-0.028137721
-3.6240063	NEARBY.	-0.028137721
-3.6240063	GAME	-0.028137721
-3.4819407	FEATURES	-0.028137721
-3.6240063	PLAYABLE	-0.028137721
-3.4819407	CHARACTERS	-0.028137721
-3.6240063	LAUNCH.	-0.028137721
-3.6240063	TOLD	-0.028137721
-3.6240063	HURRY	-0.028137721
-3.357037	BECAUSE	-0.028137721
-3.6240063	WAITED	-0.028137721
-3.6240063	FOR.	-0.028137721
-3.6240063	REFERENCE	-0.028137721
-3.6240063	MARKERS	-0.028137721
-3.6240063	INTERVALS	-0.028137721
-3.4819407	ALONG	-0.16664252
-3.357037	MAJOR	-0.028137721
-3.6240063	CORRIDORS.	-0.028137721
-3.6240063	DEPARTMENT	-0.028137721
-3.6240063	IS,	-0.028137721
-3.6240063	HISTORICALLY,	-0.028137721
-3.6240063	PROMINENT	-0.028137721
-3.6240063	PRODUCER	-0.028137721
-3.6240063	GOLD,	-0.028137721
-3.6240063	SILVER,	-0.028137721
-3.6240063	COPPER.	-0.028137721
-3.6240063	LISTING	-0.028137721
-3.6240063	SHARES	-0.028137721
-3.6240063	STOCK	-0.028137721
-3.6240063	EXCHANGES	-0.028137721
-3.6240063	DISCONTINUED	-0.028137721
-3.6240063	NOTICE.	-0.028137721
-3.6240063	LISTED	-0.028137721
-3.6240063	UNSURVEYED.	-0.028137721
-3.6240063	SKELETON	-0.028137721
-3.6240063	DANCES	-0.028137721
-3.6240063	CHARLESTON.	-0.028137721
-3.6240063	GREATEST	-0.028137721
-3.6240063	CHART	-0.028137721
-3.6240063	SUCCESS	-0.028137721
-3.6240063	SUMMER	-0.028137721
-3.6240063	HIT	-0.028137721
-3.6240063	"I	-0.028137721
-3.357037	LOVE	-0.028137721
-3.4819407	YOU".	-0.16664252
-3.6240063	SKINNY	-0.028137721
-3.6240063	DIPPING.	-0.028137721
-3.357037	DIED	-0.028137721
-3.6240063	INJURIES	-0.028137721
-3.4819407	SAME	-0.028137721
-3.6240063	IBRAHIM	-0.028137721
-3.6240063	ENCOMPASSED	-0.028137721
-3.6240063	EASTERN	-0.028137721
-3.6240063	ALGERIA,	-0.028137721
-3.6240063	TUNISIA	-0.028137721
-3.6240063	TRIPOLITANIA.	-0.028137721
-3.6240063	FUNCTION	-0.028137721
-3.6240063	STRUCTURES	-0.028137721
-3.6240063	SAFEGUARDING	-0.028137721
-3.6240063	LABOUR	-0.028137721
-3.6240063	MINORS.	-0.028137721
-3.4819407	FINISHED	-0.028137721
-3.6240063	STINTS	-0.028137721
-3.6240063	GIANTS	-0.028137721
-3.6240063	LIONS.	-0.028137721
-3.357037	WORKED	-0.028137721
-3.4819407	HARD	-0.028137721
-3.6240063	ESTABLISH	-0.028137721
-3.6240063	STRONG	-0.028137721
-3.6240063	LINKS	-0.028137721
-3.6240063	STUDENTS.	-0.028137721
-3.6240063	FLOWERING	-0.028137721
-3.6240063	PLANTS	-0.028137721
-3.6240063	ANGIOSPERMS	-0.028137721
-3.4819407	DIVIDED	-0.16664252
-3.6240063	GROUPS.	-0.028137721
-3.6240063	QUICKLY	-0.028137721
-3.6240063	KILLED	-0.028137721
-3.6240063	SUPERBOY-PRIME	-0.028137721
-3.6240063	AMIDST	-0.028137721
-3.6240063	CHAOS.	-0.028137721
-3.6240063	COMPETITION	-0.028137721
-3.4819407	YOUNG	-0.028137721
-3.6240063	SKIPPERS	-0.028137721
-3.6240063	ACROSS	-0.028137721
-3.6240063	CLASSES.	-0.028137721
-3.6240063	LINGUIST	-0.028137721
-3.6240063	NOAM	-0.028137721
-3.6240063	CHOMSKY	-0.028137721
-3.357037	PROPOSED	-0.028137721
-3.6240063	BIOLOGICAL	-0.028137721
-3.4819407	LANGUAGE,	-0.028137721
-3.6240063	TERMED	-0.028137721
-3.6240063	UNIVERSAL	-0.028137721
-3.6240063	GRAMMAR.	-0.028137721
-3.6240063	ACCOUNT,	-0.028137721
-3.4819407	IMPORTANT	-0.028137721
-3.6240063	EXCEPTION	-0.028137721
-3.6240063	RULE.	-0.028137721
-3.6240063	THERE'S	-0.028137721
-3.6240063	MINE,	-0.028137721
-3.6240063	LUCIE.	-0.028137721
-3.6240063	PATHWAYS	-0.028137721
-3.6240063	LEAD	-0.028137721
-3.6240063	CREDENTIALING.	-0.028137721
-3.6240063	YOU'RE	-0.028137721
-3.6240063	MAN.	-0.028137721
-3.4819407	AGRICULTURAL	-0.028137721
-3.6240063	PRODUCTION	-0.028137721
-3.6240063	CONTRIBUTOR	-0.028137721
-3.6240063	JAMAICA'S	-0.028137721
-3.6240063	ECONOMY.	-0.028137721
-3.6240063	CIRCUITS	-0.028137721
-3.1861732	VERY	-0.028137721
-3.6240063	FREQUENTLY	-0.028137721
-3.6240063	FED	-0.028137721
-3.6240063	TRANSFORMERS,	-0.028137721
-3.6240063	RESISTANCE.	-0.028137721
-3.4819407	DOCTOR	-0.028137721
-3.357037	FRANK	-0.028137721
-3.6240063	PERALTA	-0.028137721
-3.6240063	STABBED	-0.028137721
-3.6240063	DAMER'S	-0.028137721
-3.6240063	FRIENDS	-0.028137721
-3.6240063	INFLUENTIAL	-0.028137721
-3.6240063	WHIGS	-0.028137721
-3.6240063	ARISTOCRATS.	-0.028137721
-3.6240063	LABEL	-0.028137721
-3.6240063	SPECIALIZES	-0.028137721
-3.6240063	DOWNTEMPO	-0.028137721
-3.6240063	MUSIC.	-0.028137721
-3.6240063	FORMED	-0.028137721
-3.6240063	TAT	-0.028137721
-3.6240063	MING	-0.028137721
-3.6240063	PAIR,	-0.028137721
-3.6240063	SIGNED	-0.028137721
-3.6240063	POLYGRAM.	-0.028137721
-3.4819407	MATT	-0.028137721
-3.6240063	MANAGES	-0.028137721
-3.6240063	RAISE	-0.028137721
-3.6240063	ALONE.	-0.028137721
-3.6240063	ANALOGOUS	-0.028137721
-3.6240063	MULTIPLEXING	-0.028137721
-3.6240063	PROCESS.	-0.028137721
-3.6240063	DANA'S	-0.028137721
-3.6240063	CHARACTER	-0.028137721
-3.6240063	REPLACED.	-0.028137721
-3.6240063	PRODUCERS	-0.028137721
-3.6240063	RECORD	-0.028137721
-3.6240063	RICK	-0.028137721
-3.6240063	NOWELS,	-0.028137721
-3.6240063	GREGG	-0.028137721
-3.6240063	ALEXANDER	-0.028137721
-3.6240063	WADE.	-0.028137721
-3.6240063	ALLOWS	-0.028137721
-3.6240063	CHEESE	-0.028137721
-3.6240063	MELT	-0.028137721
-3.6240063	BECOMING	-0.028137721
-3.6240063	GREASY.	-0.028137721
-3.6240063	RADICALS	-0.028137721
-3.6240063	APPEAR	-0.028137721
-3.6240063	POSITION	-0.028137721
-3.6240063	CHARACTER.	-0.028137721
-3.6240063	ALBUM	-0.028137721
-3.4819407	TAKES	-0.028137721
-3.6240063	EXPERIMENTAL	-0.028137721
-3.6240063	FILM	-0.028137721
-3.6240063	KENNETH	-0.028137721
-3.6240063	ANGER.	-0.028137721
-3.6240063	SULPHATE	-0.028137721
-3.6240063	CHLORIDE	-0.028137721
-3.6240063	THERAPEUTIC	-0.028137721
-3.6240063	BATHS	-0.028137721
-3.6240063	DRINKING.	-0.028137721
-3.4819407	SAW	-0.028137721
-3.6240063	DARK,	-0.028137721
-3.6240063	MAD	-0.028137721
-3.6240063	EYES.	-0.028137721
-3.6240063	BASEBALL	-0.028137721
-3.357037	HIM.	-0.2821808
-3.6240063	LAKE	-0.028137721
-3.6240063	BORDERED	-0.028137721
-3.6240063	SOUTHWEST	-0.028137721
-3.6240063	SINCLAIR	-0.028137721
-3.6240063	WETLANDS.	-0.028137721
-3.4819407	LIFE	-0.028137721
-3.6240063	DOMINATED	-0.028137721
-3.6240063	WESTENHOLZ	-0.028137721
-3.6240063	AUSTRALIAN	-0.028137721
-3.6240063	BROAD	-0.028137721
-3.6240063	USUALLY	-0.028137721
-3.6240063	USED.	-0.028137721
-3.6240063	STRETCH	-0.028137721
-3.1861732	SERVES	-0.0918919
-3.6240063	BLUE	-0.028137721
-3.6240063	LINE,	-0.028137721
-3.6240063	PARK'S	-0.028137721
-3.6240063	BOUNDARY.	-0.028137721
-3.6240063	CRUISERS	-0.028137721
-3.063872	HAD	-0.06958426
-3.6240063	SENT	-0.028137721
-3.6240063	GUARD	-0.028137721
-3.6240063	WATERS	-0.028137721
-3.6240063	SOUTH-EAST	-0.028137721
-3.6240063	ICELAND.	-0.028137721
-3.4819407	SUBSEQUENT	-0.028137721
-3.6240063	REPORTS	-0.028137721
-3.6240063	PUBLISHED	-0.028137721
-2.9685524	OTHER	-0.028137721
-3.6240063	ORGANIZATIONS.	-0.028137721
-3.4819407	BOY	-0.028137721
-3.6240063	SHRUGGED	-0.028137721
-3.6240063	SHOULDERS	-0.028137721
-3.6240063	SLIGHTLY.	-0.028137721
-3.6240063	“THESE	-0.028137721
-3.6240063	OTHERS,”	-0.028137721
-3.6240063	VOICE	-0.028137721
-3.6240063	IRRITATION.	-0.028137721
-3.6240063	MAIN	-0.028137721
-3.6240063	THINK	-0.028137721
-3.4819407	IT'S	-0.028137721
-3.6240063	TRUE,	-0.028137721
-3.6240063	SAYS.	-0.028137721
-3.4819407	FALLS	-0.028137721
-3.6240063	WHITLEY	-0.028137721
-3.6240063	WARD	-0.028137721
-3.6240063	WAKEFIELD	-0.028137721
-3.6240063	METROPOLITAN	-0.028137721
-3.6240063	COUNCIL.	-0.028137721
-3.6240063	PRECISE	-0.028137721
-3.6240063	ORIGIN	-0.028137721
-3.6240063	DIFFICULT	-0.028137721
-3.6240063	PINPOINT	-0.028137721
-3.6240063	AMALGAMATIONS.	-0.028137721
-3.357037	PARENTS	-0.0918919
-3.6240063	ARTISTS.	-0.028137721
-3.6240063	DENNY	-0.028137721
-3.6240063	RESPONDED	-0.028137721
-3.6240063	VERSE.	-0.028137721
-3.6240063	VISION,	-0.028137721
-3.6240063	RETURN	-0.028137721
-3.6240063	EQUITY	-0.028137721
-3.4819407	COMPANY.	-0.16664252
-3.4819407	FINANCIAL	-0.028137721
-3.4819407	TERMS	-0.028137721
-3.6240063	DISCLOSED.	-0.028137721
-3.6240063	PILOT	-0.028137721
-3.1861732	MADE	-0.028137721
-3.6240063	BACK	-0.028137721
-3.6240063	BASE.	-0.028137721
-3.6240063	FRONTAGE.	-0.028137721
-3.6240063	MOTHER	-0.028137721
-3.6240063	SONS	-0.028137721
-3.6240063	KAYDEN	-0.028137721
-3.6240063	CASH	-0.028137721
-3.6240063	SEBASTIAN	-0.028137721
-3.6240063	EVANS.	-0.028137721
-3.6240063	COMPILATION	-0.028137721
-3.6240063	EPISODES	-0.028137721
-3.6240063	TWO.	-0.028137721
-3.6240063	ARMY'S	-0.028137721
-3.6240063	OPERATIONAL	-0.028137721
-3.6240063	HEADQUARTERS,	-0.028137721
-3.6240063	FORCES	-0.028137721
-3.6240063	COMMAND,	-0.028137721
-3.6240063	VICTORIA	-0.028137721
-3.6240063	BARRACKS	-0.028137721
-3.6240063	SYDNEY.	-0.028137721
-3.6240063	REBRANDING	-0.028137721
-3.6240063	PROCESS	-0.028137721
-3.6240063	INTERNALLY	-0.028137721
-3.6240063	PROJECT	-0.028137721
-3.6240063	HYPHEN.	-0.028137721
-3.6240063	KITCHEN,	-0.028137721
-3.6240063	GALLEY,	-0.028137721
-3.4819407	SITUATED	-0.028137721
-3.6240063	FOOD	-0.028137721
-3.6240063	COOKED.	-0.028137721
-3.4819407	DEPENDING	-0.16664252
-3.6240063	CERTAIN	-0.028137721
-3.6240063	ACTIONS	-0.028137721
-3.6240063	SYMPHONY,	-0.028137721
-3.6240063	RECEIVE	-0.028137721
-3.6240063	ENDINGS.	-0.028137721
-3.6240063	HAMPSHIRE	-0.028137721
-3.6240063	EIGHTH	-0.028137721
-3.6240063	POINTS.	-0.028137721
-3.6240063	MET	-0.028137721
-3.6240063	POLAROID.	-0.028137721
-3.6240063	FURTHERMORE,	-0.028137721
-3.6240063	MIRIAM	-0.028137721
-3.6240063	EMPHASIZES	-0.028137721
-3.6240063	IMPORTANCE	-0.028137721
-3.4819407	STAYING	-0.028137721
-3.6240063	HYDRATED	-0.028137721
-3.6240063	FLIGHT.	-0.028137721
-3.6240063	EVENT	-0.028137721
-3.6240063	CATALYST	-0.028137721
-3.6240063	REST	-0.028137721
-3.6240063	NARRATIVE.	-0.028137721
-3.6240063	RULE	-0.028137721
-3.6240063	PROBABLY	-0.028137721
-3.6240063	PERSON.	-0.028137721
-3.6240063	DIRT	-0.028137721
-3.6240063	HIGHWAY	-0.028137721
-3.6240063	GOING	-0.028137721
-3.6240063	NORTH-EAST	-0.028137721
-3.6240063	REACHES	-0.028137721
-3.6240063	ARUA	-0.028137721
-3.6240063	GULU	-0.028137721
-3.4819407	NORTH	-0.028137721
-3.6240063	LAKE.	-0.028137721
-3.6240063	SOLES	-0.028137721
-3.6240063	NEED	-0.028137721
-3.6240063	POSSESS	-0.028137721
-3.6240063	"SLIP"	-0.028137721
-3.6240063	"GRIP"	-0.028137721
-3.6240063	CHARACTERISTICS.	-0.028137721
-3.6240063	SLOMAN	-0.028137721
-3.6240063	DAUGHTERS.	-0.028137721
-3.6240063	CHARLES	-0.028137721
-3.4819407	WHEN	-0.028137721
-3.6240063	BORN.	-0.028137721
-3.6240063	DANNY	-0.028137721
-3.6240063	KINGSBURY	-0.028137721
-3.6240063	ARCHITECT	-0.028137721
-3.1861732	STATION	-0.0918919
-3.4819407	PROGRAM	-0.028137721
-3.6240063	DIRECTOR.	-0.028137721
-3.6240063	OUTER	-0.028137721
-3.6240063	RIM	-0.028137721
-3.6240063	UNDERGONE	-0.028137721
-3.6240063	EROSION	-0.028137721
-3.6240063	IMPACTS.	-0.028137721
-3.6240063	PURPOSES	-0.028137721
-3.6240063	DEFINITION,	-0.028137721
-3.6240063	INTENT	-0.028137721
-3.6240063	CONDITIONAL.	-0.028137721
-3.6240063	BENNETT	-0.028137721
-3.6240063	LAWNSWOOD	-0.028137721
-3.6240063	SCHOOL,	-0.028137721
-3.6240063	LEEDS,	-0.028137721
-3.6240063	HERTFORD	-0.028137721
-3.4819407	RULES	-0.028137721
-3.6240063	ADMIRAL-LORD	-0.028137721
-3.6240063	MOUNTEVANS	-0.028137721
-3.6240063	RULES.	-0.028137721
-3.6240063	GROUPING	-0.028137721
-3.6240063	TRADITIONALLY	-0.028137721
-3.1861732	CALLED	-0.028137721
-3.6240063	APES	-0.028137721
-3.6240063	BRACKETED	-0.028137721
-3.6240063	RIGHT.	-0.028137721
-3.6240063	TRACK	-0.028137721
-3.6240063	"COCA	-0.028137721
-3.6240063	LEAF"	-0.028137721
-3.6240063	VOCAL	-0.028137721
-3.6240063	SAMPLES	-0.028137721
-3.6240063	SINGING	-0.028137721
-3.6240063	TAUGHT	-0.028137721
-3.6240063	UNIVERSITY.	-0.028137721
-3.063872	MOST	-0.028137721
-3.6240063	"NARUTO"	-0.028137721
-3.6240063	VIDEO	-0.028137721
-3.6240063	GAMES	-0.028137721
-3.6240063	RELEASED	-0.028137721
-3.6240063	JAPAN.	-0.028137721
-3.6240063	BOLD	-0.028137721
-3.6240063	DENOTES	-0.028137721
-3.6240063	CURRENTLY	-0.028137721
-3.6240063	INTERNATIONAL	-0.028137721
-3.6240063	FOOTBALL.	-0.028137721
-3.6240063	SIDE,	-0.028137721
-3.6240063	GREER	-0.028137721
-3.6240063	SELECTION	-0.028137721
-3.6240063	TRACK.	-0.028137721
-3.6240063	RILEY	-0.028137721
-3.6240063	BUFFY	-0.028137721
-3.6240063	PURSUE	-0.028137721
-3.6240063	CAR.	-0.028137721
-3.357037	COMPANY	-0.028137721
-3.4819407	RENAMED	-0.028137721
-3.6240063	KIMBALL	-0.028137721
-3.6240063	INTERNATIONAL.	-0.028137721
-3.6240063	PUZZLES	-0.028137721
-3.6240063	PLATFORMING	-0.028137721
-3.6240063	ELEMENTS.	-0.028137721
-3.4819407	PLATFORMS.	-0.16664252
-3.6240063	GRADUATION,	-0.028137721
-3.6240063	ADMINISTRATOR	-0.028137721
-3.6240063	WESTERN'S	-0.028137721
-3.6240063	FRENCH	-0.028137721
-3.6240063	IMMERSION	-0.028137721
-3.6240063	AIRS	-0.028137721
-3.6240063	AMERICA	-0.028137721
-3.6240063	VIA	-0.028137721
-3.6240063	DISH	-0.028137721
-3.6240063	NETWORK.	-0.028137721
-3.6240063	SIGNING	-0.028137721
-3.6240063	ARTISTS,	-0.028137721
-3.6240063	MAKES	-0.028137721
-3.6240063	ONE-TIME	-0.028137721
-3.6240063	DEALS	-0.028137721
-3.6240063	RELEASE	-0.028137721
-3.6240063	SINGLES.	-0.028137721
-3.6240063	REBUILT	-0.028137721
-3.6240063	SIMPLY	-0.028137721
-3.6240063	'WELLS'.	-0.028137721
-3.6240063	ENOUGH	-0.028137721
-3.6240063	CONFLICT.	-0.028137721
-3.6240063	KOREA,	-0.028137721
-3.6240063	CARNATIONS	-0.028137721
-3.4819407	EXPRESS	-0.028137721
-3.6240063	ADMIRATION,	-0.028137721
-3.6240063	GRATITUDE.	-0.028137721
-3.6240063	NAVAL	-0.028137721
-3.6240063	ACADEMY	-0.028137721
-3.6240063	ANNAPOLIS.	-0.028137721
-3.6240063	LIKES	-0.028137721
-3.6240063	FLOWER	-0.028137721
-3.6240063	NECTAR,	-0.028137721
-3.6240063	FRUIT	-0.028137721
-3.6240063	SEEDS.	-0.028137721
-3.6240063	GRADUATION	-0.028137721
-3.6240063	ROYAL	-0.028137721
-3.6240063	PRUSSIAN	-0.028137721
-3.6240063	GEOLOGICAL	-0.028137721
-3.6240063	INSTITUTE,	-0.028137721
-3.4819407	MAKING	-0.028137721
-3.6240063	PHOTOGRAPHIC	-0.028137721
-3.6240063	BUILDER	-0.028137721
-3.6240063	EMPLOYED	-0.028137721
-3.6240063	HEATHROW	-0.028137721
-3.6240063	AIRPORT.	-0.028137721
-3.6240063	POSSIBLE	-0.028137721
-3.6240063	EXPLANATION	-0.028137721
-3.4819407	ASSOCIATED	-0.16664252
-3.6240063	STIGMATA.	-0.028137721
-3.6240063	MARYLAND.	-0.028137721
-3.6240063	CUTTINGS	-0.028137721
-3.6240063	SLOW	-0.028137721
-3.6240063	STRIKE	-0.028137721
-3.6240063	ROOTS.	-0.028137721
-3.6240063	UNDERGRADUATE	-0.028137721
-3.6240063	THEOLOGICAL	-0.028137721
-3.6240063	STUDIES	-0.028137721
-3.6240063	OVERALL	-0.028137721
-3.4819407	VIEW	-0.16664252
-3.6240063	CHRISTIAN	-0.028137721
-3.6240063	MYSTERY.	-0.028137721
-3.6240063	BALANGIGA	-0.028137721
-3.6240063	REACHED	-0.028137721
-3.6240063	PUBLIC	-0.028137721
-3.6240063	UTILITY	-0.028137721
-3.6240063	VANS	-0.028137721
-3.6240063	BUSES	-0.028137721
-3.6240063	TACLOBAN	-0.028137721
-3.4819407	CITY.	-0.16664252
-3.6240063	COMEDY	-0.028137721
-3.6240063	AWKWARD	-0.028137721
-3.6240063	POOR	-0.028137721
-3.6240063	VERSIFICATION.	-0.028137721
-3.6240063	"SHINING	-0.028137721
-3.6240063	STAR"	-0.028137721
-3.6240063	CORE	-0.028137721
-3.6240063	WORLDS.	-0.028137721
-3.6240063	WIN	-0.028137721
-3.6240063	EARNS	-0.028137721
-3.6240063	TWO-YEAR	-0.028137721
-3.6240063	EXEMPTION	-0.028137721
-3.6240063	EVENTS.	-0.028137721
-3.6240063	FORGERIES	-0.028137721
-3.6240063	CONCEAL	-0.028137721
-3.6240063	IDENTITIES.	-0.028137721
-3.6240063	MOORE	-0.028137721
-3.6240063	LIVES	-0.028137721
-3.6240063	TORONTO.	-0.028137721
-3.6240063	LAO,	-0.028137721
-3.6240063	REPRESENTS	-0.028137721
-3.6240063	DOUBLED	-0.028137721
-3.6240063	WORD.	-0.028137721
-3.6240063	ILLUSTRATIONS	-0.028137721
-3.6240063	CREATED	-0.028137721
-3.6240063	MAGAZINE	-0.028137721
-3.6240063	DEPICT	-0.028137721
-3.6240063	FILM.	-0.028137721
-3.6240063	DIDN'T	-0.028137721
-3.6240063	BOTHER	-0.028137721
-3.6240063	SAYING	-0.028137721
-3.6240063	'THIS	-0.028137721
-3.6240063	SUCKS'	-0.028137721
-3.6240063	ANYMORE.	-0.028137721
-3.6240063	HEADQUARTERS	-0.028137721
-3.6240063	DAMATURU,	-0.028137721
-3.4819407	CAPITAL.	-0.16664252
-3.6240063	DON'T	-0.028137721
-3.6240063	REALLY	-0.028137721
-3.6240063	GOD	-0.028137721
-3.6240063	RANK	-0.028137721
-3.6240063	CONFUSING	-0.028137721
-3.6240063	HISTORY.	-0.028137721
-3.6240063	EXPERIENCED	-0.028137721
-3.6240063	WEIGHTLESSNESS	-0.028137721
-3.6240063	CURVATURE	-0.028137721
-3.6240063	EARTH.	-0.028137721
-3.6240063	HOLMES	-0.028137721
-3.6240063	VERSUS	-0.028137721
-3.6240063	COONEY	-0.028137721
-3.6240063	REFEREED	-0.028137721
-3.6240063	MILLS	-0.028137721
-3.6240063	LANE.	-0.028137721
-3.6240063	FREEWAY	-0.028137721
-3.6240063	ENTIRE	-0.028137721
-3.6240063	LENGTH.	-0.028137721
-3.6240063	LEGENDARY	-0.028137721
-3.6240063	DANCE	-0.028137721
-3.4819407	WORLD.	-0.16664252
-3.6240063	MOUNTAINS	-0.028137721
-3.6240063	SEPARATE	-0.028137721
-3.6240063	LUZON'S	-0.028137721
-3.6240063	PLAIN	-0.028137721
-3.6240063	CHINA	-0.028137721
-3.6240063	SEA.	-0.028137721
-3.6240063	FUNDAMENTAL	-0.028137721
-3.6240063	JUSTICE	-0.028137721
-3.6240063	THUS	-0.028137721
-3.6240063	VIOLATED.	-0.028137721
-3.6240063	MOSQUE	-0.028137721
-3.6240063	SITIO	-0.028137721
-3.6240063	BOLANGAN	-0.028137721
-3.6240063	OUTSKIRTS	-0.028137721
-3.6240063	BEARING	-0.028137721
-3.6240063	PAGAN	-0.028137721
-3.4819407	SIMILAR	-0.028137721
-3.6240063	CHARLOTTE	-0.028137721
-3.6240063	PERKINS	-0.028137721
-3.6240063	GILMAN'S	-0.028137721
-3.4819407	STORY	-0.028137721
-3.6240063	YELLOW	-0.028137721
-3.6240063	WALLPAPER".	-0.028137721
-3.6240063	ESTABLISHMENT	-0.028137721
-3.6240063	COMMANDED	-0.028137721
-3.6240063	OFFICER	-0.028137721
-3.6240063	LIEUTENANT	-0.028137721
-3.6240063	COMMANDER.	-0.028137721
-3.6240063	APPLICATION	-0.028137721
-3.6240063	PATIENT.	-0.028137721
-3.4819407	BECOME	-0.028137721
-3.6240063	SULTAN	-0.028137721
-3.6240063	HUSAYN	-0.028137721
-3.6240063	MIRZA'S	-0.028137721
-3.6240063	MERCENARY	-0.028137721
-3.6240063	FORCE.	-0.028137721
-3.6240063	RESCUE	-0.028137721
-3.6240063	OPERATION	-0.028137721
-3.6240063	AFFECTED	-0.028137721
-3.6240063	RAIN.	-0.028137721
-3.6240063	SANTA	-0.028137721
-3.6240063	MONICA	-0.028137721
-3.6240063	MEN	-0.028137721
-3.4819407	LEFT	-0.028137721
-3.4819407	EVERYTHING	-0.028137721
-3.6240063	RING.	-0.028137721
-3.6240063	AUTOMATICALLY	-0.028137721
-3.6240063	INCUR	-0.028137721
-3.6240063	DEDUCTION	-0.028137721
-3.6240063	LEVEL	-0.028137721
-3.6240063	GYMNAST	-0.028137721
-3.6240063	ON.	-0.028137721
-3.6240063	PAINTED	-0.028137721
-3.6240063	CHAPEL	-0.028137721
-3.6240063	PICTURE	-0.028137721
-3.6240063	JUDGMENT.	-0.028137721
-3.6240063	BARBOUR	-0.028137721
-3.4819407	UNTIL	-0.16664252
-3.6240063	FOURTEEN	-0.028137721
-3.6240063	OLD.	-0.028137721
-3.6240063	ORGANISATIONS	-0.028137721
-3.6240063	SUPPORTING	-0.028137721
-3.357037	PEOPLE	-0.028137721
-3.6240063	UNDERTAKING	-0.028137721
-3.6240063	JOURNEY.	-0.028137721
-3.6240063	TEAM	-0.028137721
-3.6240063	SPLIT	-0.028137721
-3.4819407	SEASON.	-0.16664252
-3.6240063	SISTER	-0.028137721
-3.6240063	JOHN	-0.028137721
-3.6240063	DARLEY,	-0.028137721
-3.6240063	BISHOP	-0.028137721
-3.6240063	KILMORE,	-0.028137721
-3.6240063	ELPHIN,	-0.028137721
-3.6240063	ARDAGH.	-0.028137721
-3.6240063	HOME	-0.028137721
-3.6240063	LADEN	-0.028137721
-3.6240063	SOUVENIR	-0.028137721
-3.4819407	GIFTS	-0.028137721
-3.6240063	EXPENSIVE	-0.028137721
-3.6240063	PAINTINGS.	-0.028137721
-3.6240063	BILLED	-0.028137721
-3.6240063	ANTI-CONSUMER	-0.028137721
-3.6240063	LIFESTYLE.	-0.028137721
-3.6240063	CENTRE	-0.028137721
-3.4819407	RAILWAY	-0.028137721
-3.6240063	CONSTRUCTION.	-0.028137721
-3.6240063	APPEALED	-0.028137721
-3.4819407	SUBSEQUENTLY	-0.028137721
-3.6240063	SUSPENDED	-0.028137721
-3.6240063	SENTENCE	-0.028137721
-3.6240063	FINE.	-0.028137721
-3.6240063	PRESTON'S	-0.028137721
-3.6240063	BOOKS	-0.028137721
-3.6240063	THOROUGH	-0.028137721
-3.6240063	RESEARCH.	-0.028137721
-3.6240063	CALCULATED	-0.028137721
-3.6240063	KILLING	-0.028137721
-3.6240063	COLD	-0.028137721
-3.6240063	BLOOD.	-0.028137721
-3.6240063	COMMAND	-0.028137721
-3.6240063	STRUCTURE	-0.028137721
-3.6240063	SPECIAL	-0.028137721
-3.357037	SERVICE	-0.028137721
-3.6240063	BRIGADE	-0.028137721
-3.6240063	COMMAND.	-0.028137721
-3.6240063	PARASITES.	-0.028137721
-3.6240063	KEEL	-0.028137721
-3.6240063	LAID	-0.028137721
-3.6240063	PORTSMOUTH	-0.028137721
-3.6240063	NAVY	-0.028137721
-3.6240063	YARD.	-0.028137721
-3.6240063	MANAGED	-0.028137721
-3.6240063	STEAL	-0.028137721
-3.6240063	GUN	-0.028137721
-3.6240063	SHOOT	-0.028137721
-3.6240063	GERMAN,	-0.028137721
-3.6240063	INJURING	-0.028137721
-3.6240063	BAND	-0.028137721
-3.4819407	PRODUCED	-0.028137721
-3.6240063	THEMSELVES.	-0.028137721
-3.6240063	METRORAIL'S	-0.028137721
-3.6240063	ORANGE	-0.028137721
-3.4819407	LINE	-0.028137721
-3.4819407	CLOSELY	-0.028137721
-3.6240063	FOLLOWS	-0.028137721
-3.6240063	LINE'S	-0.028137721
-3.6240063	ROUTE.	-0.028137721
-3.6240063	COMPOSER	-0.028137721
-3.6240063	MARRIED,	-0.028137721
-3.6240063	NAMES	-0.028137721
-3.6240063	LOVERS	-0.028137721
-3.6240063	RECORDED.	-0.028137721
-3.6240063	EXPLAIN	-0.028137721
-3.6240063	TERM	-0.028137721
-3.6240063	"BLUE	-0.028137721
-3.6240063	BOX".	-0.028137721
-3.4819407	LIGHT	-0.028137721
-3.6240063	SCULPTURE	-0.028137721
-3.6240063	RHEINTURM	-0.028137721
-3.6240063	LARGEST	-0.028137721
-3.6240063	DIGITAL	-0.028137721
-3.6240063	CLOCK	-0.028137721
-3.6240063	AUSTRIA	-0.028137721
-3.6240063	QUALIFIED	-0.028137721
-3.6240063	MALE	-0.028137721
-3.6240063	SWIMMER.	-0.028137721
-3.6240063	CORRECTLY,	-0.028137721
-3.6240063	FAIRLY	-0.028137721
-3.6240063	DEGREE	-0.028137721
-3.6240063	PRECISION	-0.028137721
-3.6240063	ACHIEVED.	-0.028137721
-3.6240063	MUSEUM	-0.028137721
-3.6240063	MONACO	-0.028137721
-3.4819407	INSTALLED	-0.028137721
-3.6240063	LEVELS.	-0.028137721
-3.6240063	STRONGLY	-0.028137721
-3.6240063	LINKED	-0.028137721
-3.6240063	MAYO,	-0.028137721
-3.6240063	CONNACHT.	-0.028137721
-3.6240063	PARTICULARLY	-0.028137721
-3.6240063	REMARKABLE	-0.028137721
-3.6240063	THOSE	-0.028137721
-3.6240063	OSTRACA	-0.028137721
-3.6240063	CONTAIN	-0.028137721
-3.6240063	LITURGICAL	-0.028137721
-3.6240063	SONGS.	-0.028137721
-3.6240063	BEVEL	-0.028137721
-3.6240063	GEARS	-0.028137721
-3.6240063	SHAFT.	-0.028137721
-3.6240063	STATION'S	-0.028137721
-3.6240063	PROGRAMMING	-0.028137721
-3.6240063	NOTTINGHAM.	-0.028137721
-3.6240063	MALLET	-0.028137721
-3.6240063	DESIGNS	-0.028137721
-3.4819407	POPULAR	-0.028137721
-3.6240063	HUNGARY,	-0.028137721
-3.6240063	TOO.	-0.028137721
-3.4819407	CASES	-0.028137721
-3.6240063	INFECTED	-0.028137721
-3.6240063	CONTACT	-0.028137721
-3.6240063	SICK	-0.028137721
-3.6240063	HORSES.	-0.028137721
-3.4819407	SOON	-0.028137721
-3.6240063	RECORDED	-0.028137721
-3.6240063	"FOR	-0.028137721
-3.6240063	GIRLS	-0.028137721
-3.6240063	RECEIVED	-0.028137721
-3.6240063	UPDATED	-0.028137721
-3.6240063	CAB	-0.028137721
-3.6240063	SIGNALING	-0.028137721
-3.4819407	REGIONAL	-0.028137721
-3.4819407	PROGRAMS	-0.028137721
-3.6240063	"SWITCHBACK",	-0.028137721
-3.6240063	"LAND	-0.028137721
-3.6240063	SEA".	-0.028137721
-3.6240063	ORBIT,	-0.028137721
-3.6240063	STABILIZER	-0.028137721
-3.6240063	NON-TRIVIAL.	-0.028137721
-3.6240063	JOHNSON	-0.028137721
-3.6240063	EARNED	-0.028137721
-3.6240063	PRO	-0.028137721
-3.6240063	BOWL	-0.028137721
-3.6240063	BERTH	-0.028137721
-3.4819407	CABLE	-0.028137721
-3.6240063	ENDS	-0.028137721
-3.6240063	SHOOTING	-0.028137721
-3.6240063	HAMMER,	-0.028137721
-3.6240063	PARALYZING	-0.028137721
-3.6240063	BOAT	-0.028137721
-3.6240063	SINKING	-0.028137721
-3.6240063	CREW	-0.028137721
-3.6240063	ABANDONING	-0.028137721
-3.6240063	SHIP.	-0.028137721
-3.6240063	BECOMES	-0.028137721
-3.6240063	SLAVE	-0.028137721
-3.6240063	FREES	-0.028137721
-3.6240063	HERSELF.	-0.028137721
-3.6240063	MONTH	-0.028137721
-3.6240063	BEFORE	-0.028137721
-3.6240063	TITLE,	-0.028137721
-3.6240063	BROTHER	-0.028137721
-3.6240063	MURDERED.	-0.028137721
-3.6240063	HASSELBACH'S	-0.028137721
-3.6240063	COMMUNIST-PARTY	-0.028137721
-3.6240063	LOYAL	-0.028137721
-3.6240063	JOURNALISTS.	-0.028137721
-3.6240063	TOWNS	-0.028137721
-3.6240063	COMMUNE	-0.028137721
-3.6240063	BASBELLAIN,	-0.028137721
-3.6240063	DRINKLANGE,	-0.028137721
-3.6240063	HAUTBELLAIN,	-0.028137721
-3.6240063	HULDANGE,	-0.028137721
-3.6240063	WILWERDANGE.	-0.028137721
-3.6240063	ADDITIONALLY,	-0.028137721
-3.6240063	UNIT	-0.028137721
-3.6240063	UNUSUAL	-0.028137721
-3.6240063	NON-PASSENGER	-0.028137721
-3.6240063	WORKINGS.	-0.028137721
-3.6240063	PATIENTS’	-0.028137721
-3.6240063	WELFARE	-0.028137721
-3.6240063	GRATEFULLY	-0.028137721
-3.6240063	ACKNOWLEDGED	-0.028137721
-3.6240063	MOVE.	-0.028137721
-3.6240063	BLAIR	-0.028137721
-3.6240063	HISTORIANS	-0.028137721
-3.6240063	TRAIN	-0.028137721
-3.6240063	ADVISE	-0.028137721
-3.6240063	THEM.	-0.028137721
-3.6240063	REGION'S	-0.028137721
-3.4819407	ACTIVITIES	-0.028137721
-3.6240063	COTTON	-0.028137721
-3.6240063	CEREAL	-0.028137721
-3.6240063	GROWING,	-0.028137721
-3.6240063	WINEMAKING	-0.028137721
-3.6240063	SERICULTURE.	-0.028137721
-3.6240063	UNINCORPORATED	-0.028137721
-3.6240063	COMMUNITIES	-0.028137721
-3.6240063	LARSEN,	-0.028137721
-3.6240063	MEDINA	-0.028137721
-3.6240063	JUNCTION,	-0.028137721
-3.6240063	MIKESVILLE	-0.028137721
-3.6240063	TOWN.	-0.028137721
-3.6240063	PAIR	-0.028137721
-3.6240063	CAUSE	-0.028137721
-3.6240063	UNDERSEA	-0.028137721
-3.6240063	AVALANCHE	-0.028137721
-3.6240063	BURIES	-0.028137721
-3.6240063	MONTHS.	-0.028137721
-3.6240063	SABBATH	-0.028137721
-3.6240063	LOSES	-0.028137721
-3.6240063	DOCTOR'S	-0.028137721
-3.6240063	TIME-SENSITIVE	-0.028137721
-3.6240063	HEART	-0.028137721
-3.6240063	GROWS	-0.028137721
-3.6240063	ONE.	-0.028137721
-3.6240063	THEREFORE	-0.028137721
-3.6240063	NOBILITY	-0.028137721
-3.6240063	UNTITLED	-0.028137721
-3.6240063	NETHERLANDS.	-0.028137721
-3.6240063	WRITE	-0.028137721
-3.6240063	ME	-0.028137721
-3.6240063	NOTHING	-0.028137721
-3.6240063	YEAR-LONG	-0.028137721
-3.6240063	LAYOFF,	-0.028137721
-3.4819407	RETURNED	-0.028137721
-3.6240063	TRAINING.	-0.028137721
-3.6240063	CYLINDER	-0.028137721
-3.6240063	BANK.	-0.028137721
-3.4819407	TRADITIONAL	-0.028137721
-3.6240063	BOATS	-0.028137721
-3.6240063	"KETEKS"	-0.028137721
-3.6240063	SAMPANS.	-0.028137721
-3.6240063	GOVERNMENT	-0.028137721
-3.6240063	COUNCIL-MANAGER	-0.028137721
-3.6240063	FORM	-0.028137721
-3.6240063	GOVERNMENT.	-0.028137721
-3.6240063	SOCIETY	-0.028137721
-3.6240063	YEAR.	-0.028137721
-3.6240063	AFTERNOON,	-0.028137721
-3.6240063	MRS.	-0.028137721
-3.6240063	BLEWETT.	-0.028137721
-3.6240063	ELECTION,	-0.028137721
-3.6240063	LIST.	-0.028137721
-3.6240063	LAI	-0.028137721
-3.6240063	TEACHING	-0.028137721
-3.6240063	SACRED	-0.028137721
-3.6240063	HEARTS	-0.028137721
-3.6240063	CONVENT.	-0.028137721
-3.6240063	MEANING:	-0.028137721
-3.6240063	TRIBE.	-0.028137721
-3.6240063	MUTE	-0.028137721
-3.6240063	WRITES	-0.028137721
-3.6240063	WANTS	-0.028137721
-3.6240063	SAY.	-0.028137721
-3.6240063	MOSES	-0.028137721
-3.6240063	GATE,	-0.028137721
-3.6240063	METROLINK	-0.028137721
-3.6240063	RADCLIFFE	-0.028137721
-3.6240063	STOP.	-0.028137721
-3.6240063	ADMINISTRATIVELY	-0.028137721
-3.6240063	SERMERSOOQ	-0.028137721
-3.6240063	MUNICIPALITY.	-0.028137721
-3.6240063	PICKUP	-0.028137721
-3.6240063	TRUCKS	-0.028137721
-3.6240063	FIFTH	-0.028137721
-3.6240063	GEAR.	-0.028137721
-3.4819407	RESIDENTIAL	-0.028137721
-3.6240063	AGRICULTURAL,	-0.028137721
-3.6240063	INDUSTRY.	-0.028137721
-3.6240063	FISHER	-0.028137721
-3.6240063	SUED	-0.028137721
-3.6240063	DEES	-0.028137721
-3.6240063	COPYRIGHT	-0.028137721
-3.6240063	INFRINGEMENT.	-0.028137721
-3.6240063	LIE	-0.028137721
-3.6240063	TO.	-0.028137721
-3.6240063	ALEXANDER'S	-0.028137721
-3.6240063	RECOGNIZED	-0.028137721
-3.6240063	ROMAN	-0.028137721
-3.6240063	SENATE,	-0.028137721
-3.6240063	PTOLEMY	-0.028137721
-3.6240063	PHILOMETOR	-0.028137721
-3.6240063	EGYPT	-0.028137721
-3.6240063	OTHERS.	-0.028137721
-3.6240063	POPE	-0.028137721
-3.6240063	ARGUABLY	-0.028137721
-3.6240063	SATIRISES	-0.028137721
-3.6240063	LOOKING	-0.028137721
-3.6240063	DOWN	-0.028137721
-3.6240063	JUDGMENTALLY	-0.028137721
-3.6240063	CHARACTERS.	-0.028137721
-3.6240063	CAVEAT	-0.028137721
-3.6240063	SUPREME	-0.028137721
-3.4819407	COURT	-0.028137721
-3.6240063	NORTHWEST	-0.028137721
-3.6240063	TERRITORIES.	-0.028137721
-3.6240063	DUTY	-0.028137721
-3.6240063	ENFORCE	-0.028137721
-3.6240063	JUDGEMENTS	-0.028137721
-3.6240063	COURTS.	-0.028137721
-3.6240063	APPEARS	-0.028137721
-3.6240063	LEWIS	-0.028137721
-3.6240063	CLARK'S	-0.028137721
-3.6240063	MAPS	-0.028137721
-3.6240063	"PORT-PEL-LAH".	-0.028137721
-3.6240063	DEMERIT	-0.028137721
-3.6240063	POINTS	-0.028137721
-3.6240063	CLOSE	-0.028137721
-3.6240063	RELATION	-0.028137721
-3.6240063	STUDENTS'	-0.028137721
-3.6240063	CONDUCT	-0.028137721
-3.6240063	GRADE.	-0.028137721
-3.6240063	SHIP	-0.028137721
-3.6240063	COMMANDER	-0.028137721
-3.6240063	RAGAN	-0.028137721
-3.6240063	KING.	-0.028137721
-3.6240063	SITE	-0.028137721
-3.6240063	TESCO	-0.028137721
-3.6240063	SUPERMARKET.	-0.028137721
-3.6240063	VARIOUS	-0.028137721
-3.6240063	ACADEMIC	-0.028137721
-3.6240063	INSTITUTIONS	-0.028137721
-3.6240063	OFFER	-0.028137721
-3.6240063	COURSES	-0.028137721
-3.6240063	ETHICS	-0.028137721
-3.6240063	MEDICAL	-0.028137721
-3.6240063	HUMANITIES.	-0.028137721
-3.6240063	UNDELETION	-0.028137721
-3.6240063	FAIL-SAFE.	-0.028137721
-3.6240063	DATE	-0.028137721
-3.6240063	POSTPONED.	-0.028137721
-3.4819407	TRANSMISSION	-0.028137721
-3.4819407	ELECTRON	-0.028137721
-3.6240063	MICROSCOPE	-0.028137721
-3.6240063	PROTOTYPE	-0.028137721
-3.6240063	MICROSCOPES.	-0.028137721
-3.6240063	TUSSOCK	-0.028137721
-3.6240063	TUNDRA	-0.028137721
-3.6240063	DOMINATES	-0.028137721
-3.6240063	TERRAIN	-0.028137721
-3.6240063	SURROUNDING	-0.028137721
-3.6240063	SCARLETT	-0.028137721
-3.6240063	ACCEPTS	-0.028137721
-3.6240063	RHETT'S	-0.028137721
-3.6240063	MONEY.	-0.028137721
-3.6240063	SPECIALIZED	-0.028137721
-3.6240063	PUNK	-0.028137721
-3.6240063	ROCK,	-0.028137721
-3.6240063	INDIE	-0.028137721
-3.6240063	ROCK	-0.028137721
-3.6240063	EMO.	-0.028137721
-3.6240063	NEWPORT	-0.028137721
-3.6240063	BEACH	-0.028137721
-3.6240063	PLANT	-0.028137721
-3.6240063	DEMOLISHED,	-0.028137721
-3.6240063	REZONED	-0.028137721
-3.6240063	DEVELOPMENT.	-0.028137721
-3.6240063	VARIETIES	-0.028137721
-3.6240063	INTRODUCED.	-0.028137721
-3.6240063	VAST	-0.028137721
-3.6240063	AFRICAN	-0.028137721
-3.6240063	OIL	-0.028137721
-3.6240063	PALM	-0.028137721
-3.6240063	PLANTATIONS	-0.028137721
-3.6240063	DOT	-0.028137721
-3.4819407	AREA.	-0.16664252
-3.4819407	SOMETIMES	-0.028137721
-3.6240063	FERRY	-0.028137721
-3.6240063	POWERED	-0.028137721
-3.6240063	SOMEONE	-0.028137721
-3.6240063	BOAT.	-0.028137721
-3.6240063	LAWYERS,	-0.028137721
-3.6240063	FRIENDS,	-0.028137721
-3.6240063	LIBERTARIANS	-0.028137721
-3.6240063	GIVE	-0.028137721
-3.6240063	STORY.	-0.028137721
-3.6240063	POEMS	-0.028137721
-3.4819407	INSPIRED	-0.028137721
-3.6240063	LATE	-0.028137721
-3.6240063	GIRL.	-0.028137721
-3.6240063	POSTS	-0.028137721
-3.6240063	PRIME	-0.028137721
-3.6240063	MINISTER	-0.028137721
-3.4819407	FOREIGN	-0.028137721
-3.6240063	MINISTER.	-0.028137721
-3.6240063	HONEST	-0.028137721
-3.6240063	JOHN.	-0.028137721
-3.6240063	LOMBARD	-0.028137721
-3.6240063	INVASION	-0.028137721
-3.4819407	BELONGED	-0.028137721
-3.6240063	DUCHY	-0.028137721
-3.6240063	IVREA.	-0.028137721
-3.6240063	EXAMPLE,	-0.028137721
-3.6240063	STINT	-0.028137721
-3.4819407	WHAT'S	-0.028137721
-3.6240063	LINE?	-0.028137721
-3.6240063	HICKS	-0.028137721
-3.6240063	BEACH,	-0.028137721
-3.4819407	CALIFORNIA.	-0.16664252
-3.6240063	BULLPUP	-0.028137721
-3.6240063	CONFIGURATION	-0.028137721
-3.6240063	KUSHNAPUP	-0.028137721
-3.6240063	AVAILABLE	-0.028137721
-3.6240063	SAIGA	-0.028137721
-3.6240063	CALIBERS.	-0.028137721
-3.6240063	ELIGIBLE	-0.028137721
-3.6240063	FACILITIES	-0.028137721
-3.6240063	ENGLAND,	-0.028137721
-3.6240063	WALES	-0.028137721
-3.6240063	IRELAND.	-0.028137721
-3.6240063	HARRIS	-0.028137721
-3.6240063	PAINT	-0.028137721
-3.6240063	"A	-0.028137721
-3.6240063	TRUSTEES".	-0.028137721
-3.6240063	SONIC,	-0.028137721
-3.6240063	TAILS	-0.028137721
-3.6240063	SWIM	-0.028137721
-3.6240063	UNDERWATER.	-0.028137721
-3.6240063	TOWNSHIP	-0.028137721
-3.6240063	INCLUDES	-0.028137721
-3.6240063	DECORIA	-0.028137721
-3.6240063	STAINED-GLASS	-0.028137721
-3.6240063	WINDOWS	-0.028137721
-3.6240063	CHAMP-DE-MARS	-0.028137721
-3.6240063	METRO	-0.028137721
-3.6240063	MONTREAL.	-0.028137721
-3.6240063	GENERATION	-0.028137721
-3.6240063	ACTORS	-0.028137721
-3.6240063	IVAN	-0.028137721
-3.6240063	VAZOV	-0.028137721
-3.6240063	THEATER.	-0.028137721
-3.6240063	ODDER	-0.028137721
-3.6240063	AARHUS.	-0.028137721
-3.6240063	"ON"	-0.028137721
-3.6240063	EARTH?	-0.028137721
-3.6240063	CLIMB	-0.028137721
-3.6240063	HOME.	-0.028137721
-3.6240063	WINDOW	-0.028137721
-3.6240063	MANAGEMENT	-0.028137721
-3.6240063	TRANSPARENT	-0.028137721
-3.6240063	APPLICATION.	-0.028137721
-3.6240063	CAMPAIGNED	-0.028137721
-3.4819407	AGAINST	-0.028137721
-3.6240063	RELIANCE	-0.028137721
-3.6240063	HOSPITALITY	-0.028137721
-3.6240063	STAFF	-0.028137721
-3.6240063	TIPS.	-0.028137721
-3.6240063	FOUR	-0.028137721
-3.6240063	CHILDREN,	-0.028137721
-3.6240063	LOS	-0.028137721
-3.6240063	ANGELES,	-0.028137721
-3.6240063	OPERAS	-0.028137721
-3.6240063	INCLUDING	-0.028137721
-3.6240063	"LUCREZIA	-0.028137721
-3.6240063	BORGIA"	-0.028137721
-3.6240063	PRODUCTIONS	-0.028137721
-3.6240063	DAME	-0.028137721
-3.6240063	JOAN	-0.028137721
-3.6240063	SUTHERLAND.	-0.028137721
-3.6240063	WHO	-0.028137721
-3.6240063	HE?	-0.028137721
-3.6240063	INCREASED	-0.028137721
-3.6240063	DETAIL	-0.028137721
-3.6240063	APPARENT	-0.028137721
-3.4819407	GRAND	-0.028137721
-3.6240063	PRIX	-0.028137721
-3.6240063	MODE.	-0.028137721
-3.6240063	PRODUCES	-0.028137721
-3.6240063	TROPHY	-0.028137721
-3.6240063	BASS	-0.028137721
-3.6240063	ANNUALLY.	-0.028137721
-3.6240063	PUEBLO	-0.028137721
-3.6240063	VINELAND,	-0.028137721
-3.6240063	RESIDENTS.	-0.028137721
-3.6240063	ISOTOPES	-0.028137721
-3.6240063	HALF-LIVES	-0.028137721
-3.357037	UNDER	-0.028137721
-3.6240063	DAY,	-0.028137721
-3.6240063	HOUR.	-0.028137721
-3.6240063	OVERALL,	-0.028137721
-3.6240063	ECONOMY	-0.028137721
-3.6240063	EXPAND,	-0.028137721
-3.6240063	"AND"	-0.028137721
-3.6240063	PRODUCTIVITY	-0.028137721
-3.6240063	PER	-0.028137721
-3.6240063	WORKER	-0.028137721
-3.6240063	INCREASE.	-0.028137721
-3.6240063	XENO	-0.028137721
-3.6240063	AFTER.	-0.028137721
-3.4819407	DRAINAGE	-0.028137721
-3.6240063	DENSITY	-0.028137721
-3.6240063	DEPENDS	-0.028137721
-3.6240063	UPON	-0.028137721
-3.6240063	CLIMATE	-0.028137721
-3.6240063	CHARACTERISTICS	-0.028137721
-3.6240063	BASIN.	-0.028137721
-3.6240063	CHOLESTEROL	-0.028137721
-3.6240063	REGULATES	-0.028137721
-3.6240063	MEMBRANE	-0.028137721
-3.6240063	PROTEINS	-0.028137721
-3.6240063	LIPID	-0.028137721
-3.6240063	RAFTS.	-0.028137721
-3.6240063	EDIACARAN	-0.028137721
-3.6240063	FEDERATION	-0.028137721
-3.6240063	AUSTRALIA.	-0.028137721
-3.6240063	MCNEIL	-0.028137721
-3.6240063	CONFIDENT	-0.028137721
-3.6240063	STRENGTH	-0.028137721
-3.6240063	REFUSED	-0.028137721
-3.6240063	SURRENDER.	-0.028137721
-3.6240063	SUSPENSE	-0.028137721
-3.6240063	POWER.	-0.028137721
-3.6240063	WORK	-0.028137721
-3.6240063	BOOKS.	-0.028137721
-3.6240063	CONGRESS	-0.028137721
-3.6240063	PASSED	-0.028137721
-3.6240063	ACT	-0.028137721
-3.6240063	ORDER	-0.028137721
-3.6240063	AVOID	-0.028137721
-3.6240063	NATIONWIDE	-0.028137721
-3.6240063	STRIKE.	-0.028137721
-3.6240063	FILMED	-0.028137721
-3.6240063	TITLE	-0.028137721
-3.6240063	"JERSEY".	-0.028137721
-3.6240063	DIFFICULT,	-0.028137721
-3.6240063	PROFESSION	-0.028137721
-3.6240063	PERSONAL	-0.028137721
-3.6240063	RELATIONSHIPS	-0.028137721
-3.6240063	INTERTWINED.	-0.028137721
-3.6240063	CLUBS	-0.028137721
-3.4819407	REPRESENTED	-0.028137721
-3.6240063	LISTED.	-0.028137721
-3.6240063	TECHNIQUE	-0.028137721
-3.6240063	HAND	-0.028137721
-3.6240063	PRINTING	-0.028137721
-3.6240063	INK	-0.028137721
-3.6240063	MIXED	-0.028137721
-3.6240063	MEDIA.	-0.028137721
-3.6240063	WORD	-0.028137721
-3.6240063	RELATED	-0.028137721
-3.4819407	"TO	-0.028137721
-3.6240063	SUNDER"	-0.028137721
-3.6240063	MEANING	-0.028137721
-3.6240063	SEPARATE".	-0.028137721
-3.6240063	CLUB'S	-0.028137721
-3.6240063	TOP	-0.028137721
-3.6240063	SCORER.	-0.028137721
-3.6240063	GEORGE	-0.028137721
-3.6240063	EXPLORES	-0.028137721
-3.6240063	RESCUES	-0.028137721
-3.6240063	PARAGLIDER	-0.028137721
-3.6240063	BAY	-0.028137721
-3.6240063	BRIDGE.	-0.028137721
-3.6240063	ALUMNI	-0.028137721
-3.6240063	OCCUPY	-0.028137721
-3.6240063	SENIOR	-0.028137721
-3.6240063	EXECUTIVE	-0.028137721
-3.6240063	INDIA	-0.028137721
-3.6240063	ABROAD.	-0.028137721
-3.6240063	ENQUIRY	-0.028137721
-3.6240063	AVAILABLE.	-0.028137721
-3.6240063	MINIMUM	-0.028137721
-3.6240063	PERFORMANCE	-0.028137721
-3.6240063	STANDARDS	-0.028137721
-3.6240063	ELIGIBILITY	-0.028137721
-3.6240063	CRITERIA	-0.028137721
-3.6240063	APPLY	-0.028137721
-3.6240063	NUCLEAR	-0.028137721
-3.6240063	CENTER	-0.028137721
-3.6240063	MEXICO	-0.028137721
-3.6240063	INAUGURATED	-0.028137721
-3.6240063	DEATH.	-0.028137721
-3.6240063	STAYS	-0.028137721
-3.6240063	HUT	-0.028137721
-3.6240063	SHELTER	-0.028137721
-3.6240063	SPECIALLY	-0.028137721
-3.6240063	HER.	-0.028137721
-3.6240063	OYSTER	-0.028137721
-3.4819407	WHOM	-0.028137721
-3.6240063	NOBODY	-0.028137721
-3.6240063	OPEN.	-0.028137721
-3.6240063	WAYNE	-0.028137721
-3.6240063	ENRAGED	-0.028137721
-3.4819407	DEMANDED	-0.028137721
-3.6240063	FULL	-0.028137721
-3.6240063	COURT-MARTIAL.	-0.028137721
-3.6240063	OPENING,	-0.028137721
-3.6240063	SNOOPY	-0.028137721
-3.6240063	PRACTICES	-0.028137721
-3.6240063	MAGIC	-0.028137721
-3.6240063	WOODSTOCK	-0.028137721
-3.6240063	SIDE.	-0.028137721
-3.6240063	DE	-0.028137721
-3.6240063	LUCO	-0.028137721
-3.6240063	BASQUE	-0.028137721
-3.6240063	COUNTRY.	-0.028137721
-3.6240063	EXCELLENT	-0.028137721
-3.6240063	ARRANGEMENT,	-0.028137721
-3.6240063	PEARCE.	-0.028137721
-3.6240063	POST	-0.028137721
-3.6240063	CONSTANT	-0.028137721
-3.6240063	TRAVELLING	-0.028137721
-3.6240063	EXTENSIVE	-0.028137721
-3.6240063	LATELY	-0.028137721
-3.6240063	DEBUTED	-0.028137721
-3.6240063	E!	-0.028137721
-3.6240063	ALTERNATIVELY,	-0.028137721
-3.6240063	MISSION	-0.028137721
-3.6240063	EQUIPMENT	-0.028137721
-3.6240063	CABIN	-0.028137721
-3.6240063	HOPEWELL	-0.028137721
-3.6240063	JUNCTION	-0.028137721
-3.6240063	FISHKILL.	-0.028137721
-3.6240063	TRANSLATED	-0.028137721
-3.6240063	"MEANINGFUL	-0.028137721
-3.6240063	HALLUCINATIONS"	-0.028137721
-3.6240063	"SEMANTIC	-0.028137721
-3.6240063	HALLUCINATIONS.	-0.028137721
-3.6240063	SCANDINAVIA	-0.028137721
-3.6240063	TRAVELLED	-0.028137721
-3.6240063	RUSSIA.	-0.028137721
-3.6240063	CAMERA	-0.028137721
-3.6240063	PUSHED	-0.028137721
-3.6240063	IMAGE	-0.028137721
-3.6240063	FILMED.	-0.028137721
-3.6240063	CLAIRE.	-0.028137721
-3.6240063	SO	-0.028137721
-3.6240063	ALMOST	-0.028137721
-3.6240063	ENTIRELY	-0.028137721
-3.6240063	ANNIE.	-0.028137721
-3.6240063	FINDS	-0.028137721
-3.6240063	DRAGON	-0.028137721
-3.6240063	CUSTODY.	-0.028137721
-3.6240063	SHIRT	-0.028137721
-3.6240063	LEADER	-0.028137721
-3.6240063	BEARS'	-0.028137721
-3.4819407	LIEUTENANT.	-0.16664252
-3.6240063	MARVEL	-0.028137721
-3.6240063	EDITORS	-0.028137721
-3.6240063	SCRAPPED	-0.028137721
-3.6240063	CONCERNS	-0.028137721
-3.6240063	CONTROVERSY	-0.028137721
-3.6240063	GENERATE.	-0.028137721
-3.6240063	COFFEY	-0.028137721
-3.6240063	OPENED	-0.028137721
-3.6240063	DOCK	-0.028137721
-3.6240063	DISTILLERY	-0.028137721
-3.6240063	CANAL	-0.028137721
-3.4819407	STREET	-0.028137721
-3.6240063	EVERYBODY	-0.028137721
-3.6240063	LIKED	-0.028137721
-3.6240063	HER,	-0.028137721
-3.6240063	TACT.	-0.028137721
-3.6240063	WRITTEN	-0.028137721
-3.6240063	NOVELS.	-0.028137721
-3.6240063	TEANECK,	-0.028137721
-3.6240063	TEANECK	-0.028137721
-3.6240063	INDIA,	-0.028137721
-3.6240063	ROOT	-0.028137721
-3.6240063	BARK	-0.028137721
-3.6240063	TANNING.	-0.028137721
-3.6240063	BARRIER	-0.028137721
-3.6240063	FREE	-0.028137721
-3.6240063	BUS	-0.028137721
-3.6240063	AMERICA,	-0.028137721
-3.6240063	VIRGINIA	-0.028137721
-3.6240063	ESTATE.	-0.028137721
-3.6240063	EMPHASIZE	-0.028137721
-3.6240063	CULTURAL,	-0.028137721
-3.6240063	SKILLS	-0.028137721
-3.6240063	TROOPS.	-0.028137721
-3.6240063	HIGHLIGHTED	-0.028137721
-3.6240063	SECTIONS.	-0.028137721
-3.6240063	CONTRIBUTIONS	-0.028137721
-3.6240063	DEFORMATION	-0.028137721
-3.6240063	THEORY	-0.028137721
-3.6240063	ALGEBRAIC	-0.028137721
-3.6240063	VARIETIES.	-0.028137721
-3.6240063	MINESWEEPERS,	-0.028137721
-3.6240063	EQUIPPED	-0.028137721
-3.6240063	SWEEPING	-0.028137721
-3.6240063	MOORED	-0.028137721
-3.6240063	MAGNETIC	-0.028137721
-3.6240063	MINES.	-0.028137721
-3.4819407	FAMOUS	-0.16664252
-3.6240063	DETAILS	-0.028137721
-3.6240063	EYELIDS	-0.028137721
-3.6240063	TOENAILS.	-0.028137721
-3.6240063	POSITION,	-0.028137721
-3.6240063	OVERSAW	-0.028137721
-3.6240063	REORGANISATION	-0.028137721
-3.6240063	DEVONSHIRE	-0.028137721
-3.6240063	ESTATES.	-0.028137721
-3.6240063	LIMESTONE	-0.028137721
-3.6240063	CAVES	-0.028137721
-3.6240063	DOES	-0.028137721
-3.6240063	EXIST	-0.028137721
-3.6240063	MOUNTAIN,	-0.028137721
-3.6240063	REMAIN	-0.028137721
-3.6240063	UNDOCUMENTED.	-0.028137721
-3.6240063	AGNOTHERAPY	-0.028137721
-3.6240063	METHOD	-0.028137721
-3.6240063	DEVELOPED	-0.028137721
-3.6240063	ISRAEL	-0.028137721
-3.6240063	ELDERLY	-0.028137721
-3.6240063	FEELINGS.	-0.028137721
-3.6240063	CHURCH	-0.028137721
-3.6240063	WAITING	-0.028137721
-3.6240063	TRAINS,	-0.028137721
-3.6240063	LIKE.	-0.028137721
-3.6240063	LITTLE	-0.028137721
-3.6240063	SURVIVED.	-0.028137721
-3.6240063	BEL	-0.028137721
-3.6240063	SELDOM	-0.028137721
-3.6240063	USED,	-0.028137721
-3.6240063	DECIBEL	-0.028137721
-3.6240063	UNIT.	-0.028137721
-3.6240063	VICTORIES	-0.028137721
-3.6240063	BEGUN	-0.028137721
-3.6240063	ADD	-0.028137721
-3.6240063	UP.	-0.028137721
-3.6240063	AMBIGUOUS	-0.028137721
-3.6240063	PRIVATELY	-0.028137721
-3.6240063	UNQUOTED	-0.028137721
-3.6240063	UNLISTED	-0.028137721
-3.6240063	SINATRA	-0.028137721
-3.6240063	LIZA	-0.028137721
-3.6240063	MINNELLI.	-0.028137721
-3.6240063	DEFINED	-0.028137721
-3.6240063	CONFORMATION	-0.028137721
-3.6240063	COMPETITIONS	-0.028137721
-3.6240063	MIXED-BREED	-0.028137721
-3.6240063	DOGS.	-0.028137721
-3.4819407	TAFOYA	-0.028137721
-3.6240063	GERONIMO	-0.028137721
-3.6240063	EIGHT	-0.028137721
-3.6240063	CHILDREN.	-0.028137721
-3.6240063	RESIDENCE	-0.028137721
-3.6240063	STORM	-0.028137721
-3.6240063	PETREL,	-0.028137721
-3.6240063	BULWER'S	-0.028137721
-3.6240063	PETREL	-0.028137721
-3.6240063	YELLOW-LEGGED	-0.028137721
-3.6240063	GULL.	-0.028137721
-3.6240063	UNKNOWN	-0.028137721
-3.6240063	WHETHER	-0.028137721
-3.6240063	KOHLIT	-0.028137721
-3.6240063	PREMIER	-0.028137721
-3.6240063	SPEAKERS	-0.028137721
-3.6240063	BUREAU.	-0.028137721
-3.6240063	WORKLOAD	-0.028137721
-3.6240063	RAILROADS	-0.028137721
-3.6240063	REQUIRED	-0.028137721
-3.6240063	SKILLFUL	-0.028137721
-3.6240063	CO-ORDINATION.	-0.028137721
-3.6240063	ANNE	-0.028137721
-3.6240063	HOPED	-0.028137721
-3.6240063	TEARS	-0.028137721
-3.6240063	SOLITUDE.	-0.028137721
-3.6240063	"CONCERTO"	-0.028137721
-3.6240063	GUITAR	-0.028137721
-3.6240063	ORCHESTRA.	-0.028137721
-3.6240063	REPUTATION	-0.028137721
-3.6240063	LAWYER,	-0.028137721
-3.6240063	STATESMAN	-0.028137721
-3.6240063	MAN	-0.028137721
-3.6240063	LETTERS.	-0.028137721
-3.6240063	WEBSITE,	-0.028137721
-3.6240063	SCANNED	-0.028137721
-3.6240063	COPY	-0.028137721
-3.6240063	FOUND.	-0.028137721
-3.6240063	BODY	-0.028137721
-3.6240063	PLEASURE	-0.028137721
-3.6240063	BOATING.	-0.028137721
-3.4819407	SHOULD	-0.028137721
-3.6240063	SURPRISED	-0.028137721
-3.6240063	TUNES	-0.028137721
-3.6240063	THEMSELVES	-0.028137721
-3.6240063	MULTIPLE	-0.028137721
-3.6240063	NAMES.	-0.028137721
-3.6240063	BEAVERCREEK	-0.028137721
-3.6240063	BIRTHPLACE	-0.028137721
-3.6240063	GEOCACHING.	-0.028137721
-3.6240063	ROOM	-0.028137721
-3.6240063	FRONT	-0.028137721
-3.6240063	SEAT.	-0.028137721
-3.6240063	ENGLISHMEN	-0.028137721
-3.6240063	THAT.	-0.028137721
-3.6240063	OLDEST	-0.028137721
-3.6240063	CONTINUOUS	-0.028137721
-3.6240063	ORGANIZATION	-0.028137721
-3.6240063	ORLEANS	-0.028137721
-3.6240063	MARDI	-0.028137721
-3.6240063	GRAS	-0.028137721
-3.6240063	FESTIVITIES.	-0.028137721
-3.6240063	BOYZONE	-0.028137721
-3.6240063	MANAGER	-0.028137721
-3.6240063	LOUIS	-0.028137721
-3.6240063	QUOTED	-0.028137721
-3.6240063	SAYING:	-0.028137721
-3.6240063	WE'RE	-0.028137721
-3.6240063	ABSOLUTELY	-0.028137721
-3.6240063	DEVASTATED.	-0.028137721
-3.6240063	REGIMENT'S	-0.028137721
-3.6240063	OVERSEAS	-0.028137721
-3.6240063	SECOND	-0.028137721
-3.6240063	OPIUM	-0.028137721
-3.6240063	CHINA.	-0.028137721
-3.6240063	PAST	-0.028137721
-3.4819407	DUALDISC	-0.028137721
-3.6240063	RELEASES,	-0.028137721
-3.6240063	"LIST	-0.028137721
-3.6240063	RELEASES".	-0.028137721
-3.6240063	COMPARE	-0.028137721
-3.6240063	MARKETING	-0.028137721
-3.6240063	STRATEGIES	-0.028137721
-3.6240063	COMPETITORS.	-0.028137721
-3.6240063	CITIES	-0.028137721
-3.6240063	PROBLEMS.	-0.028137721
-3.6240063	HEADED	-0.028137721
-3.6240063	LOBBIES	-0.028137721
-3.6240063	PROVINCIAL	-0.028137721
-3.6240063	NATION'S	-0.028137721
-3.6240063	BEHIND	-0.028137721
-3.6240063	TAI	-0.028137721
-3.6240063	MO	-0.028137721
-3.6240063	SHAN,	-0.028137721
-3.6240063	TALLEST	-0.028137721
-3.6240063	HILL	-0.028137721
-3.6240063	HONG	-0.028137721
-3.6240063	KONG.	-0.028137721
-3.6240063	RAN	-0.028137721
-3.6240063	RACES	-0.028137721
-3.6240063	YEAR,	-0.028137721
-3.6240063	SUFFERING	-0.028137721
-3.6240063	FAILURE	-0.028137721
-3.6240063	RACES.	-0.028137721

\2-grams:
-0.81221527	OXFORD. </s>	0
-0.81221527	ESTAIRES. </s>	0
-0.81221527	POOR. </s>	0
-0.81221527	GOLF. </s>	0
-0.81221527	COLLECTIONS. </s>	0
-0.81221527	FIT. </s>	0
-0.81221527	LOCALITY. </s>	0
-0.81221527	ABILITIES. </s>	0
-0.41444725	LEAGUE. </s>	0
-0.81221527	WEEK. </s>	0
-0.41444725	SOCIETY. </s>	0
-0.81221527	UNRELIABLE. </s>	0
-0.81221527	LUBBOCK. </s>	0
-0.81221527	DERAILLEURS. </s>	0
-0.81221527	COMICS. </s>	0
-0.81221527	TEAM. </s>	0
-0.81221527	RESULTS. </s>	0
-0.81221527	SMITHVILLE. </s>	0
-0.41444725	WOMEN. </s>	0
-0.81221527	ATTENTION. </s>	0
-0.81221527	ANOTHER. </s>	0
-0.41444725	SPORTS. </s>	0
-0.81221527	TECHNOLOGY. </s>	0
-0.81221527	STE. </s>	0
-0.81221527	MANAGER. </s>	0
-0.81221527	PERSONNEL. </s>	0
-1.1151478	AS </s>	0
-0.81221527	TIME. </s>	0
-0.81221527	CORPS. </s>	0
-0.81221527	TIMES". </s>	0
-0.81221527	INTERFERE. </s>	0
-0.81221527	EQUIVALENCE. </s>	0
-0.81221527	SWITZERLAND. </s>	0
-0.81221527	NOISE. </s>	0
-0.81221527	SPACE. </s>	0
-0.81221527	SWANK. </s>	0
-0.41444725	CEMETERY. </s>	0
-0.81221527	ONTARIO. </s>	0
-0.81221527	ALLIANCES. </s>	0
-0.81221527	HANDLE. </s>	0
-0.81221527	BAND. </s>	0
-0.81221527	THIEVES. </s>	0
-0.81221527	RECORD. </s>	0
-0.81221527	RICHFIELD. </s>	0
-0.81221527	SOILS. </s>	0
-0.81221527	AFFAIRS. </s>	0
-0.27677444	RIVER. </s>	0
-0.81221527	GIANTS. </s>	0
-0.81221527	DISCUSSED. </s>	0
-0.81221527	YOURS". </s>	0
-0.41444725	POLITICS. </s>	0
-0.81221527	PARTS. </s>	0
-0.81221527	SECOND. </s>	0
-0.81221527	REFUTED. </s>	0
-0.81221527	RELATIONSHIPS. </s>	0
-0.81221527	METAL-POOR. </s>	0
-0.81221527	ONES. </s>	0
-0.81221527	WATER. </s>	0
-0.81221527	SPAN. </s>	0
-0.81221527	TWICE. </s>	0
-0.81221527	THERE. </s>	0
-0.81221527	POE. </s>	0
-0.81221527	CREW. </s>	0
-0.81221527	LACE. </s>	0
-0.81221527	MELBOURNE. </s>	0
-0.81221527	FRONT. </s>	0
-0.81221527	SWEENEY. </s>	0
-0.81221527	NAVY. </s>	0
-0.27677444	MUSEUM. </s>	0
-0.81221527	SOUTHWARD. </s>	0
-0.81221527	HOSTAGE. </s>	0
-0.41444725	DAY. </s>	0
-0.81221527	INFECTION. </s>	0
-0.81221527	SEMINOLES. </s>	0
-0.81221527	AFFIDAVIT. </s>	0
-0.81221527	CHALLENGER. </s>	0
-0.81221527	DUTIES. </s>	0
-0.81221527	MASSACHUSETTS. </s>	0
-0.81221527	MUTES. </s>	0
-0.81221527	USER? </s>	0
-0.81221527	SAMSUNG. </s>	0
-0.81221527	THINGS. </s>	0
-0.41444725	ME. </s>	0
-0.81221527	GEORGIA. </s>	0
-0.81221527	SOLDIERS. </s>	0
-0.81221527	PARAMYTHIA. </s>	0
-0.81221527	PLANTS. </s>	0
-0.81221527	WRESTLER. </s>	0
-0.41444725	SURVEYS. </s>	0
-0.81221527	SHOWALTER. </s>	0
-0.41444725	NIGHT. </s>	0
-0.81221527	RYDE. </s>	0
-0.81221527	DISMISSED. </s>	0
-0.81221527	DOWN. </s>	0
-0.81221527	SMITH. </s>	0
-0.81221527	MANAGEMENT. </s>	0
-0.81221527	DISADVANTAGES. </s>	0
-0.81221527	MEETING. </s>	0
-0.81221527	WATERMARKING. </s>	0
-0.81221527	MONARCHY. </s>	0
-0.81221527	BEGINS. </s>	0
-0.81221527	INTERACTIONS. </s>	0
-0.81221527	SEMESTERS. </s>	0
-0.81221527	THEORY. </s>	0
-0.81221527	GENUS. </s>	0
-0.81221527	TREES. </s>	0
-0.41444725	SCHOOL. </s>	0
-0.81221527	FAVOURITE. </s>	0
-0.81221527	SCHEME. </s>	0
-0.81221527	HERE. </s>	0
-0.81221527	WEAR. </s>	0
-0.81221527	CEYLON. </s>	0
-0.81221527	DITCH. </s>	0
-0.81221527	MARKET. </s>	0
-0.81221527	BATTLE. </s>	0
-0.81221527	TOGETHER. </s>	0
-0.81221527	UNCANNY. </s>	0
-0.81221527	TITLE. </s>	0
-0.81221527	DID. </s>	0
-0.81221527	INSTRUCTOR. </s>	0
-0.41444725	UNKNOWN. </s>	0
-0.81221527	ADDED. </s>	0
-0.81221527	WRONG! </s>	0
-0.81221527	ASPECT. </s>	0
-0.81221527	BULLETS. </s>	0
-0.81221527	BONNY. </s>	0
-0.81221527	LAST! </s>	0
-0.81221527	SATAN. </s>	0
-0.81221527	BLAKE. </s>	0
-0.81221527	ASIA. </s>	0
-0.81221527	AFRICA. </s>	0
-0.81221527	CREEK. </s>	0
-0.81221527	REWARDING. </s>	0
-0.81221527	LENSING. </s>	0
-0.81221527	YAHOO! </s>	0
-0.41444725	DISTRICT. </s>	0
-0.81221527	BLADE. </s>	0
-0.81221527	IT. </s>	0
-0.81221527	MEXICO. </s>	0
-0.81221527	FLOWS. </s>	0
-0.81221527	SENSE. </s>	0
-0.81221527	"GRIGHUND". </s>	0
-0.81221527	INVERIN. </s>	0
-0.81221527	VISION". </s>	0
-0.81221527	LEADER. </s>	0
-0.81221527	VARIANTS. </s>	0
-0.81221527	UNDERGROUND. </s>	0
-0.81221527	VILLAGE. </s>	0
-0.81221527	DESIGN. </s>	0
-0.81221527	INCREASES. </s>	0
-0.81221527	DISORDERS. </s>	0
-0.81221527	SOLOISTS. </s>	0
-0.81221527	TEXTS. </s>	0
-0.81221527	POINT. </s>	0
-0.81221527	COOPER. </s>	0
-0.41444725	SYSTEMS. </s>	0
-0.81221527	AUGUST. </s>	0
-0.81221527	PIECES. </s>	0
-0.81221527	POSTS. </s>	0
-0.81221527	DOCUMENTATION. </s>	0
-0.81221527	CUSTOM. </s>	0
-0.81221527	RATING. </s>	0
-0.81221527	CATALOGUES. </s>	0
-0.81221527	DUBLIN. </s>	0
-0.81221527	ARCHITECTURE. </s>	0
-0.81221527	DROPS. </s>	0
-0.81221527	PRAISES. </s>	0
-0.81221527	PRACTICE. </s>	0
-0.41444725	FAMILY. </s>	0
-0.81221527	NEARBY. </s>	0
-0.81221527	LAUNCH. </s>	0
-0.81221527	FOR. </s>	0
-0.81221527	CORRIDORS. </s>	0
-0.81221527	COPPER. </s>	0
-0.81221527	NOTICE. </s>	0
-0.81221527	UNSURVEYED. </s>	0
-0.81221527	CHARLESTON. </s>	0
-0.41444725	YOU". </s>	0
-0.81221527	DIPPING. </s>	0
-0.81221527	TRIPOLITANIA. </s>	0
-0.81221527	MINORS. </s>	0
-0.81221527	LIONS. </s>	0
-0.81221527	STUDENTS. </s>	0
-0.81221527	GROUPS. </s>	0
-0.81221527	CHAOS. </s>	0
-0.81221527	CLASSES. </s>	0
-0.81221527	GRAMMAR. </s>	0
-0.81221527	RULE. </s>	0
-0.81221527	LUCIE. </s>	0
-0.81221527	CREDENTIALING. </s>	0
-0.81221527	MAN. </s>	0
-0.81221527	ECONOMY. </s>	0
-0.81221527	RESISTANCE. </s>	0
-0.81221527	ARISTOCRATS. </s>	0
-0.81221527	MUSIC. </s>	0
-0.81221527	POLYGRAM. </s>	0
-0.81221527	ALONE. </s>	0
-0.81221527	PROCESS. </s>	0
-0.81221527	REPLACED. </s>	0
-0.81221527	WADE. </s>	0
-0.81221527	GREASY. </s>	0
-0.81221527	CHARACTER. </s>	0
-0.81221527	ANGER. </s>	0
-0.81221527	DRINKING. </s>	0
-0.81221527	EYES. </s>	0
-0.27677444	HIM. </s>	0
-0.81221527	WETLANDS. </s>	0
-0.81221527	USED. </s>	0
-0.81221527	BOUNDARY. </s>	0
-0.81221527	ICELAND. </s>	0
-0.81221527	ORGANIZATIONS. </s>	0
-0.81221527	SLIGHTLY. </s>	0
-0.81221527	IRRITATION. </s>	0
-0.81221527	SAYS. </s>	0
-0.81221527	COUNCIL. </s>	0
-0.81221527	AMALGAMATIONS. </s>	0
-0.81221527	ARTISTS. </s>	0
-0.81221527	VERSE. </s>	0
-0.41444725	COMPANY. </s>	0
-0.81221527	DISCLOSED. </s>	0
-0.81221527	BASE. </s>	0
-0.81221527	FRONTAGE. </s>	0
-0.81221527	EVANS. </s>	0
-0.81221527	TWO. </s>	0
-0.81221527	SYDNEY. </s>	0
-0.81221527	HYPHEN. </s>	0
-0.81221527	COOKED. </s>	0
-0.81221527	ENDINGS. </s>	0
-0.81221527	POINTS. </s>	0
-0.81221527	POLAROID. </s>	0
-0.81221527	FLIGHT. </s>	0
-0.81221527	NARRATIVE. </s>	0
-0.81221527	PERSON. </s>	0
-0.81221527	LAKE. </s>	0
-0.81221527	CHARACTERISTICS. </s>	0
-0.81221527	DAUGHTERS. </s>	0
-0.81221527	BORN. </s>	0
-0.81221527	DIRECTOR. </s>	0
-0.81221527	IMPACTS. </s>	0
-0.81221527	CONDITIONAL. </s>	0
-0.81221527	RULES. </s>	0
-0.81221527	RIGHT. </s>	0
-0.81221527	UNIVERSITY. </s>	0
-0.81221527	JAPAN. </s>	0
-0.81221527	FOOTBALL. </s>	0
-0.81221527	TRACK. </s>	0
-0.81221527	CAR. </s>	0
-0.81221527	INTERNATIONAL. </s>	0
-0.81221527	ELEMENTS. </s>	0
-0.41444725	PLATFORMS. </s>	0
-0.81221527	NETWORK. </s>	0
-0.81221527	SINGLES. </s>	0
-0.81221527	'WELLS'. </s>	0
-0.81221527	CONFLICT. </s>	0
-0.81221527	GRATITUDE. </s>	0
-0.81221527	ANNAPOLIS. </s>	0
-0.81221527	SEEDS. </s>	0
-0.81221527	AIRPORT. </s>	0
-0.81221527	STIGMATA. </s>	0
-0.81221527	MARYLAND. </s>	0
-0.81221527	ROOTS. </s>	0
-0.81221527	MYSTERY. </s>	0
-0.41444725	CITY. </s>	0
-0.81221527	VERSIFICATION. </s>	0
-0.81221527	WORLDS. </s>	0
-0.81221527	EVENTS. </s>	0
-0.81221527	IDENTITIES. </s>	0
-0.81221527	TORONTO. </s>	0
-0.81221527	WORD. </s>	0
-0.81221527	FILM. </s>	0
-0.81221527	ANYMORE. </s>	0
-0.41444725	CAPITAL. </s>	0
-0.81221527	GOD </s>	0
-0.81221527	HISTORY. </s>	0
-0.81221527	EARTH. </s>	0
-0.81221527	LANE. </s>	0
-0.81221527	LENGTH. </s>	0
-0.41444725	WORLD. </s>	0
-0.81221527	SEA. </s>	0
-0.81221527	VIOLATED. </s>	0
-0.81221527	WALLPAPER". </s>	0
-0.81221527	COMMANDER. </s>	0
-0.81221527	PATIENT. </s>	0
-0.81221527	FORCE. </s>	0
-0.81221527	RAIN. </s>	0
-0.81221527	RING. </s>	0
-0.81221527	ON. </s>	0
-0.81221527	JUDGMENT. </s>	0
-0.81221527	OLD. </s>	0
-0.81221527	JOURNEY. </s>	0
-0.41444725	SEASON. </s>	0
-0.81221527	ARDAGH. </s>	0
-0.81221527	PAINTINGS. </s>	0
-0.81221527	LIFESTYLE. </s>	0
-0.81221527	CONSTRUCTION. </s>	0
-0.81221527	FINE. </s>	0
-0.81221527	RESEARCH. </s>	0
-0.81221527	BLOOD. </s>	0
-0.81221527	COMMAND. </s>	0
-0.81221527	PARASITES. </s>	0
-0.81221527	YARD. </s>	0
-0.81221527	THEMSELVES. </s>	0
-0.81221527	ROUTE. </s>	0
-0.81221527	RECORDED. </s>	0
-0.81221527	BOX". </s>	0
-0.81221527	SWIMMER. </s>	0
-0.81221527	ACHIEVED. </s>	0
-0.81221527	LEVELS. </s>	0
-0.81221527	CONNACHT. </s>	0
-0.81221527	SONGS. </s>	0
-0.81221527	SHAFT. </s>	0
-0.81221527	NOTTINGHAM. </s>	0
-0.81221527	TOO. </s>	0
-0.81221527	HORSES. </s>	0
-0.81221527	SEA". </s>	0
-0.81221527	NON-TRIVIAL. </s>	0
-0.81221527	SHIP. </s>	0
-0.81221527	HERSELF. </s>	0
-0.81221527	MURDERED. </s>	0
-0.81221527	JOURNALISTS. </s>	0
-0.81221527	WILWERDANGE. </s>	0
-0.81221527	WORKINGS. </s>	0
-0.81221527	MOVE. </s>	0
-0.81221527	THEM. </s>	0
-0.81221527	SERICULTURE. </s>	0
-0.81221527	TOWN. </s>	0
-0.81221527	MONTHS. </s>	0
-0.81221527	ONE. </s>	0
-0.81221527	NETHERLANDS. </s>	0
-0.81221527	TRAINING. </s>	0
-0.81221527	BANK. </s>	0
-0.81221527	SAMPANS. </s>	0
-0.81221527	GOVERNMENT. </s>	0
-0.81221527	YEAR. </s>	0
-0.81221527	BLEWETT. </s>	0
-0.81221527	LIST. </s>	0
-0.81221527	CONVENT. </s>	0
-0.81221527	TRIBE. </s>	0
-0.81221527	SAY. </s>	0
-0.81221527	STOP. </s>	0
-0.81221527	MUNICIPALITY. </s>	0
-0.81221527	GEAR. </s>	0
-0.81221527	INDUSTRY. </s>	0
-0.81221527	INFRINGEMENT. </s>	0
-0.81221527	TO. </s>	0
-0.81221527	OTHERS. </s>	0
-0.81221527	CHARACTERS. </s>	0
-0.81221527	TERRITORIES. </s>	0
-0.81221527	COURTS. </s>	0
-0.81221527	"PORT-PEL-LAH". </s>	0
-0.81221527	GRADE. </s>	0
-0.81221527	KING. </s>	0
-0.81221527	SUPERMARKET. </s>	0
-0.81221527	HUMANITIES. </s>	0
-0.81221527	FAIL-SAFE. </s>	0
-0.81221527	POSTPONED. </s>	0
-0.81221527	MICROSCOPES. </s>	0
-0.81221527	MONEY. </s>	0
-0.81221527	EMO. </s>	0
-0.81221527	DEVELOPMENT. </s>	0
-0.81221527	INTRODUCED. </s>	0
-0.41444725	AREA. </s>	0
-0.81221527	BOAT. </s>	0
-0.81221527	STORY. </s>	0
-0.81221527	GIRL. </s>	0
-0.81221527	MINISTER. </s>	0
-0.81221527	JOHN. </s>	0
-0.81221527	IVREA. </s>	0
-0.81221527	LINE? </s>	0
-0.41444725	CALIFORNIA. </s>	0
-0.81221527	CALIBERS. </s>	0
-0.81221527	IRELAND. </s>	0
-0.81221527	TRUSTEES". </s>	0
-0.81221527	UNDERWATER. </s>	0
-0.81221527	MONTREAL. </s>	0
-0.81221527	THEATER. </s>	0
-0.81221527	AARHUS. </s>	0
-0.81221527	EARTH? </s>	0
-0.81221527	HOME. </s>	0
-0.81221527	APPLICATION. </s>	0
-0.81221527	TIPS. </s>	0
-0.81221527	SUTHERLAND. </s>	0
-0.81221527	HE? </s>	0
-0.81221527	MODE. </s>	0
-0.81221527	ANNUALLY. </s>	0
-0.81221527	RESIDENTS. </s>	0
-0.81221527	HOUR. </s>	0
-0.81221527	INCREASE. </s>	0
-0.81221527	AFTER. </s>	0
-0.81221527	BASIN. </s>	0
-0.81221527	RAFTS. </s>	0
-0.81221527	AUSTRALIA. </s>	0
-0.81221527	SURRENDER. </s>	0
-0.81221527	POWER. </s>	0
-0.81221527	BOOKS. </s>	0
-0.81221527	STRIKE. </s>	0
-0.81221527	"JERSEY". </s>	0
-0.81221527	INTERTWINED. </s>	0
-0.81221527	LISTED. </s>	0
-0.81221527	MEDIA. </s>	0
-0.81221527	SEPARATE". </s>	0
-0.81221527	SCORER. </s>	0
-0.81221527	BRIDGE. </s>	0
-0.81221527	ABROAD. </s>	0
-0.81221527	AVAILABLE. </s>	0
-0.81221527	DEATH. </s>	0
-0.81221527	HER. </s>	0
-0.81221527	OPEN. </s>	0
-0.81221527	COURT-MARTIAL. </s>	0
-0.81221527	SIDE. </s>	0
-0.81221527	COUNTRY. </s>	0
-0.81221527	PEARCE. </s>	0
-0.81221527	E! </s>	0
-0.81221527	FISHKILL. </s>	0
-0.81221527	HALLUCINATIONS. </s>	0
-0.81221527	RUSSIA. </s>	0
-0.81221527	FILMED. </s>	0
-0.81221527	CLAIRE. </s>	0
-0.81221527	ANNIE. </s>	0
-0.81221527	CUSTODY. </s>	0
-0.41444725	LIEUTENANT. </s>	0
-0.81221527	GENERATE. </s>	0
-0.81221527	TACT. </s>	0
-0.81221527	NOVELS. </s>	0
-0.81221527	TANNING. </s>	0
-0.81221527	ESTATE. </s>	0
-0.81221527	TROOPS. </s>	0
-0.81221527	SECTIONS. </s>	0
-0.81221527	VARIETIES. </s>	0
-0.81221527	MINES. </s>	0
-0.81221527	TOENAILS. </s>	0
-0.81221527	ESTATES. </s>	0
-0.81221527	UNDOCUMENTED. </s>	0
-0.81221527	FEELINGS. </s>	0
-0.81221527	LIKE. </s>	0
-0.81221527	SURVIVED. </s>	0
-0.81221527	UNIT. </s>	0
-0.81221527	UP. </s>	0
-0.81221527	MINNELLI. </s>	0
-0.81221527	DOGS. </s>	0
-0.81221527	CHILDREN. </s>	0
-0.81221527	GULL. </s>	0
-0.81221527	BUREAU. </s>	0
-0.81221527	CO-ORDINATION. </s>	0
-0.81221527	SOLITUDE. </s>	0
-0.81221527	ORCHESTRA. </s>	0
-0.81221527	LETTERS. </s>	0
-0.81221527	FOUND. </s>	0
-0.81221527	BOATING. </s>	0
-0.81221527	NAMES. </s>	0
-0.81221527	GEOCACHING. </s>	0
-0.81221527	SEAT. </s>	0
-0.81221527	THAT. </s>	0
-0.81221527	FESTIVITIES. </s>	0
-0.81221527	DEVASTATED. </s>	0
-0.81221527	CHINA. </s>	0
-0.81221527	RELEASES". </s>	0
-0.81221527	COMPETITORS. </s>	0
-0.81221527	PROBLEMS. </s>	0
-0.81221527	KONG. </s>	0
-0.81221527	RACES. </s>	0
-1.1013843	<s> HE	-0.19343786
-1.5935668	YEAR HE	-0.13470435
-0.88091075	WHERE HE	-0.009743899
-1.1718738	BOTHERING, HE	-0.009743899
-1.4959518	THAT HE	-0.009743899
-1.444306	TIME HE	-0.009743899
-0.95707715	WHICH HE	-0.009743899
-1.1718738	SURPRISINGLY, HE	-0.009743899
-1.1718738	FAMOUSLY, HE	-0.009743899
-1.1718738	REMARKED HE	-0.009743899
-1.1718738	DISAPPOINTED HE	-0.009743899
-1.1718738	ACCOMPLISHED HE	-0.009743899
-1.1718738	FELT HE	-0.009743899
-1.1718738	OTHERS,” HE	-0.009743899
-1.1718738	TRUE, HE	-0.009743899
-1.444306	WHEN HE	-0.009743899
-1.1718738	ARTISTS, HE	-0.009743899
-1.1718738	GRADUATION HE	-0.009743899
-1.1718738	ILLUSTRATIONS HE	-0.009743899
-1.444306	EVERYTHING HE	-0.009743899
-1.444306	ADDITIONALLY, HE	-0.009743899
-1.1718738	LAYOFF, HE	-0.009743899
-1.1718738	ELECTION, HE	-0.009743899
-1.1718738	EXAMPLE, HE	-0.009743899
-0.91856563	HE WAS	-0.039711773
-1.7171015	AND WAS	-0.009743899
-1.345978	DIVISION WAS	-0.009743899
-1.8134701	THIS WAS	-0.08893816
-1.1166135	STAGE WAS	-0.009743899
-1.1166135	GHETTOIZATION WAS	-0.009743899
-1.1166135	PHILPOTT WAS	-0.009743899
-1.8241143	IT WAS	-0.009743899
-1.6443856	SCHOOL WAS	-0.009743899
-1.5316505	AREA WAS	-0.009743899
-1.5316505	SERIES WAS	-0.009743899
-1.1166135	HART WAS	-0.009743899
-1.8145734	THAT WAS	-0.009743899
-1.1166135	RAFF WAS	-0.009743899
-1.1166135	STEVENSON WAS	-0.009743899
-1.6166838	I WAS	-0.009743899
-1.5316505	VILLAGE WAS	-0.009743899
-1.1166135	ETHEL WAS	-0.009743899
-1.5602347	TOWN WAS	-0.009743899
-1.345978	HOUSE WAS	-0.009743899
-1.2313209	SHE WAS	-0.009743899
-1.1166135	FILMING WAS	-0.009743899
-0.48327836	WALSH WAS	-0.009743899
-1.639715	WHICH WAS	-0.009743899
-1.1166135	RAVANNA WAS	-0.009743899
-1.1166135	ESTATE WAS	-0.009743899
-1.1166135	NILSEN WAS	-0.009743899
-1.345978	FACILITY WAS	-0.009743899
-1.4605716	CONTROL WAS	-0.009743899
-1.1166135	DOUGLAS-HAMILTON WAS	-0.009743899
-0.66576046	THERE WAS	-0.009743899
-1.345978	REASON WAS	-0.009743899
-1.345978	CHILD WAS	-0.009743899
-1.1166135	JACK WAS	-0.009743899
-1.5316505	NAME WAS	-0.009743899
-1.1166135	REICHENSPERGER, WAS	-0.009743899
-1.1166135	HURLEY WAS	-0.009743899
-1.1166135	EFFORT WAS	-0.009743899
-1.1166135	IRELAND WAS	-0.009743899
-1.1166135	STEP" WAS	-0.009743899
-1.1166135	EXCHANGES WAS	-0.009743899
-1.1166135	IBRAHIM WAS	-0.009743899
-1.1166135	CHARACTER WAS	-0.009743899
-1.345978	LIFE WAS	-0.009743899
-1.1166135	PROCESS WAS	-0.009743899
-1.1166135	GALLEY, WAS	-0.009743899
-1.1166135	FOOD WAS	-0.009743899
-1.1166135	SLOMAN WAS	-0.009743899
-1.1166135	KINGSBURY WAS	-0.009743899
-1.1166135	BENNETT WAS	-0.009743899
-1.1166135	GREER WAS	-0.009743899
-1.4605716	COMPANY WAS	-0.009743899
-1.1166135	COMEDY WAS	-0.009743899
-1.1166135	COONEY WAS	-0.009743899
-1.1166135	JUSTICE WAS	-0.009743899
-1.1166135	ESTABLISHMENT WAS	-0.009743899
-1.1166135	OPERATION WAS	-0.009743899
-1.345978	GIFTS WAS	-0.009743899
-1.1166135	KEEL WAS	-0.009743899
-1.1166135	BOAT WAS	-0.009743899
-1.1166135	CREW WAS	-0.009743899
-1.1166135	DATE WAS	-0.009743899
-1.1166135	MICROSCOPE WAS	-0.009743899
-1.1166135	PLANT WAS	-0.009743899
-1.1166135	HICKS WAS	-0.009743899
-1.1166135	MCNEIL WAS	-0.009743899
-1.1166135	WAYNE WAS	-0.009743899
-1.1166135	LUCO WAS	-0.009743899
-1.1166135	SHIRT WAS	-0.009743899
-1.1166135	DECIBEL WAS	-0.009743899
-1.2222463	WAS BORN	-0.53927684
-2.0887954	ALL BORN	-0.009743899
-2.541379	<s> AT	-0.009743899
-1.6255256	BORN AT	-0.009743899
-0.49331275	EDUCATED AT	-0.009743899
-2.483354	IS AT	-0.009743899
-1.9678038	LOCATED AT	-0.009743899
-1.7975776	CAREER AT	-0.009743899
-1.4589432	RACE AT	-0.009743899
-1.1796291	WINDY AT	-0.009743899
-1.1796291	TAGLINE: AT	-0.009743899
-1.1796291	SCRAPS AT	-0.009743899
-1.7975776	WORKING AT	-0.009743899
-1.1796291	RETIRE AT	-0.009743899
-1.4589432	PROVIDED AT	-0.009743899
-1.1796291	DISCONTINUED AT	-0.009743899
-1.1796291	TAUGHT AT	-0.009743899
-1.1796291	EMPLOYED AT	-0.009743899
-1.1796291	LAID AT	-0.009743899
-1.4589432	BELONGED AT	-0.009743899
-2.4982765	AT WICHENFORD,	-0.009743899
-1.6655127	<s> IN	-0.009743899
-0.64289606	BORN IN	-0.009743899
-1.0903512	WICHENFORD, IN	-0.009743899
-1.3922957	ALSO IN	-0.009743899
-1.5082304	INCLUDED IN	-0.009743899
-1.6823751	IS IN	-0.009743899
-1.0903512	MINISTERS IN	-0.009743899
-1.4045718	THIRD IN	-0.009743899
-1.3023374	SYSTEM IN	-0.009743899
-1.5615485	SCHOOL IN	-0.009743899
-1.0903512	DISTRICT IN	-0.009743899
-1.3023374	POSITIONS IN	-0.009743899
-1.4997295	PARTY IN	-0.009743899
-1.6950747	ARE IN	-0.009743899
-1.6063265	LATER IN	-0.009743899
-1.3023374	DEATH IN	-0.009743899
-1.4664072	COME IN	-0.009743899
-1.5082304	ONLY IN	-0.009743899
-1.0903512	LACHEN IN	-0.009743899
-1.6047543	REFERRED IN	-0.009743899
-1.0903512	RUNS IN	-0.009743899
-1.4045718	THAN IN	-0.009743899
-1.3023374	STARS IN	-0.009743899
-1.0194232	LOCATED IN	-0.009743899
-1.0903512	COMPETENT IN	-0.009743899
-1.5082304	CAREER IN	-0.009743899
-1.3023374	STARRING IN	-0.009743899
-1.3023374	INVOLVED IN	-0.009743899
-1.3023374	BELIEVE IN	-0.009743899
-1.0903512	CRUCIAL IN	-0.009743899
-1.4045718	SHORT IN	-0.009743899
-1.4045718	DONE IN	-0.009743899
-1.0903512	CUTOUTS IN	-0.009743899
-1.4664072	SEEN IN	-0.009743899
-1.3023374	RESULT IN	-0.009743899
-1.6097653	USED IN	-0.009743899
-1.4664072	NOW IN	-0.009743899
-1.3023374	RESULTED IN	-0.009743899
-1.3023374	STEP IN	-0.009743899
-1.3023374	STUDY IN	-0.009743899
-1.6047543	KNOWN IN	-0.009743899
-1.0903512	NUMBERED IN	-0.009743899
-1.0903512	CONSTANTINE IN	-0.009743899
-1.4045718	REMAINS IN	-0.009743899
-1.4045718	SAID IN	-0.009743899
-1.0903512	FRAGMENTED IN	-0.009743899
-1.5082304	UP IN	-0.009743899
-1.0903512	ROLE IN	-0.009743899
-1.5082304	CITY IN	-0.009743899
-1.0903512	HEADQUARTERED IN	-0.009743899
-0.4787242	ACTIVE IN	-0.009743899
-1.3023374	GIVEN IN	-0.009743899
-1.0903512	STUDIOS IN	-0.009743899
-1.4045718	DIED IN	-0.009743899
-1.0903512	SPECIALIZES IN	-0.009743899
-1.0903512	APPEAR IN	-0.009743899
-1.0903512	POSITION IN	-0.009743899
-1.5645429	HAD IN	-0.009743899
-1.0903512	RESPONDED IN	-0.009743899
-1.0903512	VISION, IN	-0.009743899
-1.0903512	EQUITY IN	-0.009743899
-1.0903512	BARRACKS IN	-0.009743899
-1.0903512	ACTIONS IN	-0.009743899
-1.0903512	EIGHTH IN	-0.009743899
-1.4997295	STATION IN	-0.009743899
-1.3023374	PROGRAM IN	-0.009743899
-1.0903512	SELECTION IN	-0.009743899
-1.0903512	PURSUE IN	-0.009743899
-1.0903512	AIRS IN	-0.009743899
-1.0903512	ACADEMY IN	-0.009743899
-1.0903512	POOR IN	-0.009743899
-1.0903512	LIVES IN	-0.009743899
-1.0903512	LEGENDARY IN	-0.009743899
-1.0903512	PAINTED IN	-0.009743899
-1.0903512	CLOCK IN	-0.009743899
-1.3023374	INSTALLED IN	-0.009743899
-1.3023374	POPULAR IN	-0.009743899
-1.3023374	ACTIVITIES IN	-0.009743899
-1.0903512	UNTITLED IN	-0.009743899
-1.0903512	TRUCKS IN	-0.009743899
-1.0903512	SPECIALIZED IN	-0.009743899
-1.0903512	ACTORS IN	-0.009743899
-1.0903512	APPARENT IN	-0.009743899
-1.0903512	CONFIDENT IN	-0.009743899
-1.0903512	ACT IN	-0.009743899
-1.0903512	SUNDER" IN	-0.009743899
-1.0903512	APPLY IN	-0.009743899
-1.0903512	STAYS IN	-0.009743899
-1.3023374	STREET IN	-0.009743899
-1.0903512	SKILLS IN	-0.009743899
-1.0903512	HIGHLIGHTED IN	-0.009743899
-1.0903512	DEVELOPED IN	-0.009743899
-1.0903512	HILL IN	-0.009743899
-1.0903512	FAILURE IN	-0.009743899
-3.1370738	IN WORCESTERSHIRE,	-0.009743899
-1.0808984	WORCESTERSHIRE, AND	-0.009743899
-1.0808984	OVERRUN AND	-0.009743899
-1.0808984	TREASURER AND	-0.009743899
-1.2870401	ENGINES AND	-0.009743899
-1.0808984	FOSTER AND	-0.009743899
-1.2870401	DEFENSE AND	-0.009743899
-1.3853033	FOOTBALL AND	-0.009743899
-1.2870401	INSIDE AND	-0.009743899
-1.0808984	ARQUETTE, AND	-0.009743899
-1.0808984	SIZE AND	-0.009743899
-1.0808984	OAK AND	-0.009743899
-1.0808984	CORRUPTION AND	-0.009743899
-1.0808984	COMPASSION AND	-0.009743899
-1.0808984	BRIDGE, AND	-0.009743899
-1.0808984	ALABAMA AND	-0.009743899
-1.0808984	REFUSES, AND	-0.009743899
-1.0808984	BLEEDING AND	-0.009743899
-1.0808984	PERSONS AND	-0.009743899
-1.0808984	GROWLS AND	-0.009743899
-1.0808984	HYBRIDS AND	-0.009743899
-1.0808984	FIRE, AND	-0.009743899
-1.0808984	BRACELETS, AND	-0.009743899
-1.0808984	ADVANTAGES AND	-0.009743899
-1.0808984	PROJECTS, AND	-0.009743899
-1.0808984	REINFORCEMENT AND	-0.009743899
-1.0808984	WALL AND	-0.009743899
-1.0808984	DATED AND	-0.009743899
-1.2870401	CHILD AND	-0.009743899
-1.0808984	FAIR AND	-0.009743899
-1.0808984	IRELAND, AND	-0.009743899
-1.0808984	CHALLENGING AND	-0.009743899
-1.2870401	PITTSBURGH AND	-0.009743899
-1.4839106	CITY AND	-0.009743899
-1.0808984	CAREY AND	-0.009743899
-1.0808984	CLAPPING AND	-0.009743899
-1.0808984	WELLS AND	-0.009743899
-1.0808984	SILVER, AND	-0.009743899
-1.3853033	LOVE AND	-0.009743899
-1.0808984	TUNISIA AND	-0.009743899
-1.0808984	GIANTS AND	-0.009743899
